{"learner":{"attributes":{"best_iteration":"169","best_score":"0.9830834815149887","scikit_learn":"{\"_estimator_type\": \"classifier\"}"},"feature_names":[],"feature_types":[],"gradient_booster":{"model":{"gbtree_model_param":{"num_parallel_tree":"1","num_trees":"270"},"iteration_indptr":[0,1,2,3,4,5,6,7,8,9,10,11,12,13,14,15,16,17,18,19,20,21,22,23,24,25,26,27,28,29,30,31,32,33,34,35,36,37,38,39,40,41,42,43,44,45,46,47,48,49,50,51,52,53,54,55,56,57,58,59,60,61,62,63,64,65,66,67,68,69,70,71,72,73,74,75,76,77,78,79,80,81,82,83,84,85,86,87,88,89,90,91,92,93,94,95,96,97,98,99,100,101,102,103,104,105,106,107,108,109,110,111,112,113,114,115,116,117,118,119,120,121,122,123,124,125,126,127,128,129,130,131,132,133,134,135,136,137,138,139,140,141,142,143,144,145,146,147,148,149,150,151,152,153,154,155,156,157,158,159,160,161,162,163,164,165,166,167,168,169,170,171,172,173,174,175,176,177,178,179,180,181,182,183,184,185,186,187,188,189,190,191,192,193,194,195,196,197,198,199,200,201,202,203,204,205,206,207,208,209,210,211,212,213,214,215,216,217,218,219,220,221,222,223,224,225,226,227,228,229,230,231,232,233,234,235,236,237,238,239,240,241,242,243,244,245,246,247,248,249,250,251,252,253,254,255,256,257,258,259,260,261,262,263,264,265,266,267,268,269,270],"tree_info":[0,0,0,0,0,0,0,0,0,0,0,0,0,0,0,0,0,0,0,0,0,0,0,0,0,0,0,0,0,0,0,0,0,0,0,0,0,0,0,0,0,0,0,0,0,0,0,0,0,0,0,0,0,0,0,0,0,0,0,0,0,0,0,0,0,0,0,0,0,0,0,0,0,0,0,0,0,0,0,0,0,0,0,0,0,0,0,0,0,0,0,0,0,0,0,0,0,0,0,0,0,0,0,0,0,0,0,0,0,0,0,0,0,0,0,0,0,0,0,0,0,0,0,0,0,0,0,0,0,0,0,0,0,0,0,0,0,0,0,0,0,0,0,0,0,0,0,0,0,0,0,0,0,0,0,0,0,0,0,0,0,0,0,0,0,0,0,0,0,0,0,0,0,0,0,0,0,0,0,0,0,0,0,0,0,0,0,0,0,0,0,0,0,0,0,0,0,0,0,0,0,0,0,0,0,0,0,0,0,0,0,0,0,0,0,0,0,0,0,0,0,0,0,0,0,0,0,0,0,0,0,0,0,0,0,0,0,0,0,0,0,0,0,0,0,0,0,0,0,0,0,0,0,0,0,0,0,0,0,0,0,0,0,0,0,0,0,0,0,0],"trees":[{"base_weights":[-6.367487E-4,1.7153767E1,-5.5082595E-1,2.1908964E1,1.2488003E1,-7.171795E-1,8.599829E0,1.1444216E0,1.8799086E1,1.7028412E1,1.0912472E1,2.4333332E0,-8.296981E-1,6.372393E0,1.7081078E1,5.445567E-1,1.9285297E1,1.5139232E1,1.9620838E1,1.2946205E1,8.986753E0,6.622801E0,1.8700495E0,-9.1715467E-1,1.1004894E0,1.7580583E0,8.26007E0,9.896852E0,1.8787825E1,1.6630592E1,2.0962711E1,1.6646296E1,9.802422E0,1.4754198E1,2.076018E1,1.1471398E1,1.7359726E1,7.6753483E0,1.102944E1,1.3969796E1,5.4565825E0,1.0449736E0,3.5724323E0,-9.8167974E-1,-2.7593225E-1,5.611957E0,7.0968395E-1,5.0044456E0,7.888543E-1,1.1578885E1,6.1949244E0,5.2999284E-2,1.3904664E1,1.2277681E1,2.0109701E1,4.2470032E-1,1.8072613E1,1.083416E0,7.667648E-1,1.8968842E1,1.3249468E1,7.76721E-1,6.436609E0,9.5118886E-1,4.452487E-1,1.1149665E0,1.6853115E1,8.806915E0,1.3539706E1,5.445567E-1,1.8563831E1,5.4282227E0,1.0339821E1,1.342494E1,7.91949E0,8.5665876E-1,3.9629573E-1,7.623998E0,3.5179222E0,2.5180364E0,1.772407E-1,1.4530488E0,4.903281E0,-5.22645E-1,-1.0078762E0,-7.302764E-1,6.0328037E-1,9.255297E0,3.4746578E0,7.0003173E-3,1.9629916E0,7.870683E0,1.3827578E0,3.0824617E-1,3.3194736E-1,1.4443547E1,9.050397E0,5.1556277E0,1.1091464E1,9.9277955E-1,3.8846672E-1,2.4295588E-1,8.015599E-1,2.0975363E1,1.5653764E1,1.8936708E1,5.8086044E-1,9.9887925E-1,6.260643E-1,2.9693446E-1,1.5159608E1,1.11007825E-1,5.1501924E-1,5.8086044E-1,9.754373E-1,3.5661771E0,1.0622344E1,1.420604E1,2.7402946E-1,9.874534E-1,6.84468E-1,7.4045568E0,2.521369E0,1.3464132E1,7.850989E0,9.697406E0,1.721078E1,6.1687837E0,7.61676E-1,1.0954817E1,4.804393E0,2.73928E0,4.904526E-1,3.7196028E0,9.333494E-1,1.6099843E0,-4.9506836E-2,3.155877E-1,5.765881E0,1.068246E1,4.118403E0,2.5331748E-1,-5.485915E-1,-1.0229061E0,-8.3449143E-1,-8.3242166E-1,-6.48881E-2,3.8906083E0,1.3687423E-1,1.3491257E1,4.612619E0,2.4442816E0,5.11412E-1,2.0336516E0,-1.654478E-1,3.1494377E0,1.0083135E0,6.1320347E-1,1.6820608E-1,1.5803757E-1,-4.3277886E-2,1.785445E-1,-8.858311E-2,1.1929954E1,1.7750935E1,7.6523143E-1,8.063366E0,1.1715571E1,4.577587E0,1.9345067E-1,1.3444738E1,2.1785954E1,8.1665844E-1,5.356565E-1,8.99288E-1,9.9423045E-1,6.643325E-1,9.1332704E-1,4.069298E-1,3.1422672E-1,-4.386274E-2,6.8240774E-1,3.718746E-1,3.6811414E-1,7.467276E-1,1.3909206E-1,4.7375736E-1,1.8074412E-2,3.5700092E-1,8.4166163E-1,5.245185E-1,2.840236E-1,6.3676184E-1,5.984086E-1,1.2882131E-1,7.004092E-1,1.0376563E0,1.5366809E-1,5.2707666E-1,6.843039E-1,2.544348E-1,9.967203E-2,3.7176356E-1,5.4464597E-2,2.7450594E-1,7.9358816E-2,2.3095278E-1,2.4192686E-1,2.3859262E-2,1.2292921E-2,2.3927017E-1,-2.4682624E-2,3.004477E-2,-1.3789336E-2,1.9439018E-1,4.6661526E-1,8.472595E-2,8.1612176E-1,3.8328466E-1,1.7548534E-1,3.9297566E-1,-3.1246994E-2,4.7390416E-2,3.5232652E-2,-5.116991E-2,1.4164954E-1,-4.254257E-2,-4.3309677E-2,3.3243664E-2,1.3901696E-1,-2.290377E-2,5.06965E-2,3.184385E-1,1.2187529E-3,1.5250881E-1,3.0963695E-1,8.1062174E-1,8.472595E-2,4.6097308E-1,-4.8373133E-2,1.8020318E-1,6.616339E-2,4.0004477E-1,3.507297E-2,-2.659977E-2,8.0891974E-2,2.4678616E-1,1.1582967E-1,-0E0,1.0652598E-1,-3.0745212E-2,3.22541E-1,6.7041785E-1,9.5916885E-1,6.408282E-1,3.1961408E-1,6.19125E-1,8.2033795E-1,3.1478488E-1,1.5625738E-1,3.225107E-1,4.0827075E-1,7.932412E-1,1.1305861E0,7.511458E-1],"categories":[],"categories_nodes":[],"categories_segments":[],"categories_sizes":[],"default_left":[0,0,0,0,0,0,0,0,0,0,0,0,0,0,0,0,0,0,0,0,0,0,0,0,0,0,0,0,0,0,0,0,0,0,0,0,0,0,0,0,0,0,0,0,0,0,0,0,0,0,0,0,0,0,0,0,0,0,0,0,0,0,0,0,0,0,0,0,0,0,0,0,0,0,0,0,0,0,0,0,0,0,0,0,0,0,0,0,0,0,0,0,0,0,0,0,0,0,0,0,0,0,0,0,0,0,0,0,0,0,0,0,0,0,0,0,0,0,0,0,0,0,0,0,0,0,0,0,0,0,0,0,0,0,0,0,0,0,0,0,0,0,0,0,0,0,0,0,0,0,0,0,0,0,0,0,0,0,0,0,0,0,0,0,0,0,0,0,0,0,0,0,0,0,0,0,0,0,0,0,0,0,0,0,0,0,0,0,0,0,0,0,0,0,0,0,0,0,0,0,0,0,0,0,0,0,0,0,0,0,0,0,0,0,0,0,0,0,0,0,0,0,0,0,0,0,0,0,0,0,0,0,0,0,0,0,0,0,0,0,0,0,0,0,0,0,0,0,0,0,0,0,0,0,0,0,0,0,0,0,0,0,0,0,0],"id":0,"left_children":[1,3,5,7,9,11,13,-1,15,17,19,21,23,25,27,-1,29,31,33,35,37,39,41,43,45,47,49,51,53,55,57,59,61,63,65,67,69,71,73,75,77,79,81,83,85,87,89,91,93,95,97,-1,99,101,103,-1,105,-1,-1,107,109,-1,111,-1,-1,-1,113,115,117,-1,119,121,123,125,127,-1,-1,129,131,133,135,137,139,141,143,145,147,149,151,153,155,157,159,-1,161,163,165,167,169,-1,-1,-1,-1,171,173,175,-1,-1,-1,-1,177,-1,-1,-1,-1,179,181,183,-1,-1,-1,185,187,189,191,193,195,197,-1,199,201,203,-1,205,207,209,211,213,215,217,219,-1,221,223,225,227,229,231,233,235,237,239,-1,241,243,245,247,-1,-1,-1,-1,-1,249,251,253,-1,255,257,259,-1,261,263,-1,-1,-1,-1,-1,-1,-1,-1,-1,-1,-1,-1,-1,-1,-1,-1,-1,-1,-1,-1,-1,-1,-1,-1,-1,-1,-1,-1,-1,-1,-1,-1,-1,-1,-1,-1,-1,-1,-1,-1,-1,-1,-1,-1,-1,-1,-1,-1,-1,-1,-1,-1,-1,-1,-1,-1,-1,-1,-1,-1,-1,-1,-1,-1,-1,-1,-1,-1,-1,-1,-1,-1,-1,-1,-1,-1,-1,-1,-1,-1,-1,-1,-1,-1,-1,-1,-1,-1,-1,-1,-1,-1,-1],"loss_changes":[5.4591945E4,3.9572227E3,8.531385E3,2.2352734E2,6.2938965E2,1.9513845E3,1.8771606E3,0E0,6.0074707E1,8.064014E1,2.5182373E2,4.458369E2,8.9728174E2,6.893313E2,2.3290674E2,0E0,5.250293E1,9.286377E1,1.8142822E1,1.9029688E2,8.393799E1,1.8266553E2,2.3439905E2,2.1022363E2,4.0514676E2,7.2022736E1,3.77063E2,1.4595197E2,1.15271484E2,8.090869E1,1.124707E1,5.5936035E1,5.1846893E1,3.4020996E1,2.907959E0,1.2278882E2,3.905249E1,1.2328479E2,8.7816284E1,4.122516E1,7.829938E1,1.4410522E2,1.526283E2,5.5345703E1,1.8587164E2,1.3824908E2,1.866336E2,5.2915085E1,4.3381245E1,1.4008813E2,1.7052246E2,0E0,8.68468E1,7.583182E1,1.6202637E1,0E0,1.4339111E1,0E0,0E0,1.1385742E1,5.435089E1,0E0,3.349434E1,0E0,0E0,0E0,9.188843E0,1.0103882E2,6.426074E1,0E0,7.631836E0,6.638074E1,6.3805176E1,8.595911E1,6.703992E1,0E0,0E0,7.8762024E1,4.760643E1,7.884198E1,2.3311512E1,1.0334804E2,1.4590363E2,3.605284E1,1.1115723E1,2.0756882E1,2.424996E2,1.2373041E2,7.786211E1,4.7780888E1,8.553232E1,5.2066788E1,1.03944645E1,0E0,2.3154772E1,5.798584E1,5.7487915E1,1.0310748E2,9.531494E1,0E0,0E0,0E0,0E0,2.474121E0,8.22522E0,2.6975098E0,0E0,0E0,0E0,0E0,6.192737E1,0E0,0E0,0E0,0E0,3.7785236E1,6.704425E1,4.987549E1,0E0,0E0,0E0,6.412137E1,4.9369255E1,2.1737305E1,5.171393E1,6.0201538E1,7.85083E0,6.4842575E1,0E0,5.6593994E1,3.551635E1,4.194066E1,0E0,4.4147827E1,3.1676563E1,4.1824375E1,1.7799824E1,3.6216385E1,6.1293457E1,5.1839783E1,6.3598663E1,0E0,2.8448044E1,3.522461E0,2.1022232E1,1.3519836E1,4.5838596E1,1.387594E2,4.5209225E1,5.60448E1,4.2512367E1,4.1455124E1,0E0,4.3469967E1,3.9886868E1,9.119556E1,5.5916298E1,0E0,0E0,0E0,0E0,0E0,1.7346474E1,3.744336E1,7.9663086E-1,0E0,6.470752E1,4.519745E1,7.0088684E1,0E0,4.196527E1,1.3394531E1,0E0,0E0,0E0,0E0,0E0,0E0,0E0,0E0,0E0,0E0,0E0,0E0,0E0,0E0,0E0,0E0,0E0,0E0,0E0,0E0,0E0,0E0,0E0,0E0,0E0,0E0,0E0,0E0,0E0,0E0,0E0,0E0,0E0,0E0,0E0,0E0,0E0,0E0,0E0,0E0,0E0,0E0,0E0,0E0,0E0,0E0,0E0,0E0,0E0,0E0,0E0,0E0,0E0,0E0,0E0,0E0,0E0,0E0,0E0,0E0,0E0,0E0,0E0,0E0,0E0,0E0,0E0,0E0,0E0,0E0,0E0,0E0,0E0,0E0,0E0,0E0,0E0,0E0,0E0,0E0,0E0,0E0,0E0,0E0,0E0,0E0,0E0,0E0,0E0,0E0,0E0,0E0,0E0],"parents":[2147483647,0,0,1,1,2,2,3,3,4,4,5,5,6,6,8,8,9,9,10,10,11,11,12,12,13,13,14,14,16,16,17,17,18,18,19,19,20,20,21,21,22,22,23,23,24,24,25,25,26,26,27,27,28,28,29,29,30,30,31,31,32,32,33,33,34,34,35,35,36,36,37,37,38,38,39,39,40,40,41,41,42,42,43,43,44,44,45,45,46,46,47,47,48,48,49,49,50,50,52,52,53,53,54,54,56,56,59,59,60,60,62,62,66,66,67,67,68,68,70,70,71,71,72,72,73,73,74,74,77,77,78,78,79,79,80,80,81,81,82,82,83,83,84,84,85,85,86,86,87,87,88,88,89,89,90,90,91,91,92,92,94,94,95,95,96,96,97,97,98,98,103,103,104,104,105,105,110,110,115,115,116,116,117,117,121,121,122,122,123,123,124,124,125,125,126,126,127,127,129,129,130,130,131,131,133,133,134,134,135,135,136,136,137,137,138,138,139,139,140,140,142,142,143,143,144,144,145,145,146,146,147,147,148,148,149,149,150,150,151,151,153,153,154,154,155,155,156,156,162,162,163,163,164,164,166,166,167,167,168,168,170,170,171,171],"right_children":[2,4,6,8,10,12,14,-1,16,18,20,22,24,26,28,-1,30,32,34,36,38,40,42,44,46,48,50,52,54,56,58,60,62,64,66,68,70,72,74,76,78,80,82,84,86,88,90,92,94,96,98,-1,100,102,104,-1,106,-1,-1,108,110,-1,112,-1,-1,-1,114,116,118,-1,120,122,124,126,128,-1,-1,130,132,134,136,138,140,142,144,146,148,150,152,154,156,158,160,-1,162,164,166,168,170,-1,-1,-1,-1,172,174,176,-1,-1,-1,-1,178,-1,-1,-1,-1,180,182,184,-1,-1,-1,186,188,190,192,194,196,198,-1,200,202,204,-1,206,208,210,212,214,216,218,220,-1,222,224,226,228,230,232,234,236,238,240,-1,242,244,246,248,-1,-1,-1,-1,-1,250,252,254,-1,256,258,260,-1,262,264,-1,-1,-1,-1,-1,-1,-1,-1,-1,-1,-1,-1,-1,-1,-1,-1,-1,-1,-1,-1,-1,-1,-1,-1,-1,-1,-1,-1,-1,-1,-1,-1,-1,-1,-1,-1,-1,-1,-1,-1,-1,-1,-1,-1,-1,-1,-1,-1,-1,-1,-1,-1,-1,-1,-1,-1,-1,-1,-1,-1,-1,-1,-1,-1,-1,-1,-1,-1,-1,-1,-1,-1,-1,-1,-1,-1,-1,-1,-1,-1,-1,-1,-1,-1,-1,-1,-1,-1,-1,-1,-1,-1,-1],"split_conditions":[-5.6E1,-7.3333336E1,5E1,-8.1333336E1,-2E0,-4.0666668E1,6E1,1.1444216E0,3.3E2,1.11E1,-6.3E1,-4E0,4E1,8E0,-3.375E0,5.445567E-1,2.6564627E1,2.1835974E1,4.7E1,5.71E2,4.69E2,2.9846E4,8E0,8.7E0,1.4220962E-1,1.88E0,-3.6666668E1,8E0,-8.811917E-1,-8.488827E-1,9E0,-5.85E1,-7E0,-1.8E0,6.8261536E1,3.61E2,1.42E2,4.74E2,6.6750435E1,1.2E0,-1.8369701E-16,-4.8E1,2.23E2,-3E1,3E1,4.12E2,8.8E0,-3.1333334E1,-5.0083332E1,-3E0,8.95E0,5.2999284E-2,4.113936E1,-1.1916667E0,1.1349856E2,4.2470032E-1,5.2E0,1.083416E0,7.667648E-1,4.6E0,1.1896014E0,7.76721E-1,2.5881904E-1,9.5118886E-1,4.452487E-1,1.1149665E0,4.89E2,4.761E4,1.2364869E1,5.445567E-1,2.1835974E1,3.93E2,2.8867514E0,8.3E0,4.8E0,8.5665876E-1,3.9629573E-1,-4.6333332E1,3.94E0,-5.0083332E1,5.2200275E1,9.198676E3,4.7014114E1,3E2,7.4E0,2.47E2,8.9961894E-2,7.7308903E0,1.67E1,6.3897E4,-1.125E1,6.7E0,6.1E0,3.0824617E-1,1.4719602E1,1.27E1,4.7173E4,3.4381E4,3.92E2,9.9277955E-1,3.8846672E-1,2.4295588E-1,8.015599E-1,3.8541667E0,2.6974273E0,5.915753E3,5.8086044E-1,9.9887925E-1,6.260643E-1,2.9693446E-1,4.03E0,1.11007825E-1,5.1501924E-1,5.8086044E-1,9.754373E-1,1.0113358E1,-7.0583336E1,3.69E2,2.7402946E-1,9.874534E-1,6.84468E-1,8.21381E0,5.5455444E3,-1.8281692E-1,2E0,2.8833332E0,4.72E2,7.5434507E3,7.61676E-1,1.1430454E2,9E-1,5.33E2,4.904526E-1,4.65E2,3.97E2,5.0270605E3,6.2E0,5.68E2,2.0680279E1,5.5895336E-2,4.7E1,2.5331748E-1,5.98E2,8.01121E-3,1.8381186E1,1.4663219E1,5.0551835E-2,2.99E2,1.67E1,7.8E0,5.68E2,8.7E0,5.11412E-1,7.3965005E3,-2.8833334E1,4.22E0,4.11E2,6.1320347E-1,1.6820608E-1,1.5803757E-1,-4.3277886E-2,1.785445E-1,-4.525E0,1.1276325E1,3.49E0,7.6523143E-1,2.1501937E0,6.8068595E0,1.2E1,1.9345067E-1,9.402127E0,5.3046196E3,8.1665844E-1,5.356565E-1,8.99288E-1,9.9423045E-1,6.643325E-1,9.1332704E-1,4.069298E-1,3.1422672E-1,-4.386274E-2,6.8240774E-1,3.718746E-1,3.6811414E-1,7.467276E-1,1.3909206E-1,4.7375736E-1,1.8074412E-2,3.5700092E-1,8.4166163E-1,5.245185E-1,2.840236E-1,6.3676184E-1,5.984086E-1,1.2882131E-1,7.004092E-1,1.0376563E0,1.5366809E-1,5.2707666E-1,6.843039E-1,2.544348E-1,9.967203E-2,3.7176356E-1,5.4464597E-2,2.7450594E-1,7.9358816E-2,2.3095278E-1,2.4192686E-1,2.3859262E-2,1.2292921E-2,2.3927017E-1,-2.4682624E-2,3.004477E-2,-1.3789336E-2,1.9439018E-1,4.6661526E-1,8.472595E-2,8.1612176E-1,3.8328466E-1,1.7548534E-1,3.9297566E-1,-3.1246994E-2,4.7390416E-2,3.5232652E-2,-5.116991E-2,1.4164954E-1,-4.254257E-2,-4.3309677E-2,3.3243664E-2,1.3901696E-1,-2.290377E-2,5.06965E-2,3.184385E-1,1.2187529E-3,1.5250881E-1,3.0963695E-1,8.1062174E-1,8.472595E-2,4.6097308E-1,-4.8373133E-2,1.8020318E-1,6.616339E-2,4.0004477E-1,3.507297E-2,-2.659977E-2,8.0891974E-2,2.4678616E-1,1.1582967E-1,-0E0,1.0652598E-1,-3.0745212E-2,3.22541E-1,6.7041785E-1,9.5916885E-1,6.408282E-1,3.1961408E-1,6.19125E-1,8.2033795E-1,3.1478488E-1,1.5625738E-1,3.225107E-1,4.0827075E-1,7.932412E-1,1.1305861E0,7.511458E-1],"split_indices":[72,72,8,72,88,72,8,0,45,36,72,88,8,0,62,0,71,79,8,45,10,4,0,0,23,50,72,38,29,29,88,74,88,34,12,10,10,45,12,34,27,72,10,72,8,64,0,72,76,88,7,0,69,62,11,0,14,0,0,34,61,0,27,0,0,0,41,4,15,0,79,45,73,0,34,0,0,72,7,76,12,17,12,44,0,10,23,67,38,4,76,40,39,0,71,36,4,4,10,0,0,0,0,62,19,17,0,0,0,0,48,0,0,0,0,15,76,43,0,0,0,67,53,29,2,60,6,53,0,11,2,45,0,45,66,55,36,6,79,23,8,0,10,23,12,15,23,10,0,37,10,0,0,55,76,7,42,0,0,0,0,0,60,54,50,0,57,65,0,0,75,84,0,0,0,0,0,0,0,0,0,0,0,0,0,0,0,0,0,0,0,0,0,0,0,0,0,0,0,0,0,0,0,0,0,0,0,0,0,0,0,0,0,0,0,0,0,0,0,0,0,0,0,0,0,0,0,0,0,0,0,0,0,0,0,0,0,0,0,0,0,0,0,0,0,0,0,0,0,0,0,0,0,0,0,0,0,0,0,0,0,0,0,0,0],"split_type":[0,0,0,0,0,0,0,0,0,0,0,0,0,0,0,0,0,0,0,0,0,0,0,0,0,0,0,0,0,0,0,0,0,0,0,0,0,0,0,0,0,0,0,0,0,0,0,0,0,0,0,0,0,0,0,0,0,0,0,0,0,0,0,0,0,0,0,0,0,0,0,0,0,0,0,0,0,0,0,0,0,0,0,0,0,0,0,0,0,0,0,0,0,0,0,0,0,0,0,0,0,0,0,0,0,0,0,0,0,0,0,0,0,0,0,0,0,0,0,0,0,0,0,0,0,0,0,0,0,0,0,0,0,0,0,0,0,0,0,0,0,0,0,0,0,0,0,0,0,0,0,0,0,0,0,0,0,0,0,0,0,0,0,0,0,0,0,0,0,0,0,0,0,0,0,0,0,0,0,0,0,0,0,0,0,0,0,0,0,0,0,0,0,0,0,0,0,0,0,0,0,0,0,0,0,0,0,0,0,0,0,0,0,0,0,0,0,0,0,0,0,0,0,0,0,0,0,0,0,0,0,0,0,0,0,0,0,0,0,0,0,0,0,0,0,0,0,0,0,0,0,0,0,0,0,0,0,0,0,0,0,0,0,0,0],"sum_hessian":[5.7841436E3,1.7964905E2,5.6044946E3,8.8778175E1,9.0870865E1,5.504529E3,9.9965996E1,6.7006195E1,2.1771982E1,2.3140278E1,6.773058E1,1.8971004E2,5.314819E3,7.932085E1,2.0645151E1,1.4085386E0,2.0363443E1,1.38036785E1,9.336599E0,3.263785E1,3.5092735E1,2.2335398E1,1.6737463E2,5.084543E3,2.3027594E2,2.3100033E1,5.6220814E1,4.104884E0,1.6540268E1,8.3305E0,1.2032945E1,1.0584162E1,3.2195168E0,2.052442E0,7.284157E0,2.4750036E1,7.8878164E0,2.1691494E1,1.3401239E1,2.8975651E0,1.9437834E1,1.1288431E2,5.4490322E1,4.6194834E3,4.650592E2,1.8230515E1,2.1204543E2,5.191471E0,1.7908562E1,2.1369543E1,3.485127E1,1.3280507E0,2.7768333E0,2.978053E0,1.3562215E1,1.3682947E0,6.9622054E0,1.0423186E1,1.6097584E0,5.9963503E0,4.5878115E0,1.046343E0,2.173174E0,1.046343E0,1.006099E0,4.869519E0,2.4146376E0,1.1067089E1,1.3682947E1,1.4085386E0,6.4792776E0,1.1952456E1,9.739038E0,7.364645E0,6.036594E0,1.7707343E0,1.1268309E0,9.0146475E0,1.0423186E1,4.1732986E1,7.115132E1,2.112808E1,3.3362244E1,2.4971378E2,4.3697695E3,3.0669922E2,1.5835999E2,6.6000094E0,1.1630505E1,1.3598434E2,7.606109E1,2.8170772E0,2.3743937E0,1.2878067E0,1.6620756E1,9.779283E0,1.15902605E1,2.8935408E1,5.915862E0,1.2878067E0,1.4890265E0,1.086587E0,1.8914661E0,1.1026845E1,2.5353696E0,5.956106E0,1.006099E0,4.990251E0,1.006099E0,1.046343E0,3.5414686E0,1.1268309E0,1.046343E0,1.006099E0,1.4085386E0,2.9378092E0,8.12928E0,1.2556116E1,1.1268309E0,4.950007E0,1.5292705E0,7.002449E0,4.950007E0,4.104884E0,5.6341543E0,3.903664E0,3.4609807E0,5.030495E0,1.006099E0,3.984152E0,5.030495E0,9.417087E0,1.006099E0,2.3623205E1,1.8109783E1,9.698794E0,6.145253E1,1.6821976E1,4.3061037E0,3.8231764E0,2.9539068E1,1.046343E0,2.4866743E2,4.0202107E3,3.4955905E2,2.6573087E2,4.0968353E1,1.9558565E1,1.3880142E2,3.3402488E0,3.2597609E0,1.0221966E1,1.4085386E0,1.0624406E1,1.2535994E2,3.3764683E1,4.2296402E1,1.3280507E0,1.4890265E0,1.3280507E0,1.046343E0,1.8512222E0,1.4769534E1,5.8353744E0,3.9439082E0,1.3682947E0,1.0221966E1,2.173174E0,2.6762234E1,1.5292705E0,4.386592E0,9.054892E0,1.9719541E0,1.006099E0,1.5292705E0,4.869519E0,1.086587E0,2.3341498E0,1.2073188E0,1.8109783E0,1.1268309E0,3.984152E0,4.145128E0,1.3280507E0,1.12280655E1,2.2536619E0,4.7487874E0,3.4609807E0,1.4890265E0,1.6902463E0,2.4146376E0,4.06464E0,1.5695145E0,2.8975651E0,1.006099E0,2.092686E0,1.3682947E0,3.058541E0,1.9719541E0,2.6158574E0,1.3682947E0,2.5353696E0,2.4951255E0,5.9963503E0,3.4207368E0,7.123181E0,1.6500025E1,1.7707343E0,1.6339048E1,6.881717E0,2.8170772E0,3.6622005E1,2.4830524E1,1.4487826E1,2.3341498E0,2.2134178E0,2.092686E0,1.1670749E0,2.6561015E0,2.559516E1,3.9439082E0,2.3671498E2,1.1952456E1,1.046343E0,4.0191643E3,1.4487826E0,3.4811026E2,2.5997598E2,5.7548866E0,4.869519E0,3.609883E1,9.135379E0,1.0423186E1,1.3377092E2,5.030495E0,1.006099E0,2.3341498E0,2.092686E0,1.1670749E0,2.5756135E0,7.646353E0,9.618307E0,1.006099E0,3.7145176E1,8.821476E1,1.8311003E1,1.5453681E1,1.8351246E1,2.3945156E1,2.7365894E0,1.2032945E1,1.3682947E0,4.4670796E0,2.8170772E0,1.1268309E0,7.5658646E0,2.6561015E0,1.046343E0,1.1268309E0,1.5252461E1,1.1509773E1,1.5292705E0,2.8573213E0,7.8475723E0,1.2073188E0],"tree_param":{"num_deleted":"0","num_feature":"89","num_nodes":"265","size_leaf_vector":"1"}},{"base_weights":[-1.4476113E-2,7.0367546E0,-6.42987E-1,7.778957E0,4.971343E0,-8.261793E-1,2.8749993E0,8.391871E0,7.496807E0,7.969884E0,4.314221E0,3.9408636E0,-8.5848045E-1,6.409426E0,2.1527357E0,8.241698E0,4.672893E-1,8.042562E0,6.6742325E0,4.6795278E0,8.378758E0,6.134088E0,3.6103516E0,6.6589675E0,2.2761495E0,7.193613E-1,-9.136277E-1,8.093599E0,5.439995E0,1.1418786E0,3.965228E0,8.307117E0,6.365245E0,3.4565752E0,8.105999E0,6.111319E0,7.9559703E0,4.5737907E-2,4.2068887E-1,5.226738E0,8.8413925E0,5.2764826E0,1.0690237E1,2.8873417E0,5.6540847E0,7.9736557E0,2.5437405E0,1.536059E0,5.9579263E0,2.8705077E0,4.0527165E-1,-9.776824E-1,-3.1256592E-1,8.928528E0,4.298815E0,2.8472612E0,6.5067816E0,6.038449E0,8.8701063E-1,7.1002855E0,3.092285E0,7.6962304E0,8.477462E0,1.9520922E-1,3.8919958E-1,-2.6597918E-3,3.394539E-1,4.258145E0,8.170669E0,6.2397614E0,3.3523068E-2,8.251874E0,4.9813933E0,6.9703184E-2,3.7694955E-1,2.2587155E-1,9.164708E0,2.8139474E0,6.408881E0,7.40314E-1,8.672651E0,4.4301662E0,2.2971041E0,3.1352468E0,6.456746E0,8.970441E0,1.05776764E-1,-4.654957E-2,2.8818017E-1,3.4082782E-1,1.1685253E0,8.996604E0,-5.23538E-3,1.9659779E0,5.1601405E0,1.6439031E0,-3.6968447E-2,-4.4778144E-1,-9.9563944E-1,-7.673557E-1,4.2921868E-1,9.336571E0,1.971846E-1,1.9828549E-2,3.4235469E-1,9.698139E-1,5.7597265E0,7.0911093E0,2.873929E0,3.864778E0,5.5251205E-1,6.709708E-1,3.7300818E0,4.812634E0,8.564581E0,1.7403743E0,4.2220135E0,7.8941565E0,2.413777E-1,2.6554298E-1,8.520033E0,3.6151955E-1,2.437765E-2,8.201577E0,1.9185577E-1,6.449296E0,3.415678E0,4.2511836E-1,6.319865E0,3.6284607E-2,3.5388064E-1,2.7841666E-1,9.544884E0,6.234354E0,5.5724764E-1,4.8989997E0,7.9778576E0,2.898073E-1,5.173767E-1,6.8339556E-1,5.235023E0,1.8747923E0,4.5240474E0,1.9563602E0,3.4654376E-1,8.386147E0,5.5719833E0,1.0236713E1,2.3287468E-1,3.9336625E-2,2.7476218E0,6.170777E-1,2.0975386E-1,4.3051553E0,1.1344752E0,2.0191183E0,7.778149E0,4.131124E0,8.8184047E-1,3.4417155E0,-1.5289474E-1,5.228283E-1,-6.977796E-1,-5.3128844E-1,-1.0070497E0,-8.181634E-1,8.5521793E-1,2.7739902E0,1.5600322E-1,2.6765248E-1,9.692352E0,8.4290996E-2,2.095054E-1,4.4507208E-1,9.711615E-2,4.7435846E0,8.130619E0,-6.7788023E-3,2.4579716E-1,7.349057E0,1.1904328E-1,-3.80102E-1,1.1991104E0,5.778892E0,1.3430481E0,7.7684608E0,2.4237642E0,5.3801727E0,9.866124E0,4.006458E-1,2.8435614E0,3.3034585E0,6.360334E0,2.1370254E-1,4.0303347E-1,4.0894857E-1,4.5948124E-1,4.1405246E-1,3.2093108E-1,1.8916546E-1,3.3273035E-1,3.609665E-2,2.3162328E-1,1.826493E-1,4.4214898E-1,5.133588E-1,3.7276256E-1,4.9302608E-1,1.4281914E-1,2.064842E-1,-2.463195E-2,3.8100156E-1,1.284715E-1,4.5526382E-1,1.8620777E-1,1.6771759E-1,-4.7385152E-2,1.9383158E-1,3.9858228E-1,1.819316E-1,6.18118E-2,2.8999025E-2,2.9686424E-1,2.3942776E-1,6.1450736E-3,1.8929927E-1,5.1115847E-1,3.964078E-1,2.1190946E-1,3.042465E-1,5.6529784E-1,-3.0056572E-2,7.9091236E-2,2.6178464E-1,4.309371E-2,3.7230465E-1,4.331564E-2,-1.02192E-3,2.2575498E-1,-1.947471E-2,2.792962E-1,1.1697904E-1,5.1483524E-1,3.4194627E-1,8.602918E-2,3.0766597E-2,2.5159535E-1,2.6935685E-2,4.727378E-1,-1.620652E-2,8.452053E-2,1.1714478E-2,2.3332734E-1,6.185996E-2,-3.789637E-2,-3.915968E-2,-1.0166951E-2,-5.1167037E-2,-4.3458592E-2,5.9732098E-2,-4.170098E-2,2.639287E-1,1.0764297E-2,3.0619782E-1,8.787819E-2,2.1765947E-3,1.717433E-1,2.8115535E-1,5.0708646E-1,9.650685E-2,-4.9023625E-2,3.578347E-1,6.672168E-2,2.6344994E-1,4.620665E-1,5.860437E-1,1.2791212E-1,-4.4581123E-2,5.7037454E-2,1.7571332E-1,-2.6371682E-2,1.5016198E-1,4.653172E-2,1.4810899E-1,4.6097633E-1,-4.8440207E-2,1.8442617E-1,2.1318029E-1,6.11679E-1,-2.105168E-2,2.4092162E-1,3.6242583E-1,7.293069E-2,3.0037335E-1,5.547643E-1,1.3500929E-1,-8.795274E-3,2.3663001E-1,4.357052E-2,2.2820131E-1,8.788802E-2,9.950016E-2,3.767837E-1],"categories":[],"categories_nodes":[],"categories_segments":[],"categories_sizes":[],"default_left":[0,0,0,0,0,0,0,0,0,0,0,0,0,0,0,0,0,0,0,0,0,0,0,0,0,0,0,0,0,0,0,0,0,0,0,0,0,0,0,0,0,0,0,0,0,0,0,0,0,0,0,0,0,0,0,0,0,0,0,0,0,0,0,0,0,0,0,0,0,0,0,0,0,0,0,0,0,0,0,0,0,0,0,0,0,0,0,0,0,0,0,0,0,0,0,0,0,0,0,0,0,0,0,0,0,0,0,0,0,0,0,0,0,0,0,0,0,0,0,0,0,0,0,0,0,0,0,0,0,0,0,0,0,0,0,0,0,0,0,0,0,0,0,0,0,0,0,0,0,0,0,0,0,0,0,0,0,0,0,0,0,0,0,0,0,0,0,0,0,0,0,0,0,0,0,0,0,0,0,0,0,0,0,0,0,0,0,0,0,0,0,0,0,0,0,0,0,0,0,0,0,0,0,0,0,0,0,0,0,0,0,0,0,0,0,0,0,0,0,0,0,0,0,0,0,0,0,0,0,0,0,0,0,0,0,0,0,0,0,0,0,0,0,0,0,0,0,0,0,0,0,0,0,0,0,0,0,0,0,0,0,0,0,0,0,0,0,0,0,0,0,0,0,0,0,0,0,0,0,0,0,0,0,0,0,0,0,0,0,0,0,0,0,0,0,0,0,0,0,0,0,0,0],"id":1,"left_children":[1,3,5,7,9,11,13,15,17,19,21,23,25,27,29,31,-1,33,35,37,39,41,43,45,47,49,51,53,55,57,59,61,63,65,67,69,71,-1,-1,73,75,77,79,81,83,85,87,89,91,93,95,97,99,101,103,105,107,109,111,113,115,117,119,-1,-1,-1,-1,121,123,125,-1,127,129,-1,-1,-1,131,133,135,-1,137,139,141,143,145,147,-1,-1,-1,-1,149,151,-1,153,155,157,159,161,163,165,167,169,-1,-1,-1,171,173,175,177,179,-1,181,183,185,187,189,191,193,-1,-1,195,-1,-1,197,-1,199,201,-1,203,-1,-1,-1,205,207,209,211,213,-1,-1,215,217,219,221,223,-1,225,227,229,-1,231,233,-1,-1,235,237,239,241,243,245,247,249,251,253,255,257,259,261,263,265,-1,267,269,-1,-1,-1,271,273,-1,-1,275,277,279,281,283,285,287,289,291,293,295,297,299,301,-1,-1,-1,-1,-1,-1,-1,-1,-1,-1,-1,-1,-1,-1,-1,-1,-1,-1,-1,-1,-1,-1,-1,-1,-1,-1,-1,-1,-1,-1,-1,-1,-1,-1,-1,-1,-1,-1,-1,-1,-1,-1,-1,-1,-1,-1,-1,-1,-1,-1,-1,-1,-1,-1,-1,-1,-1,-1,-1,-1,-1,-1,-1,-1,-1,-1,-1,-1,-1,-1,-1,-1,-1,-1,-1,-1,-1,-1,-1,-1,-1,-1,-1,-1,-1,-1,-1,-1,-1,-1,-1,-1,-1,-1,-1,-1,-1,-1,-1,-1,-1,-1,-1,-1,-1,-1,-1,-1,-1,-1],"loss_changes":[2.6142664E4,7.3491406E2,3.4906582E3,5.35E1,2.4741504E2,7.9277246E2,6.8211084E2,6.430176E0,1.02740234E2,2.5516235E1,1.3154419E2,1.5436322E2,4.4505176E2,6.838867E1,4.071809E2,5.1254883E0,0E0,3.8570312E1,6.445215E1,3.737021E1,2.338733E1,1.0667297E2,1.10005615E2,6.771338E1,5.7360527E1,1.16234726E2,1.9008008E2,4.6634888E1,7.787903E1,1.774619E2,2.1485254E2,1.5512695E0,8.850082E0,2.632864E1,3.1131836E1,4.682544E1,2.0554321E1,0E0,0E0,2.3348656E1,1.8842163E1,6.629266E1,2.2199585E1,4.9738403E1,3.6954224E1,5.4520386E1,3.831463E1,3.371438E1,6.671804E1,4.3721985E1,8.2795616E1,4.229883E1,1.6070306E2,2.2012207E1,3.0453327E1,4.6378334E1,4.0605408E1,7.1012024E1,8.298812E1,5.2333374E1,9.416943E1,7.137207E0,3.7597656E0,0E0,0E0,0E0,0E0,2.819363E1,1.4611328E1,3.64458E1,0E0,6.052124E0,2.506099E1,0E0,0E0,0E0,1.5169434E1,6.0742966E1,3.471643E1,0E0,8.185425E0,4.571048E1,3.716794E1,2.0120098E1,1.9291077E1,3.9474426E1,0E0,0E0,0E0,0E0,3.0287203E1,3.1538559E1,0E0,2.993925E1,4.7788925E1,7.447596E1,4.4565807E1,3.5654797E1,2.267334E1,2.4410858E1,1.1559091E2,1.0581055E1,0E0,0E0,0E0,1.5036897E1,3.762361E1,3.7847595E1,1.9228981E1,6.550739E1,0E0,7.0498924E1,4.5297974E1,4.644223E1,3.6123962E1,4.1943855E1,6.3622498E1,7.3432617E0,0E0,0E0,6.864258E0,0E0,0E0,1.31171875E1,0E0,3.0489014E1,1.5099068E1,0E0,1.9047836E1,0E0,0E0,0E0,1.2283936E1,3.4540657E1,1.912851E1,5.3294815E1,3.4030823E1,0E0,0E0,1.307513E1,4.293518E1,3.8212616E1,3.492012E1,2.0081093E1,0E0,3.2224335E1,2.8479706E1,1.9667236E1,0E0,1.0207409E1,3.2304405E1,0E0,0E0,4.2901062E1,4.6978317E1,2.5954067E1,4.134143E1,5.843979E1,3.29532E1,6.0677917E1,3.392308E1,3.5299023E1,1.3638584E1,8.476519E0,9.188965E0,9.205719E0,2.4686066E1,6.2288544E1,5.94596E1,0E0,1.2913452E1,8.91125E0,0E0,0E0,0E0,4.489499E1,3.1951294E1,0E0,0E0,5.040706E1,2.7754197E0,2.4219088E1,4.0237183E1,4.542987E1,2.5417305E1,4.1012726E1,2.8088293E1,2.187928E1,2.5844788E1,1.7677208E1,5.7401337E1,4.5312103E1,4.9231537E1,0E0,0E0,0E0,0E0,0E0,0E0,0E0,0E0,0E0,0E0,0E0,0E0,0E0,0E0,0E0,0E0,0E0,0E0,0E0,0E0,0E0,0E0,0E0,0E0,0E0,0E0,0E0,0E0,0E0,0E0,0E0,0E0,0E0,0E0,0E0,0E0,0E0,0E0,0E0,0E0,0E0,0E0,0E0,0E0,0E0,0E0,0E0,0E0,0E0,0E0,0E0,0E0,0E0,0E0,0E0,0E0,0E0,0E0,0E0,0E0,0E0,0E0,0E0,0E0,0E0,0E0,0E0,0E0,0E0,0E0,0E0,0E0,0E0,0E0,0E0,0E0,0E0,0E0,0E0,0E0,0E0,0E0,0E0,0E0,0E0,0E0,0E0,0E0,0E0,0E0,0E0,0E0,0E0,0E0,0E0,0E0,0E0,0E0,0E0,0E0,0E0,0E0,0E0,0E0,0E0,0E0,0E0,0E0,0E0,0E0],"parents":[2147483647,0,0,1,1,2,2,3,3,4,4,5,5,6,6,7,7,8,8,9,9,10,10,11,11,12,12,13,13,14,14,15,15,17,17,18,18,19,19,20,20,21,21,22,22,23,23,24,24,25,25,26,26,27,27,28,28,29,29,30,30,31,31,32,32,33,33,34,34,35,35,36,36,39,39,40,40,41,41,42,42,43,43,44,44,45,45,46,46,47,47,48,48,49,49,50,50,51,51,52,52,53,53,54,54,55,55,56,56,57,57,58,58,59,59,60,60,61,61,62,62,67,67,68,68,69,69,71,71,72,72,76,76,77,77,78,78,80,80,81,81,82,82,83,83,84,84,85,85,90,90,91,91,93,93,94,94,95,95,96,96,97,97,98,98,99,99,100,100,101,101,105,105,106,106,107,107,108,108,109,109,111,111,112,112,113,113,114,114,115,115,116,116,117,117,120,120,123,123,125,125,126,126,128,128,132,132,133,133,134,134,135,135,136,136,139,139,140,140,141,141,142,142,143,143,145,145,146,146,147,147,149,149,150,150,153,153,154,154,155,155,156,156,157,157,158,158,159,159,160,160,161,161,162,162,163,163,164,164,165,165,166,166,167,167,168,168,170,170,171,171,175,175,176,176,179,179,180,180,181,181,182,182,183,183,184,184,185,185,186,186,187,187,188,188,189,189,190,190,191,191,192,192],"right_children":[2,4,6,8,10,12,14,16,18,20,22,24,26,28,30,32,-1,34,36,38,40,42,44,46,48,50,52,54,56,58,60,62,64,66,68,70,72,-1,-1,74,76,78,80,82,84,86,88,90,92,94,96,98,100,102,104,106,108,110,112,114,116,118,120,-1,-1,-1,-1,122,124,126,-1,128,130,-1,-1,-1,132,134,136,-1,138,140,142,144,146,148,-1,-1,-1,-1,150,152,-1,154,156,158,160,162,164,166,168,170,-1,-1,-1,172,174,176,178,180,-1,182,184,186,188,190,192,194,-1,-1,196,-1,-1,198,-1,200,202,-1,204,-1,-1,-1,206,208,210,212,214,-1,-1,216,218,220,222,224,-1,226,228,230,-1,232,234,-1,-1,236,238,240,242,244,246,248,250,252,254,256,258,260,262,264,266,-1,268,270,-1,-1,-1,272,274,-1,-1,276,278,280,282,284,286,288,290,292,294,296,298,300,302,-1,-1,-1,-1,-1,-1,-1,-1,-1,-1,-1,-1,-1,-1,-1,-1,-1,-1,-1,-1,-1,-1,-1,-1,-1,-1,-1,-1,-1,-1,-1,-1,-1,-1,-1,-1,-1,-1,-1,-1,-1,-1,-1,-1,-1,-1,-1,-1,-1,-1,-1,-1,-1,-1,-1,-1,-1,-1,-1,-1,-1,-1,-1,-1,-1,-1,-1,-1,-1,-1,-1,-1,-1,-1,-1,-1,-1,-1,-1,-1,-1,-1,-1,-1,-1,-1,-1,-1,-1,-1,-1,-1,-1,-1,-1,-1,-1,-1,-1,-1,-1,-1,-1,-1,-1,-1,-1,-1,-1,-1],"split_conditions":[-5E1,-6E1,4.3E1,-6.7E0,-5.9E0,-6.7E0,-6.2E0,-5.9333332E1,-5.85E1,3.4383334E2,-6.2625E1,-2.9E1,-3.8E1,-3.6E1,4.58E0,9.8982143E-1,4.672893E-1,-9.896398E-1,5.7E1,-3E-1,1.0635512E1,4.3E1,5E1,7.3866796E-1,8.620734E-18,-3.7E0,8.7E0,2.9255503E3,1.11E1,-4.8375E1,-2.8125E1,-2.8166666E0,7.1740274E0,1.75E0,1.0894421E0,9.9724954E-1,9.698432E-1,4.5737907E-2,4.2068887E-1,4.42E2,4.1472883E0,4.7233334E2,-3.05E0,-5E-1,7.8E0,2.2645087E0,1.5244671E0,3.05E2,4.1666665E0,2.56E0,-5.2708332E1,-3.8E0,3E1,7.07E0,1.7656805E6,6.482618E-1,7.832659E-1,1.612038E0,5.7E1,5E1,5E1,-0E0,4.908249E0,1.9520922E-1,3.8919958E-1,-2.6597918E-3,3.394539E-1,-7.557496E-1,9.7413576E-1,9.3993753E-1,3.3523068E-2,9.595591E0,3.74E2,6.9703184E-2,3.7694955E-1,2.2587155E-1,3.3206984E-2,-8.702939E-1,1.6807898E1,7.40314E-1,2.7434473E1,2.7E1,5.06E0,3.54E0,-8.425721E-1,5.2532396E0,1.05776764E-1,-4.654957E-2,2.8818017E-1,3.4082782E-1,8.15864E0,3.43E2,-5.23538E-3,-4.4666668E1,-1E0,-2.6833334E0,-8.5E0,-2.0375E1,-3.3E1,1.06E1,-2.625E1,1.5672766E2,1.971846E-1,1.9828549E-2,3.4235469E-1,5.537799E3,-7.875E0,-7.9775035E-1,3.78E2,-1.7E0,5.5251205E-1,6.5E0,2.39E0,-5.13901E-1,9.706471E0,-2.8173256E-1,1.162E1,5.501515E-1,2.413777E-1,2.6554298E-1,-8.1333336E1,3.6151955E-1,2.437765E-2,1.31E1,1.9185577E-1,4.64758E0,2.8085241E0,4.2511836E-1,5.8575E2,3.6284607E-2,3.5388064E-1,2.7841666E-1,7.557496E-1,8.5E0,-2.6E0,1.4941372E0,2.93E0,2.898073E-1,5.173767E-1,1.4707838E2,8.7E0,-3.2E0,4.48E2,2.9E0,3.4654376E-1,1.7419302E3,5.7592635E0,1.43E0,2.3287468E-1,3.86E0,4.5092497E0,6.170777E-1,2.0975386E-1,4.5092497E0,4.93E2,4.5941666E2,3.7320834E2,2.6147852E1,4E1,4.61E2,1.7656805E6,8.791677E3,-2.9166666E1,3E1,3E1,-3.9666668E1,-1.5E0,-8.945422E-1,1.82E1,2.6765248E-1,4.3703547E0,6.1311786E2,2.095054E-1,4.4507208E-1,9.711615E-2,-9.1337043E-1,2.4100296E1,-6.7788023E-3,2.4579716E-1,6.404554E0,6.47E2,1.0465956E1,1.587154E1,6.999993E-2,2.1241877E0,2.970368E3,1E0,2.58E0,1.01E1,-7.839338E-1,-5E-1,-1.5666667E1,5.3E1,2.1370254E-1,4.0303347E-1,4.0894857E-1,4.5948124E-1,4.1405246E-1,3.2093108E-1,1.8916546E-1,3.3273035E-1,3.609665E-2,2.3162328E-1,1.826493E-1,4.4214898E-1,5.133588E-1,3.7276256E-1,4.9302608E-1,1.4281914E-1,2.064842E-1,-2.463195E-2,3.8100156E-1,1.284715E-1,4.5526382E-1,1.8620777E-1,1.6771759E-1,-4.7385152E-2,1.9383158E-1,3.9858228E-1,1.819316E-1,6.18118E-2,2.8999025E-2,2.9686424E-1,2.3942776E-1,6.1450736E-3,1.8929927E-1,5.1115847E-1,3.964078E-1,2.1190946E-1,3.042465E-1,5.6529784E-1,-3.0056572E-2,7.9091236E-2,2.6178464E-1,4.309371E-2,3.7230465E-1,4.331564E-2,-1.02192E-3,2.2575498E-1,-1.947471E-2,2.792962E-1,1.1697904E-1,5.1483524E-1,3.4194627E-1,8.602918E-2,3.0766597E-2,2.5159535E-1,2.6935685E-2,4.727378E-1,-1.620652E-2,8.452053E-2,1.1714478E-2,2.3332734E-1,6.185996E-2,-3.789637E-2,-3.915968E-2,-1.0166951E-2,-5.1167037E-2,-4.3458592E-2,5.9732098E-2,-4.170098E-2,2.639287E-1,1.0764297E-2,3.0619782E-1,8.787819E-2,2.1765947E-3,1.717433E-1,2.8115535E-1,5.0708646E-1,9.650685E-2,-4.9023625E-2,3.578347E-1,6.672168E-2,2.6344994E-1,4.620665E-1,5.860437E-1,1.2791212E-1,-4.4581123E-2,5.7037454E-2,1.7571332E-1,-2.6371682E-2,1.5016198E-1,4.653172E-2,1.4810899E-1,4.6097633E-1,-4.8440207E-2,1.8442617E-1,2.1318029E-1,6.11679E-1,-2.105168E-2,2.4092162E-1,3.6242583E-1,7.293069E-2,3.0037335E-1,5.547643E-1,1.3500929E-1,-8.795274E-3,2.3663001E-1,4.357052E-2,2.2820131E-1,8.788802E-2,9.950016E-2,3.767837E-1],"split_indices":[9,9,8,3,3,3,3,72,78,68,78,9,9,9,7,30,0,29,8,35,79,8,8,29,18,3,0,83,0,78,78,62,67,50,63,28,28,0,0,45,75,64,58,27,36,59,59,64,74,7,78,3,8,50,20,28,29,59,8,8,8,32,69,0,0,0,0,30,29,29,0,22,45,0,0,0,55,28,79,0,71,8,48,7,28,22,0,0,0,0,79,45,0,74,34,62,2,78,9,2,78,87,0,0,0,84,78,29,44,3,0,0,50,28,79,30,7,59,0,0,72,0,0,2,0,67,63,0,68,0,0,0,30,39,35,63,48,0,0,55,0,3,43,5,0,51,22,49,0,7,65,0,0,65,45,68,70,71,8,43,20,55,74,8,8,72,3,28,0,0,75,83,0,0,0,29,71,0,0,22,44,71,71,21,63,83,32,49,36,28,3,72,8,0,0,0,0,0,0,0,0,0,0,0,0,0,0,0,0,0,0,0,0,0,0,0,0,0,0,0,0,0,0,0,0,0,0,0,0,0,0,0,0,0,0,0,0,0,0,0,0,0,0,0,0,0,0,0,0,0,0,0,0,0,0,0,0,0,0,0,0,0,0,0,0,0,0,0,0,0,0,0,0,0,0,0,0,0,0,0,0,0,0,0,0,0,0,0,0,0,0,0,0,0,0,0,0,0,0,0,0,0,0],"split_type":[0,0,0,0,0,0,0,0,0,0,0,0,0,0,0,0,0,0,0,0,0,0,0,0,0,0,0,0,0,0,0,0,0,0,0,0,0,0,0,0,0,0,0,0,0,0,0,0,0,0,0,0,0,0,0,0,0,0,0,0,0,0,0,0,0,0,0,0,0,0,0,0,0,0,0,0,0,0,0,0,0,0,0,0,0,0,0,0,0,0,0,0,0,0,0,0,0,0,0,0,0,0,0,0,0,0,0,0,0,0,0,0,0,0,0,0,0,0,0,0,0,0,0,0,0,0,0,0,0,0,0,0,0,0,0,0,0,0,0,0,0,0,0,0,0,0,0,0,0,0,0,0,0,0,0,0,0,0,0,0,0,0,0,0,0,0,0,0,0,0,0,0,0,0,0,0,0,0,0,0,0,0,0,0,0,0,0,0,0,0,0,0,0,0,0,0,0,0,0,0,0,0,0,0,0,0,0,0,0,0,0,0,0,0,0,0,0,0,0,0,0,0,0,0,0,0,0,0,0,0,0,0,0,0,0,0,0,0,0,0,0,0,0,0,0,0,0,0,0,0,0,0,0,0,0,0,0,0,0,0,0,0,0,0,0,0,0,0,0,0,0,0,0,0,0,0,0,0,0,0,0,0,0,0,0,0,0,0,0,0,0,0,0,0,0,0,0,0,0,0,0,0,0],"sum_hessian":[5.8988564E3,4.826666E2,5.41619E3,3.548329E2,1.2783371E2,5.1482114E3,2.6797815E2,1.10835594E2,2.439973E2,2.2751305E1,1.05082405E2,3.4546867E1,5.113665E3,4.5312702E1,2.2266547E2,9.668369E1,1.41519E1,1.460789E2,9.79184E1,2.6792777E0,2.0072027E1,2.905266E1,7.602975E1,1.2985078E1,2.156179E1,1.7259021E2,4.9410747E3,1.6247768E1,2.9064934E1,1.4308356E2,7.95819E1,9.304391E1,3.6397855E0,2.090341E0,1.4398856E2,6.849265E1,2.9425747E1,1.4095166E0,1.2697611E0,2.7540526E0,1.7317974E1,2.4650457E1,4.4022036E0,5.6375904E1,1.9653843E1,9.751663E0,3.233415E0,1.8093596E1,3.4681942E0,2.1845032E1,1.5074518E2,4.465012E3,4.7606253E2,1.3185136E1,3.062632E0,8.606998E0,2.0457935E1,6.947392E0,1.3613617E2,1.7152626E1,6.2429276E1,2.1422775E1,7.162113E1,1.4939471E0,2.1458385E0,1.0514047E0,1.0389365E0,2.5160098E0,1.4147255E2,6.688074E1,1.6119158E0,2.6571451E1,2.8542962E0,1.1129013E0,1.6411513E0,1.3305066E0,1.5987467E1,7.902447E0,1.674801E1,1.2232486E0,3.178955E0,1.5372826E1,4.100308E1,4.8981404E0,1.4755703E1,8.2736635E0,1.4779994E0,1.5744103E0,1.6590044E0,1.0455155E0,1.704808E1,2.28901E0,1.1791841E0,1.5823447E1,6.021585E0,3.9649307E1,1.1109588E2,1.4661636E2,4.3183955E3,2.952038E2,1.8085875E2,1.208827E1,1.0968657E0,1.2710483E0,1.7915838E0,5.33534E0,3.2716584E0,1.751759E1,2.940346E0,4.983192E0,1.9641999E0,1.2666955E2,9.466617E0,6.8882127E0,1.0264414E1,2.8575928E1,3.385335E1,1.984361E1,1.5791646E0,1.1480795E0,7.047305E1,1.3408104E0,1.1751994E0,1.4035913E2,1.1134182E0,6.2108765E1,4.7719736E0,2.3174894E1,3.3965554E0,1.0021255E0,1.8521706E0,1.7032108E0,1.4284256E1,3.0536132E0,4.848834E0,8.777291E0,7.9707193E0,1.3559552E0,1.8229997E0,2.7730184E0,1.2599807E1,3.4659443E1,6.343635E0,3.873085E0,1.0250555E0,4.337047E0,1.0418656E1,6.2717547E0,2.0019088E0,1.0036759E1,7.0113206E0,1.2443099E0,1.0447003E0,4.008564E0,1.1814882E1,2.835247E0,3.186338E0,9.16459E0,3.0484718E1,3.4625046E0,1.0763337E2,2.9924877E1,1.1669149E2,1.0389309E2,4.2145024E3,2.8634857E2,8.855229E0,1.874086E1,1.6211789E2,1.1457304E0,1.0942539E1,4.2894807E0,1.0458593E0,1.7072331E0,1.5644253E0,5.576563E0,1.1941026E1,1.2065423E0,1.7338037E0,2.518029E0,2.4651632E0,4.2308437E1,8.4361115E1,4.995204E0,4.471412E0,2.9593978E0,3.928815E0,3.1493316E0,7.1150823E0,1.300699E1,1.5568937E1,2.3891548E1,9.961801E0,1.0162802E0,1.882733E1,4.766522E1,2.2807833E1,1.3396725E2,6.3918757E0,4.6147947E0,5.749397E1,1.5599792E0,3.2119944E0,1.7895025E0,1.6070529E0,1.0288717E1,3.9955387E0,1.3658727E0,1.6877403E0,1.0563403E0,3.7924938E0,3.9239416E0,4.853349E0,6.192002E0,1.7787172E0,1.0345618E0,1.7384567E0,8.606134E0,3.9936728E0,9.045968E0,2.5613474E1,1.7292992E0,4.614336E0,1.4372331E0,2.4358518E0,1.3405792E0,2.9964678E0,3.560169E0,6.858487E0,1.440607E0,4.8311477E0,7.0893397E0,2.9474201E0,2.9234378E0,4.087883E0,2.0189269E0,1.9896371E0,8.858419E0,2.9564633E0,1.728834E0,1.106413E0,1.0821475E0,2.1041903E0,4.2101088E0,4.954481E0,2.8775724E1,1.7089934E0,2.4198356E0,1.042669E0,9.8609604E1,9.023768E0,2.8098114E1,1.8267632E0,3.4088216E0,1.1328267E2,5.8508038E1,4.5385048E1,3.767933E3,4.465694E2,2.1307282E0,2.8421783E2,1.0078195E0,7.8474097E0,4.222696E0,1.4518164E1,1.568688E2,5.2490773E0,1.2447538E0,9.697785E0,1.5738096E0,2.715671E0,3.183745E0,2.392818E0,3.5246325E0,8.416393E0,1.2300402E0,1.2879888E0,1.1964741E0,1.2686892E0,1.4342176E0,4.0874218E1,1.0747567E1,7.361355E1,2.8649447E0,2.1302593E0,2.2599342E0,2.211478E0,1.7800481E0,1.1793497E0,1.8142252E0,2.1145897E0,2.0583408E0,1.0909907E0,1.880815E0,5.234267E0,2.5683584E0,1.0438632E1,7.854639E0,7.7142982E0,1.3016332E1,1.08752165E1,2.1863973E0,7.7754035E0],"tree_param":{"num_deleted":"0","num_feature":"89","num_nodes":"303","size_leaf_vector":"1"}},{"base_weights":[-1.589693E-2,4.752324E0,-6.863529E-1,5.35998E0,2.690057E0,-8.482051E-1,2.2734697E0,5.610521E0,4.622459E0,4.785048E0,1.9993693E0,1.5476707E0,-8.93077E-1,1.2786552E0,3.9826202E0,5.260685E0,5.779908E0,5.4992485E0,3.8466897E0,4.3231635E0,7.2110333E0,1.6419523E0,3.9019525E0,3.1207442E0,7.721511E-1,-9.851989E-1,-3.9807034E-1,2.212674E0,4.8263845E-1,6.2387943E0,3.4969351E0,5.727925E0,4.7429905E0,5.748795E0,3.50751E-1,7.270864E-1,5.651253E0,4.747617E0,2.9450517E0,6.1190343E0,3.8110027E0,8.266969E0,2.0966211E-1,2.8665307E0,9.980793E-1,6.318755E0,3.0189607E0,4.045323E0,5.686712E-1,3.4126396E0,3.5074815E-1,-9.907498E-1,1.3852613E0,-6.3758355E-1,6.550078E-1,1.4130428E0,3.557698E0,3.040243E-1,4.4008155E0,3.913171E0,7.723508E0,1.926998E0,4.222964E0,1.0001947E-1,5.7854E0,5.5122347E0,3.826381E0,1.4822014E-1,5.758681E0,1.2149109E-1,-4.6015885E-2,4.5275025E0,5.9899096E0,2.368956E0,5.315903E0,1.800955E0,3.7963126E0,1.1762291E-1,7.368256E0,5.460953E0,2.7119765E0,2.7262336E-1,4.4937286E-1,5.2517896E0,2.0433931E0,5.393933E-1,2.2564852E0,9.322659E-2,8.915801E0,2.0749574E0,6.139725E0,5.5341725E0,2.0871854E0,3.0314844E0,-4.8661083E-1,9.003903E-1,5.1989684E0,2.146081E-2,2.077099E0,-4.3212816E-1,-1.005872E0,3.364819E-1,2.2370449E-1,5.225681E-1,-7.384365E-1,2.5203927E0,2.6067463E-1,4.8878126E0,1.0253351E0,5.9427896E0,2.8228421E0,1.5642238E0,-6.286729E-2,3.214275E-1,1.1086064E-1,5.080765E0,1.1465384E0,9.565877E0,6.2516246E0,1.5198E0,3.6237857E-1,5.0996923E0,2.666518E0,5.1646557E0,6.1621E0,5.946689E0,4.492458E0,5.900925E0,3.0825434E0,5.8789663E0,5.5413795E0,5.336248E0,1.6879746E0,6.2519813E0,4.5055285E0,5.354212E-1,4.0183434E0,4.311338E0,6.031983E0,4.078009E0,1.093801E0,3.1709924E0,6.357725E0,9.046276E0,5.218931E0,7.3977485E-2,5.8669643E0,1.6032778E0,5.1239915E0,7.5903835E0,1.7908698E0,-3.5461992E-2,2.5199003E0,2.445465E-1,2.1507504E0,7.478033E-1,4.447006E0,4.9892578E-1,3.1450438E-1,2.7771738E-1,1.5778008E0,8.06424E0,1.07554175E-1,6.259902E0,2.2561986E0,3.9204168E0,3.329424E-2,-4.3993548E-2,3.1949064E-1,6.9618985E-2,-5.0300907E-2,1.6241634E-1,-5.270508E-1,6.8890305E0,1.0744833E-1,1.7954226E-1,-1.2126604E-1,1.23773366E-1,5.0282307E0,-6.1495095E-2,-7.950891E-1,-1.019774E0,-8.39608E-1,1.7111062E-1,-5.451686E-1,9.528264E-2,2.4561439E0,-1.8454653E-1,-7.964651E-1,5.6156487E0,1.6559666E0,7.2328284E-2,3.4079337E0,2.052662E0,7.6815248E0,1.846542E0,-1.5942164E-1,3.551497E0,8.536115E0,6.096549E-1,3.6099887E0,3.4086883E0,5.601706E-1,1.7335626E-1,-1.465949E-1,6.77924E0,1.02349065E-1,-4.4830438E-2,1.6324772E-1,3.0336502E-1,1.0788286E1,8.0084436E-2,7.112449E0,4.2532864E0,5.7924163E-1,5.865664E0,3.1727912E0,1.3435636E0,4.7128873E0,2.7640206E-1,1.5690356E-1,3.386283E-1,2.8987715E-1,3.1547314E-1,2.3461609E-1,2.810044E-1,1.5011093E-1,1.6296835E-1,3.1174645E-1,1.0879894E-1,2.1870337E-1,3.1191072E-1,2.88673E-1,2.6473913E-1,3.015377E-1,2.3872168E-1,4.222934E-1,-4.5440465E-2,1.4442655E-1,3.8697094E-1,2.902858E-1,9.694549E-2,2.9563528E-1,-2.8961614E-2,1.2105775E-1,1.1793609E-1,3.9541855E-1,1.6966148E-1,3.1975397E-1,1.7432266E-1,3.281005E-1,3.477175E-1,2.6379311E-2,2.4728446E-1,3.4800954E-2,1.0702156E-1,2.6947019E-1,1.22606866E-1,3.7708735E-1,5.647629E-1,3.057216E-1,4.0334082E-1,1.1394419E-1,1.2910447E-1,3.1564E-1,5.1186597E-3,1.5667246E-1,3.95479E-1,1.3438177E-1,8.5707165E-2,4.724721E-1,1.8546079E-1,-4.701237E-2,-4.9916346E-2,9.887471E-2,-1.4599881E-2,1.4660048E-1,2.0633245E-1,6.7440504E-3,2.0810823E-1,-9.1828955E-3,-2.760152E-3,1.4710073E-1,1.5377085E-1,5.437894E-1,1.3574335E-1,1.6039448E-2,2.8523654E-1,4.8672357E-1,3.646408E-1,1.0856744E-1,2.573346E-1,-9.707841E-3,-6.850367E-4,3.3093163E-1,8.082538E-2,-4.8708584E-2,-4.479859E-2,-0E0,4.6216995E-1,1.4293794E-1,-1.16390465E-2,1.3041711E-1,-4.9265586E-2,1.0746453E-1,5.79714E-1,2.1002725E-2,-1.2493599E-2,8.49741E-2,-4.2277716E-2,4.4648893E-2,-4.6418674E-2,-5.1407177E-2,-4.4397324E-2,-9.822067E-3,3.4923684E-2,-5.009095E-2,1.0037016E-1,-1.4652993E-2,3.152416E-1,5.8371384E-2,6.652828E-2,-2.169013E-2,-1.7476542E-2,-4.305627E-2,1.7946942E-1,5.2526087E-1,3.460298E-1,6.571348E-2,-2.525835E-3,8.711269E-2,3.741517E-1,6.1541237E-2,-4.553617E-2,2.8066596E-1,2.6842922E-1,4.9130702E-1,3.7384444E-1,7.724721E-2,-1.936834E-2,1.2682186E-1,3.515565E-1,7.018354E-2,2.2916274E-1,5.2611226E-1,-2.6741793E-2,1.633312E-1,2.978643E-1,1.3210134E-1,8.982782E-2,3.461177E-1,1.5961664E-3,1.6908802E-1,4.1258555E-2,-2.0795006E-2,4.3325064E-1,2.2466707E-1,6.066945E-1,3.7154832E-1,2.1223979E-1,4.2365417E-1,4.1316602E-1,1.3812165E-1,-2.9543058E-3,1.3510866E-1,2.3509164E-1,3.880055E-1,1.99467E-1,-3.0061277E-3,2.7202672E-1,3.4300193E-2,-4.5657195E-2,2.8175175E-1],"categories":[],"categories_nodes":[],"categories_segments":[],"categories_sizes":[],"default_left":[0,0,0,0,0,0,0,0,0,0,0,0,0,0,0,0,0,0,0,0,0,0,0,0,0,0,0,0,0,0,0,0,0,0,0,0,0,0,0,0,0,0,0,0,0,0,0,0,0,0,0,0,0,0,0,0,0,0,0,0,0,0,0,0,0,0,0,0,0,0,0,0,0,0,0,0,0,0,0,0,0,0,0,0,0,0,0,0,0,0,0,0,0,0,0,0,0,0,0,0,0,0,0,0,0,0,0,0,0,0,0,0,0,0,0,0,0,0,0,0,0,0,0,0,0,0,0,0,0,0,0,0,0,0,0,0,0,0,0,0,0,0,0,0,0,0,0,0,0,0,0,0,0,0,0,0,0,0,0,0,0,0,0,0,0,0,0,0,0,0,0,0,0,0,0,0,0,0,0,0,0,0,0,0,0,0,0,0,0,0,0,0,0,0,0,0,0,0,0,0,0,0,0,0,0,0,0,0,0,0,0,0,0,0,0,0,0,0,0,0,0,0,0,0,0,0,0,0,0,0,0,0,0,0,0,0,0,0,0,0,0,0,0,0,0,0,0,0,0,0,0,0,0,0,0,0,0,0,0,0,0,0,0,0,0,0,0,0,0,0,0,0,0,0,0,0,0,0,0,0,0,0,0,0,0,0,0,0,0,0,0,0,0,0,0,0,0,0,0,0,0,0,0,0,0,0,0,0,0,0,0,0,0,0,0,0,0,0,0,0,0,0,0,0,0,0,0,0,0,0,0,0,0,0,0,0,0,0,0,0,0,0,0,0,0,0,0,0,0,0,0,0,0,0,0,0,0,0,0,0,0,0,0,0,0,0,0,0,0,0,0,0,0],"id":2,"left_children":[1,3,5,7,9,11,13,15,17,19,21,23,25,27,29,31,33,35,37,39,41,43,45,47,49,51,53,55,57,59,61,63,65,67,-1,69,71,73,75,77,79,81,-1,83,85,87,89,91,93,95,97,99,101,103,105,107,109,111,113,115,117,119,121,-1,123,125,127,-1,129,-1,-1,131,133,135,137,139,141,-1,143,145,147,-1,-1,149,151,153,155,-1,157,159,161,163,165,167,169,171,173,175,177,179,181,-1,183,185,187,189,191,193,195,197,199,201,203,-1,-1,205,207,209,211,213,-1,215,217,219,221,223,225,227,229,231,233,235,237,239,241,243,245,247,249,251,253,255,257,259,261,-1,263,265,267,269,271,273,275,277,279,281,283,-1,-1,-1,285,287,-1,289,291,293,295,-1,-1,-1,-1,-1,297,299,-1,-1,301,303,305,307,309,311,313,-1,315,317,319,321,323,325,327,329,331,333,335,337,339,341,343,345,347,349,351,-1,353,355,-1,-1,-1,-1,357,-1,359,361,363,365,367,369,371,-1,-1,-1,-1,-1,-1,-1,-1,-1,-1,-1,-1,-1,-1,-1,-1,-1,-1,-1,-1,-1,-1,-1,-1,-1,-1,-1,-1,-1,-1,-1,-1,-1,-1,-1,-1,-1,-1,-1,-1,-1,-1,-1,-1,-1,-1,-1,-1,-1,-1,-1,-1,-1,-1,-1,-1,-1,-1,-1,-1,-1,-1,-1,-1,-1,-1,-1,-1,-1,-1,-1,-1,-1,-1,-1,-1,-1,-1,-1,-1,-1,-1,-1,-1,-1,-1,-1,-1,-1,-1,-1,-1,-1,-1,-1,-1,-1,-1,-1,-1,-1,-1,-1,-1,-1,-1,-1,-1,-1,-1,-1,-1,-1,-1,-1,-1,-1,-1,-1,-1,-1,-1,-1,-1,-1,-1,-1,-1,-1,-1,-1,-1,-1,-1,-1,-1,-1,-1,-1,-1,-1,-1,-1,-1,-1,-1,-1,-1,-1,-1,-1,-1,-1,-1],"loss_changes":[1.8818637E4,9.071211E2,2.472456E3,9.992871E1,2.3768884E2,5.2616455E2,4.5393274E2,2.0608398E1,9.405444E1,4.155951E1,8.3530945E1,1.09117325E2,2.18875E2,1.2551294E2,1.0462903E2,2.9513916E1,5.4589844E0,4.735205E1,5.9679443E1,2.8539185E1,1.5545593E1,8.220117E1,3.895877E1,6.922357E1,6.67457E1,5.3384766E1,1.9023026E2,8.26991E1,6.3500816E1,5.54093E1,9.112732E1,1.3431641E1,4.345642E1,4.961914E0,0E0,6.5311346E0,2.0832275E1,4.9156372E1,3.612851E1,3.2485718E1,4.7141235E1,2.947052E0,0E0,6.910159E1,3.9480423E1,5.648265E1,4.0821823E1,6.136151E1,2.1258522E1,3.6048065E1,2.9492435E1,3.3944336E1,5.7883995E1,7.195401E1,1.0241309E2,6.4944885E1,4.810434E1,4.0726044E1,1.5251877E1,2.1258919E1,2.0654785E1,5.414628E1,7.345752E1,0E0,1.2184082E1,1.2043579E1,4.4313538E1,0E0,2.7324219E0,0E0,0E0,3.386429E1,1.5280029E1,2.2059849E1,1.8268372E1,2.5784077E1,3.2046967E1,0E0,1.3867218E1,1.5799072E1,4.2895454E1,0E0,0E0,7.1923386E1,2.7045746E1,2.385562E1,5.9848145E1,0E0,1.0074005E0,1.8061504E1,2.2633682E1,2.6855347E1,3.56049E1,3.3287647E1,5.640544E0,1.2448879E1,2.2310623E1,2.2824732E1,4.739114E1,1.4282394E1,8.820557E0,0E0,1.9878666E1,4.030558E1,1.8060913E1,6.3418427E1,6.807669E1,3.6006767E1,4.3250797E1,3.7216995E1,3.8238113E1,3.6171734E1,1.981328E1,0E0,0E0,2.264756E1,1.0131415E1,1.05961E1,2.2418655E1,6.1508266E1,0E0,4.9315063E1,5.347902E1,1.7552063E1,4.451538E0,7.117859E0,1.6110504E1,3.9875488E0,2.4946625E1,1.7807617E0,7.6533203E0,1.5517395E1,1.1675635E1,2.1748291E1,2.6278778E1,8.108877E0,2.2368084E1,2.1875458E1,2.027539E1,3.83658E1,1.8772621E1,3.879413E1,1.6383438E1,1.0829971E1,1.9696762E1,0E0,1.1704468E1,2.6161287E1,3.1788208E1,5.6520386E1,2.0775276E1,9.98871E0,2.5890472E1,1.7879992E1,3.708195E1,1.9728163E1,6.0895706E1,0E0,0E0,0E0,1.4052254E1,1.4854279E0,0E0,3.94498E1,1.7594515E1,5.4033928E1,7.6185555E0,0E0,0E0,0E0,0E0,0E0,3.9707118E-1,2.476712E1,0E0,0E0,1.273336E1,1.1852724E1,9.789738E1,1.7514534E1,4.656887E0,2.4851074E0,9.3454895E0,0E0,3.7475905E0,3.0213274E1,4.238216E1,2.0328568E1,1.4634003E1,4.6760193E1,3.2768494E1,2.2555834E1,5.5769363E1,2.8102055E1,5.0985413E0,4.2420876E1,1.1041327E1,2.5593155E1,1.8128601E1,1.8720007E1,3.4849213E1,3.720587E1,1.9035452E1,0E0,1.7406176E1,7.8769073E0,0E0,0E0,0E0,0E0,3.0889282E0,0E0,1.504068E1,3.340676E1,2.4880465E1,5.0432495E1,2.7585373E1,3.2541313E1,4.1798157E1,0E0,0E0,0E0,0E0,0E0,0E0,0E0,0E0,0E0,0E0,0E0,0E0,0E0,0E0,0E0,0E0,0E0,0E0,0E0,0E0,0E0,0E0,0E0,0E0,0E0,0E0,0E0,0E0,0E0,0E0,0E0,0E0,0E0,0E0,0E0,0E0,0E0,0E0,0E0,0E0,0E0,0E0,0E0,0E0,0E0,0E0,0E0,0E0,0E0,0E0,0E0,0E0,0E0,0E0,0E0,0E0,0E0,0E0,0E0,0E0,0E0,0E0,0E0,0E0,0E0,0E0,0E0,0E0,0E0,0E0,0E0,0E0,0E0,0E0,0E0,0E0,0E0,0E0,0E0,0E0,0E0,0E0,0E0,0E0,0E0,0E0,0E0,0E0,0E0,0E0,0E0,0E0,0E0,0E0,0E0,0E0,0E0,0E0,0E0,0E0,0E0,0E0,0E0,0E0,0E0,0E0,0E0,0E0,0E0,0E0,0E0,0E0,0E0,0E0,0E0,0E0,0E0,0E0,0E0,0E0,0E0,0E0,0E0,0E0,0E0,0E0,0E0,0E0,0E0,0E0,0E0,0E0,0E0,0E0,0E0,0E0,0E0,0E0,0E0,0E0,0E0,0E0,0E0,0E0,0E0,0E0,0E0,0E0,0E0,0E0,0E0,0E0,0E0,0E0],"parents":[2147483647,0,0,1,1,2,2,3,3,4,4,5,5,6,6,7,7,8,8,9,9,10,10,11,11,12,12,13,13,14,14,15,15,16,16,17,17,18,18,19,19,20,20,21,21,22,22,23,23,24,24,25,25,26,26,27,27,28,28,29,29,30,30,31,31,32,32,33,33,35,35,36,36,37,37,38,38,39,39,40,40,41,41,43,43,44,44,45,45,46,46,47,47,48,48,49,49,50,50,51,51,52,52,53,53,54,54,55,55,56,56,57,57,58,58,59,59,60,60,61,61,62,62,64,64,65,65,66,66,68,68,71,71,72,72,73,73,74,74,75,75,76,76,78,78,79,79,80,80,83,83,84,84,85,85,86,86,88,88,89,89,90,90,91,91,92,92,93,93,94,94,95,95,96,96,97,97,98,98,99,99,100,100,102,102,103,103,104,104,105,105,106,106,107,107,108,108,109,109,110,110,111,111,112,112,115,115,116,116,117,117,118,118,119,119,121,121,122,122,123,123,124,124,125,125,126,126,127,127,128,128,129,129,130,130,131,131,132,132,133,133,134,134,135,135,136,136,137,137,138,138,139,139,140,140,141,141,142,142,143,143,144,144,146,146,147,147,148,148,149,149,150,150,151,151,152,152,153,153,154,154,155,155,156,156,160,160,161,161,163,163,164,164,165,165,166,166,172,172,173,173,176,176,177,177,178,178,179,179,180,180,181,181,182,182,184,184,185,185,186,186,187,187,188,188,189,189,190,190,191,191,192,192,193,193,194,194,195,195,196,196,197,197,198,198,199,199,200,200,201,201,202,202,204,204,205,205,210,210,212,212,213,213,214,214,215,215,216,216,217,217,218,218],"right_children":[2,4,6,8,10,12,14,16,18,20,22,24,26,28,30,32,34,36,38,40,42,44,46,48,50,52,54,56,58,60,62,64,66,68,-1,70,72,74,76,78,80,82,-1,84,86,88,90,92,94,96,98,100,102,104,106,108,110,112,114,116,118,120,122,-1,124,126,128,-1,130,-1,-1,132,134,136,138,140,142,-1,144,146,148,-1,-1,150,152,154,156,-1,158,160,162,164,166,168,170,172,174,176,178,180,182,-1,184,186,188,190,192,194,196,198,200,202,204,-1,-1,206,208,210,212,214,-1,216,218,220,222,224,226,228,230,232,234,236,238,240,242,244,246,248,250,252,254,256,258,260,262,-1,264,266,268,270,272,274,276,278,280,282,284,-1,-1,-1,286,288,-1,290,292,294,296,-1,-1,-1,-1,-1,298,300,-1,-1,302,304,306,308,310,312,314,-1,316,318,320,322,324,326,328,330,332,334,336,338,340,342,344,346,348,350,352,-1,354,356,-1,-1,-1,-1,358,-1,360,362,364,366,368,370,372,-1,-1,-1,-1,-1,-1,-1,-1,-1,-1,-1,-1,-1,-1,-1,-1,-1,-1,-1,-1,-1,-1,-1,-1,-1,-1,-1,-1,-1,-1,-1,-1,-1,-1,-1,-1,-1,-1,-1,-1,-1,-1,-1,-1,-1,-1,-1,-1,-1,-1,-1,-1,-1,-1,-1,-1,-1,-1,-1,-1,-1,-1,-1,-1,-1,-1,-1,-1,-1,-1,-1,-1,-1,-1,-1,-1,-1,-1,-1,-1,-1,-1,-1,-1,-1,-1,-1,-1,-1,-1,-1,-1,-1,-1,-1,-1,-1,-1,-1,-1,-1,-1,-1,-1,-1,-1,-1,-1,-1,-1,-1,-1,-1,-1,-1,-1,-1,-1,-1,-1,-1,-1,-1,-1,-1,-1,-1,-1,-1,-1,-1,-1,-1,-1,-1,-1,-1,-1,-1,-1,-1,-1,-1,-1,-1,-1,-1,-1,-1,-1,-1,-1,-1,-1],"split_conditions":[-4.5E1,-5.4E1,4.3E1,-6.4E1,-4.4E0,-5.3E0,1.15E1,2.7667278E1,-2.5E0,1.31E1,5E1,4.7749352E0,3E1,-2.3E0,-2.625E1,-7.1579534E-1,-5.1666668E1,5.427204E0,-5.85E1,-4.1541668E1,2.3220125E1,-5.5291668E1,-5E-1,-1.0333333E1,-3.5E1,1.06E1,9.5E0,5E1,6E1,3.86E0,-7.074868E-1,4.8E-1,-5.3E0,4E0,3.50751E-1,6.022181E0,7.8E0,4.59375E2,2.4888E3,4.0971017E0,-7.3E0,-8.1801987E-1,2.0966211E-1,-3.5E0,2.9E0,1.2826603E1,8.1086365E1,-6.7E0,-2.6666667E0,3.74E2,1.7E1,-3.9625E1,-1.6E0,-3.9625E1,-2.4583334E1,-3.8E1,1.67E0,-8.702939E-1,8.3E0,4.65E2,1.09E1,5.46625E2,6.258885E-1,1.0001947E-1,-5E-1,3.6992886E-18,-9.05E1,1.4822014E-1,-8E-1,1.2149109E-1,-4.6015885E-2,-3.8E1,8.217133E-1,4.7318268E2,8.0908E4,-6.3090664E-1,2.675E0,1.1762291E-1,9.3E0,-3.1708334E1,4.84E2,2.7262336E-1,4.4937286E-1,1.9811995E1,2.4221203E0,4.5E0,5.486667E2,9.322659E-2,3.5E0,4.041452E0,-2.5541666E1,2.2898486E3,5.1039E4,1.48E0,-1.1E1,3.33E2,-5.9E0,2.81E2,3.54E2,-3.5E1,8.4E0,3.364819E-1,-8.605997E-1,7.4E0,3.7833334E2,-2.7E0,1.82E1,6.9E0,6.8E0,8.3E0,7.9E0,-3.45E0,7.2E1,3.214275E-1,1.1086064E-1,-3.7347654E-1,4.1852657E1,-3.7333332E1,9.987561E1,-8.1E0,3.6237857E-1,5.78E0,5.3E1,-7.4E1,9.6E0,3.9289406E1,-4.3875E1,5.46504E0,4.7E1,1.791309E1,3.9E0,5.288083E3,1.8360052E2,-3.9666667E0,-1E0,2.3225797E2,1.90327E5,2.37E0,6.9795865E-20,-2.5881904E-1,3.016584E-6,8E0,3E0,6.25E-2,2.0105854E3,7.3977485E-2,5.01996E0,2.3581457E1,7.9E0,6.033241E-1,5.627918E1,3.2458334E0,1.3E1,-8.5E0,2.07E0,5.9E0,9.638074E-1,4.9892578E-1,3.1450438E-1,2.7771738E-1,3.02E0,5.82E2,1.07554175E-1,7.3866796E-1,4.8E0,3.65E2,4.8442407E0,-4.3993548E-2,3.1949064E-1,6.9618985E-2,-5.0300907E-2,1.6241634E-1,2.78E0,1.1909076E1,1.0744833E-1,1.7954226E-1,6.5E0,3.24E2,3.7466666E2,1.1202992E-17,3.5442443E0,-2.4E0,6.6466E3,1.7111062E-1,6.222767E0,-5.2708332E1,3.224903E0,-1.9916666E1,-3.3E1,3.6E0,-9.9262893E-1,2.39E1,1.090393E0,9.951968E0,5.21E2,9.1E-1,3.65082E5,-2.2E0,4.87E2,1.2E0,-2.7708334E1,-3E1,6.1E0,1.7335626E-1,5.8E0,2.792669E1,1.02349065E-1,-4.4830438E-2,1.6324772E-1,3.0336502E-1,5.9127183E3,8.0084436E-2,3.134104E0,9.516652E0,4.1557693E0,7.411742E-2,3.5338865E3,-3.7E1,-4.733333E0,2.7640206E-1,1.5690356E-1,3.386283E-1,2.8987715E-1,3.1547314E-1,2.3461609E-1,2.810044E-1,1.5011093E-1,1.6296835E-1,3.1174645E-1,1.0879894E-1,2.1870337E-1,3.1191072E-1,2.88673E-1,2.6473913E-1,3.015377E-1,2.3872168E-1,4.222934E-1,-4.5440465E-2,1.4442655E-1,3.8697094E-1,2.902858E-1,9.694549E-2,2.9563528E-1,-2.8961614E-2,1.2105775E-1,1.1793609E-1,3.9541855E-1,1.6966148E-1,3.1975397E-1,1.7432266E-1,3.281005E-1,3.477175E-1,2.6379311E-2,2.4728446E-1,3.4800954E-2,1.0702156E-1,2.6947019E-1,1.22606866E-1,3.7708735E-1,5.647629E-1,3.057216E-1,4.0334082E-1,1.1394419E-1,1.2910447E-1,3.1564E-1,5.1186597E-3,1.5667246E-1,3.95479E-1,1.3438177E-1,8.5707165E-2,4.724721E-1,1.8546079E-1,-4.701237E-2,-4.9916346E-2,9.887471E-2,-1.4599881E-2,1.4660048E-1,2.0633245E-1,6.7440504E-3,2.0810823E-1,-9.1828955E-3,-2.760152E-3,1.4710073E-1,1.5377085E-1,5.437894E-1,1.3574335E-1,1.6039448E-2,2.8523654E-1,4.8672357E-1,3.646408E-1,1.0856744E-1,2.573346E-1,-9.707841E-3,-6.850367E-4,3.3093163E-1,8.082538E-2,-4.8708584E-2,-4.479859E-2,-0E0,4.6216995E-1,1.4293794E-1,-1.16390465E-2,1.3041711E-1,-4.9265586E-2,1.0746453E-1,5.79714E-1,2.1002725E-2,-1.2493599E-2,8.49741E-2,-4.2277716E-2,4.4648893E-2,-4.6418674E-2,-5.1407177E-2,-4.4397324E-2,-9.822067E-3,3.4923684E-2,-5.009095E-2,1.0037016E-1,-1.4652993E-2,3.152416E-1,5.8371384E-2,6.652828E-2,-2.169013E-2,-1.7476542E-2,-4.305627E-2,1.7946942E-1,5.2526087E-1,3.460298E-1,6.571348E-2,-2.525835E-3,8.711269E-2,3.741517E-1,6.1541237E-2,-4.553617E-2,2.8066596E-1,2.6842922E-1,4.9130702E-1,3.7384444E-1,7.724721E-2,-1.936834E-2,1.2682186E-1,3.515565E-1,7.018354E-2,2.2916274E-1,5.2611226E-1,-2.6741793E-2,1.633312E-1,2.978643E-1,1.3210134E-1,8.982782E-2,3.461177E-1,1.5961664E-3,1.6908802E-1,4.1258555E-2,-2.0795006E-2,4.3325064E-1,2.2466707E-1,6.066945E-1,3.7154832E-1,2.1223979E-1,4.2365417E-1,4.1316602E-1,1.3812165E-1,-2.9543058E-3,1.3510866E-1,2.3509164E-1,3.880055E-1,1.99467E-1,-3.0061277E-3,2.7202672E-1,3.4300193E-2,-4.5657195E-2,2.8175175E-1],"split_indices":[9,9,8,9,3,3,0,71,3,5,8,22,8,3,78,28,72,69,78,78,69,78,27,72,9,2,0,8,8,47,29,49,3,38,0,75,0,70,25,22,3,29,0,33,7,79,71,3,78,44,5,78,3,78,78,78,49,28,36,45,38,70,29,0,2,18,76,0,3,0,0,78,29,53,4,29,62,0,39,78,44,0,0,69,75,32,66,0,2,65,78,85,4,49,88,41,3,44,66,9,36,0,28,0,64,3,0,36,40,37,0,60,10,0,0,28,71,76,83,3,0,48,8,9,37,11,78,67,8,69,14,85,81,56,35,51,4,7,18,27,17,40,32,62,84,0,75,71,38,59,71,62,8,2,47,2,28,0,0,0,49,10,0,29,40,44,75,0,0,0,0,0,48,79,0,0,2,45,64,18,59,3,25,0,79,78,75,78,9,2,28,5,16,79,45,49,4,35,6,88,78,72,7,0,39,67,0,0,0,0,52,0,63,67,63,29,87,9,56,0,0,0,0,0,0,0,0,0,0,0,0,0,0,0,0,0,0,0,0,0,0,0,0,0,0,0,0,0,0,0,0,0,0,0,0,0,0,0,0,0,0,0,0,0,0,0,0,0,0,0,0,0,0,0,0,0,0,0,0,0,0,0,0,0,0,0,0,0,0,0,0,0,0,0,0,0,0,0,0,0,0,0,0,0,0,0,0,0,0,0,0,0,0,0,0,0,0,0,0,0,0,0,0,0,0,0,0,0,0,0,0,0,0,0,0,0,0,0,0,0,0,0,0,0,0,0,0,0,0,0,0,0,0,0,0,0,0,0,0,0,0,0,0,0,0,0,0,0,0,0,0,0,0],"split_type":[0,0,0,0,0,0,0,0,0,0,0,0,0,0,0,0,0,0,0,0,0,0,0,0,0,0,0,0,0,0,0,0,0,0,0,0,0,0,0,0,0,0,0,0,0,0,0,0,0,0,0,0,0,0,0,0,0,0,0,0,0,0,0,0,0,0,0,0,0,0,0,0,0,0,0,0,0,0,0,0,0,0,0,0,0,0,0,0,0,0,0,0,0,0,0,0,0,0,0,0,0,0,0,0,0,0,0,0,0,0,0,0,0,0,0,0,0,0,0,0,0,0,0,0,0,0,0,0,0,0,0,0,0,0,0,0,0,0,0,0,0,0,0,0,0,0,0,0,0,0,0,0,0,0,0,0,0,0,0,0,0,0,0,0,0,0,0,0,0,0,0,0,0,0,0,0,0,0,0,0,0,0,0,0,0,0,0,0,0,0,0,0,0,0,0,0,0,0,0,0,0,0,0,0,0,0,0,0,0,0,0,0,0,0,0,0,0,0,0,0,0,0,0,0,0,0,0,0,0,0,0,0,0,0,0,0,0,0,0,0,0,0,0,0,0,0,0,0,0,0,0,0,0,0,0,0,0,0,0,0,0,0,0,0,0,0,0,0,0,0,0,0,0,0,0,0,0,0,0,0,0,0,0,0,0,0,0,0,0,0,0,0,0,0,0,0,0,0,0,0,0,0,0,0,0,0,0,0,0,0,0,0,0,0,0,0,0,0,0,0,0,0,0,0,0,0,0,0,0,0,0,0,0,0,0,0,0,0,0,0,0,0,0,0,0,0,0,0,0,0,0,0,0,0,0,0,0,0,0,0,0,0,0,0,0,0,0,0,0,0,0,0,0],"sum_hessian":[5.8864854E3,7.255664E2,5.160919E3,5.602714E2,1.6529494E2,4.893436E3,2.6748303E2,4.1761023E2,1.426612E2,4.080075E1,1.2449419E2,8.986076E1,4.803575E3,1.6922095E2,9.826207E1,1.3747641E2,2.8013385E2,6.6623856E1,7.603734E1,3.4543438E1,6.2573137E0,1.0500663E2,1.9487556E1,2.9530132E1,6.033063E1,4.0496287E3,7.539466E2,7.772154E1,9.1499405E1,1.715957E1,8.11025E1,7.162888E1,6.584753E1,2.73881E2,6.252815E0,2.0947804E0,6.4529076E1,3.776482E1,3.827252E1,7.3790636E0,2.7164375E1,4.481977E0,1.7753369E0,3.6013065E1,6.899356E1,5.019639E0,1.4467918E1,2.1605192E1,7.9249406E0,8.172851E0,5.215778E1,4.0402678E3,9.3606615E0,6.143521E2,1.3959447E2,4.8918423E1,2.880312E1,8.7637634E1,3.8617709E0,6.8542066E0,1.0305365E1,2.5805285E1,5.529722E1,1.1684704E0,7.046041E1,3.546982E1,3.0377705E1,1.1111919E0,2.7276984E2,1.0365862E0,1.0581943E0,1.5344435E1,4.9184643E1,7.416136E0,3.0348684E1,1.6510885E1,2.1761635E1,1.9295541E0,5.4495096E0,1.0665119E1,1.6499256E1,1.1164131E0,3.365564E0,9.070213E0,2.6942854E1,5.0726284E1,1.826728E1,1.9262335E0,3.0934055E0,1.1260308E1,3.2076097E0,1.2140554E1,9.464637E0,2.349404E0,5.5755363E0,3.482098E0,4.6907525E0,4.393643E1,8.221347E0,1.0674188E2,3.9335261E3,1.5702794E0,7.7903824E0,4.90221E1,5.6533E2,2.4221659E1,1.1537281E2,4.7679343E0,4.415049E1,6.5851603E0,2.221796E1,1.9749218E1,6.788841E1,1.8778071E0,1.9839636E0,4.735787E0,2.1184194E0,4.3022957E0,6.0030694E0,2.4107622E1,1.6976624E0,3.5185642E1,2.0111576E1,2.726626E1,4.3194153E1,2.446557E1,1.1004247E1,7.798933E0,2.2578773E1,1.7360617E2,9.916366E1,1.1847051E1,3.4973836E0,4.1473785E1,7.7108593E0,3.6034575E0,3.812678E0,1.2980492E1,1.7368193E1,3.766042E0,1.27448435E1,1.7702698E1,4.0589375E0,2.8539548E0,2.5955548E0,1.0527184E0,9.612401E0,1.1445969E1,5.0532866E0,5.324297E0,3.745916E0,5.002252E0,2.1940601E1,4.3029892E1,7.696392E0,1.0923621E1,7.3436584E0,1.9756699E0,1.1177355E0,1.2554657E0,1.0004843E1,2.077815E0,1.1297947E0,9.8404455E0,2.3001082E0,4.927213E0,4.537424E0,1.1056763E0,1.2437278E0,1.1293695E0,4.446167E0,1.2948112E0,2.1872869E0,2.9161844E0,1.7745683E0,1.6233611E0,4.2313072E1,5.030071E0,3.1912763E0,5.300695E1,5.3734932E1,3.6289785E3,3.0454745E2,1.4680924E0,6.32229E0,4.0278023E1,8.744073E0,5.3813602E1,5.1151642E2,5.142512E0,1.9079147E1,1.0898474E2,6.3880725E0,2.470281E0,2.2976532E0,2.60929E1,1.805759E1,3.5693698E0,3.0157905E0,5.908833E0,1.6309126E1,6.8417344E0,1.2907483E1,1.4516326E0,6.643678E1,2.9357667E0,1.8000205E0,1.0836972E0,1.0347222E0,1.28959E0,3.0127056E0,1.000559E0,5.0025105E0,6.0541863E0,1.8053436E1,2.4993895E1,1.0191746E1,1.234512E1,7.7664557E0,2.2932184E1,4.3340745E0,1.5390345E1,2.7803808E1,1.8602777E1,5.862794E0,6.0682845E0,4.935962E0,1.0297917E0,6.769141E0,1.3469783E1,9.10899E0,3.787644E1,1.3572974E2,6.6859314E1,3.230434E1,1.0276155E1,1.5708956E0,1.0870717E0,2.410312E0,9.142557E0,3.2331226E1,2.8398924E0,4.870967E0,2.274977E0,1.3284806E0,2.8031135E0,1.0095645E0,9.226206E0,3.7542856E0,3.1562603E0,1.4211933E1,2.0120003E0,1.7540417E0,1.0624068E0,1.1682437E1,1.2252411E1,5.4502864E0,1.035342E0,3.0235953E0,1.4343295E0,1.4196253E0,1.2125881E0,1.3829668E0,1.2566891E0,8.355712E0,5.8650947E0,5.580874E0,2.2337053E0,2.8195815E0,1.338733E0,3.985564E0,2.2008402E0,1.5450755E0,3.4514093E0,1.5508425E0,2.77727E0,1.9163332E1,1.0564733E0,4.197342E1,4.115158E0,3.581234E0,8.034997E0,2.8886242E0,6.1870384E0,1.1566201E0,5.1503835E0,4.854459E0,1.0690331E0,1.0087818E0,7.7737017E0,2.066744E0,1.023517E0,1.2765913E0,2.0299244E0,2.8972886E0,1.779609E0,2.757815E0,1.1861036E0,1.0011832E0,1.743513E0,1.1726714E0,4.077535E1,1.537721E0,3.2516136E0,1.7784572E0,1.2445921E0,1.9466844E0,4.8013412E1,4.993539E0,5.2281124E1,1.453808E0,3.0637064E2,3.322608E3,2.8307858E2,2.1468859E1,1.6249522E0,4.6973376E0,6.772446E0,3.3505577E1,2.0763438E0,6.6677294E0,7.4843993E0,4.6329205E1,6.4926834E1,4.465896E2,3.772875E0,1.3696368E0,1.0276605E0,1.8051487E1,1.0155139E2,7.4333487E0,2.1235592E0,4.264513E0,1.3735069E0,1.0967741E0,1.2964284E0,1.0012248E0,1.1888236E0,2.4904076E1,1.6762945E1,1.294646E0,1.2577711E0,2.3115988E0,1.1359996E0,1.8797908E0,4.159402E0,1.7494311E0,4.581145E0,1.1727982E1,4.8130245E0,2.02871E0,1.0987094E1,1.9203894E0,1.429103E1,5.2145752E1,1.4317893E0,1.5039774E0,1.9428253E0,1.0698802E0,1.7659938E0,3.2365165E0,1.4995143E0,4.5546722E0,1.3918502E1,4.1349335E0,1.5730823E1,9.263073E0,8.142659E0,2.0490868E0,1.5857207E0,1.0759399E1,1.0785778E0,6.6878777E0],"tree_param":{"num_deleted":"0","num_feature":"89","num_nodes":"373","size_leaf_vector":"1"}},{"base_weights":[-2.9626446E-2,3.601622E0,-6.679621E-1,4.155922E0,2.0342293E0,3.1069663E0,-7.8382206E-1,4.395903E0,3.6868324E0,3.6955142E0,1.267414E0,4.2672334E0,2.2801294E0,-8.6755335E-1,1.0511696E0,1.9446118E0,4.4113545E0,4.357159E0,3.312756E0,2.3021803E0,4.150943E0,7.893122E-1,3.0079374E0,2.4674172E0,4.6595006E0,1.8965238E0,5.180426E0,5.5792183E-2,-9.276045E-1,-3.463133E-2,2.1335735E0,-6.41431E-3,1.6252293E-1,4.6374297E0,4.279937E0,6.4393997E0,4.247151E0,4.0062585E0,2.6619215E0,4.377448E0,1.5371727E0,5.935948E0,3.7824557E0,1.6983485E0,-1.11779064E-1,9.902392E-1,3.692528E0,-2.3672245E-1,3.2545938E0,6.62426E0,4.4472833E0,8.275889E-2,2.363052E0,7.8863945E0,3.3783934E0,1.264633E0,-2.384943E-1,-9.913909E-1,-5.6291676E-1,-6.896625E-1,4.7587684E-1,1.4577025E0,3.4622211E0,1.2894581E-1,4.655342E0,4.576674E0,4.012864E0,2.3740236E-1,3.7168655E-1,2.585714E0,4.3550997E0,2.2856839E0,4.4025874E0,1.7021538E0,3.3598611E0,2.9438967E-2,5.479515E0,1.0053632E0,2.8516957E-1,7.270952E0,4.7966666E0,3.172432E0,4.9366813E0,9.626365E-1,2.8963373E0,2.3014663E-1,-2.2256573E-1,2.4513013E0,-2.1142422E-1,4.8450317E0,2.2093194E0,3.695054E-2,-4.8097577E-2,6.5080535E-1,4.4472265E0,1.5832661E-1,7.532486E0,1.526659E0,4.587719E0,1.6768895E-1,-2.173775E-1,1.9980356E0,5.204461E0,5.217738E-1,2.4530469E-1,4.648191E0,1.0404313E0,8.54939E-1,3.4538236E0,-3.6558524E-1,1.798656E0,-7.784507E-1,-1.0094713E0,-7.2076374E-1,3.4446067E-1,-8.2243174E-1,-9.2898875E-2,2.1332843E0,6.748869E-2,2.8151424E0,6.3338786E-1,2.9220655E0,4.8944416E0,4.471003E0,4.7729707E0,3.0061117E-1,4.5432506E0,4.072009E0,1.2976155E0,4.950791E0,-1.6998895E-1,5.405039E0,4.1918073E0,-4.252994E-1,3.2277439E0,3.003002E0,4.772342E0,6.1718434E-1,2.5095742E0,4.022674E0,1.5194197E0,3.8050455E-1,1.5428174E-1,2.9503472E0,3.5343808E-1,2.4517103E-1,3.9654788E-1,6.554999E0,3.0724494E0,5.040345E0,2.4167144E0,7.233324E-2,5.1793404E0,-4.1409057E-1,1.7921889E0,4.0672226E0,6.608624E-1,4.4012305E-1,-6.053864E-1,-4.6570655E-2,3.9635222E0,-5.009389E-2,5.3585388E-2,1.19544E0,5.819237E0,1.0164974E0,3.8652468E0,-4.83873E-2,1.5605822E-1,-5.407423E-3,5.5554876E0,2.5949982E-1,4.4441915E-1,-7.014929E-3,1.6875887E-1,4.6944237E0,6.930457E-2,1.0124422E0,-9.245441E-1,2.9440637E0,1.085831E0,7.000406E0,2.423437E0,9.414249E-2,6.271148E0,-4.4636242E-2,1.4437407E-1,2.593273E0,4.941199E-1,-2.3991574E-2,4.645781E0,5.9125822E-2,-6.4453053E-1,1.1795242E0,2.8314838E-1,-8.001911E-1,1.1984948E0,-1.0106187E0,6.903378E-2,-7.946908E-1,8.855283E-2,3.8569577E0,1.7811482E-1,-9.165428E-2,-9.41171E-1,-5.729997E-1,7.764663E-2,-7.42691E-2,3.9652917E0,3.101145E0,-1.6212066E-1,1.1741803E0,3.6966908E0,2.3338428E0,2.700027E-1,2.100207E0,4.361498E0,7.5699406E0,3.9104207E0,2.3492928E-1,2.013536E-1,2.3089652E-1,2.6737615E-1,2.0443295E-1,2.3228827E-1,1.6871168E-1,2.1552315E-1,-6.3449903E-3,1.8649335E-1,3.2106856E-1,1.19234614E-1,-4.7927607E-2,3.4178104E-2,2.9029745E-1,1.6815363E-1,1.9423218E-1,2.432081E-1,3.6474083E-2,-4.9407728E-2,1.9899048E-1,-2.1309787E-2,1.9165295E-1,-1.177885E-2,2.2998226E-1,3.7118647E-1,1.7075577E-1,5.9988755E-3,2.0566379E-1,5.4661598E-2,1.6757493E-1,2.8211805E-1,-0E0,1.6848707E-1,-5.9065893E-3,2.4465881E-1,5.4491073E-2,-5.03723E-2,2.3332043E-1,3.8263804E-1,2.2071648E-2,2.4381447E-1,3.3746502E-1,1.3291566E-1,1.3602029E-1,-4.7775935E-2,1.050254E-1,2.7092308E-1,4.108607E-2,-4.2523544E-2,5.5889785E-2,1.9873017E-1,2.840558E-1,9.201451E-2,2.5466007E-1,-2.2872954E-3,1.955474E-1,4.3327673E-3,-3.8201574E-2,6.818553E-2,4.0569717E-1,3.4923714E-2,-4.4795986E-2,1.2817948E-1,3.3436263E-1,2.0170186E-1,1.3767198E-1,-3.6128215E-2,3.663272E-2,2.6745078E-1,7.439258E-2,3.3187982E-1,2.929421E-1,2.1542399E-1,-5.9610862E-5,1.9266748E-1,-5.1314276E-2,-0E0,3.388874E-2,1.769679E-1,3.511847E-2,2.1077077E-1,4.4070464E-1,1.877173E-1,-4.4869505E-2,2.3715936E-1,4.0674907E-1,1.6510455E-1,3.0778134E-2,2.3366454E-1,5.4680026E-4,1.372961E-1,-1.1128036E-2,2.9572016E-1,-4.279004E-3,2.1911518E-1,3.8076283E-3,-3.7693437E-2,2.815586E-1,3.2539885E-2,-1.7822277E-2,-4.4673454E-2,-4.6935607E-2,2.3272352E-1,-4.4380248E-2,-5.1051088E-2,-2.1806419E-2,-4.451062E-2,7.487151E-2,-1.5525675E-2,4.5800347E-2,3.835325E-1,-2.724218E-3,1.0949164E-1,-4.9776744E-2,1.729921E-1,-5.168503E-2,-1.3404116E-2,-5.013174E-2,2.367802E-2,1.5669735E-1,-5.0121512E-2,4.6501733E-2,3.2277852E-1,-4.5574073E-2,2.9913923E-1,-1.9919865E-2,7.547925E-2,3.079973E-1,2.4477197E-2,2.7376407E-1,1.3952094E-1,6.6427596E-2,2.6379654E-1,-7.111759E-3,7.002421E-2,1.3718043E-1,-3.5042513E-2,2.6633534E-1,5.504954E-2,4.709795E-1,2.5543746E-1,1.2275662E-1,3.0622253E-1],"categories":[],"categories_nodes":[],"categories_segments":[],"categories_sizes":[],"default_left":[0,0,0,0,0,0,0,0,0,0,0,0,0,0,0,0,0,0,0,0,0,0,0,0,0,0,0,0,0,0,0,0,0,0,0,0,0,0,0,0,0,0,0,0,0,0,0,0,0,0,0,0,0,0,0,0,0,0,0,0,0,0,0,0,0,0,0,0,0,0,0,0,0,0,0,0,0,0,0,0,0,0,0,0,0,0,0,0,0,0,0,0,0,0,0,0,0,0,0,0,0,0,0,0,0,0,0,0,0,0,0,0,0,0,0,0,0,0,0,0,0,0,0,0,0,0,0,0,0,0,0,0,0,0,0,0,0,0,0,0,0,0,0,0,0,0,0,0,0,0,0,0,0,0,0,0,0,0,0,0,0,0,0,0,0,0,0,0,0,0,0,0,0,0,0,0,0,0,0,0,0,0,0,0,0,0,0,0,0,0,0,0,0,0,0,0,0,0,0,0,0,0,0,0,0,0,0,0,0,0,0,0,0,0,0,0,0,0,0,0,0,0,0,0,0,0,0,0,0,0,0,0,0,0,0,0,0,0,0,0,0,0,0,0,0,0,0,0,0,0,0,0,0,0,0,0,0,0,0,0,0,0,0,0,0,0,0,0,0,0,0,0,0,0,0,0,0,0,0,0,0,0,0,0,0,0,0,0,0,0,0,0,0,0,0,0,0,0,0,0,0,0,0,0,0,0,0,0,0,0,0,0,0,0,0,0,0,0,0,0,0,0,0,0,0,0,0,0,0,0,0,0,0,0,0,0,0,0,0,0,0,0,0,0,0,0,0,0,0,0,0,0,0,0,0,0,0,0,0,0,0,0,0],"id":3,"left_children":[1,3,5,7,9,11,13,15,17,19,21,23,25,27,29,31,33,35,37,39,41,43,45,47,49,51,53,55,57,59,61,-1,-1,63,65,67,69,71,73,75,77,79,81,83,85,87,89,91,93,95,97,99,101,103,105,107,109,111,113,115,117,119,121,-1,123,125,127,-1,-1,129,131,133,135,137,139,-1,141,143,-1,145,147,149,151,153,155,-1,157,159,161,163,165,-1,-1,167,169,-1,171,173,175,-1,177,179,181,-1,-1,183,185,187,189,191,193,195,197,199,201,203,205,207,209,211,213,215,217,219,221,-1,223,225,227,229,231,233,235,237,239,241,243,245,247,249,251,-1,-1,253,255,-1,-1,257,259,261,263,-1,265,267,269,271,273,275,277,-1,279,-1,-1,281,283,285,287,-1,-1,-1,289,-1,-1,-1,-1,291,-1,293,295,297,299,301,303,-1,305,-1,-1,307,309,-1,311,313,315,317,-1,319,321,323,-1,325,327,329,331,333,335,337,-1,339,341,343,345,347,349,351,353,355,357,359,361,-1,-1,-1,-1,-1,-1,-1,-1,-1,-1,-1,-1,-1,-1,-1,-1,-1,-1,-1,-1,-1,-1,-1,-1,-1,-1,-1,-1,-1,-1,-1,-1,-1,-1,-1,-1,-1,-1,-1,-1,-1,-1,-1,-1,-1,-1,-1,-1,-1,-1,-1,-1,-1,-1,-1,-1,-1,-1,-1,-1,-1,-1,-1,-1,-1,-1,-1,-1,-1,-1,-1,-1,-1,-1,-1,-1,-1,-1,-1,-1,-1,-1,-1,-1,-1,-1,-1,-1,-1,-1,-1,-1,-1,-1,-1,-1,-1,-1,-1,-1,-1,-1,-1,-1,-1,-1,-1,-1,-1,-1,-1,-1,-1,-1,-1,-1,-1,-1,-1,-1,-1,-1,-1,-1,-1,-1,-1,-1,-1,-1,-1,-1,-1,-1,-1,-1,-1,-1,-1,-1,-1,-1,-1,-1],"loss_changes":[1.35050205E4,7.553242E2,2.1672864E3,6.999414E1,2.8924524E2,1.3992859E2,7.3878296E2,1.4602539E1,5.257959E1,4.3993652E1,1.2924828E2,4.1368164E1,9.446008E1,2.5505127E2,2.4679445E2,8.153158E0,9.666016E0,1.4028687E1,6.179651E1,2.7278633E1,3.2283752E1,1.0061135E2,4.5507996E1,2.4252678E1,1.6843384E1,6.448044E1,4.5006042E1,1.0001891E2,1.0022241E2,3.5095783E1,9.339508E1,0E0,0E0,3.7443848E0,1.8587402E1,1.4194794E0,1.1502075E1,4.4606567E1,4.7809998E1,1.891655E1,2.8280455E1,9.014374E0,2.9349731E1,5.3185425E1,3.184665E1,1.5503058E1,4.091916E1,1.9284918E0,2.6286507E1,1.1101593E1,1.7384033E1,1.5899912E1,6.1312714E1,2.2998123E1,1.7365433E1,4.86519E1,5.8389412E1,1.388916E1,9.218637E1,3.547451E0,3.9609264E1,7.7686295E1,2.5111725E1,0E0,2.421875E-1,2.27417E0,2.1791992E1,0E0,0E0,3.2070797E1,8.698242E0,3.3521248E1,2.6256348E1,2.6681053E1,5.0181152E1,0E0,1.519632E1,1.4730275E1,0E0,9.4659424E-1,1.278054E1,4.0124725E1,1.158252E1,4.3671734E1,5.9838226E1,0E0,1.5344476E1,2.0927076E1,4.9824758E0,4.814258E1,2.1129124E1,0E0,0E0,1.2046971E1,3.0586594E1,0E0,5.3358765E0,7.3771563E0,1.3570496E1,0E0,1.2729704E1,4.5949875E1,3.1470917E1,0E0,0E0,1.5793655E1,8.812957E0,2.8758347E1,4.0997925E1,2.5260408E1,3.0305244E1,1.2452957E1,9.388428E0,3.2865784E1,5.5201714E1,3.1419373E0,6.8069124E0,4.7272835E1,3.3346775E1,3.7171783E1,2.6656204E1,2.913153E1,2.0833511E1,3.4190674E0,4.6501465E0,0E0,3.0021973E0,2.0940674E1,1.1553971E1,7.4920044E0,1.6478374E0,4.443115E0,9.774292E0,2.3102481E0,2.7066078E1,3.222956E1,1.5203308E1,1.8258259E1,3.9193527E1,3.074228E1,3.1806807E1,0E0,0E0,1.8123468E1,9.247056E0,0E0,0E0,2.8948975E-1,1.2736689E1,3.1695877E1,2.241185E1,0E0,8.623657E0,7.8081903E0,3.408967E1,5.2616165E1,2.5910011E1,2.661406E1,1.2029855E1,0E0,3.616719E1,0E0,0E0,9.218298E0,1.3198517E1,2.048359E1,2.0357887E1,0E0,0E0,0E0,1.9310837E1,0E0,0E0,0E0,0E0,1.5304932E1,0E0,1.566016E1,7.8001404E-1,3.5005188E1,3.250973E1,1.942389E1,2.280031E1,0E0,9.629234E0,0E0,0E0,3.1803413E1,4.184684E1,0E0,4.1677307E1,5.3183117E1,1.0201256E1,2.619824E1,0E0,1.1656754E1,2.3908108E1,4.050049E0,0E0,1.7031616E1,2.5941208E1,4.640297E1,4.2857258E1,1.7656803E1,1.8431244E0,3.1570468E0,0E0,1.59651375E1,4.6717484E1,4.0011864E1,1.737195E1,3.10817E1,2.5118805E1,2.1194069E1,1.6986025E1,3.0588425E1,2.8015457E1,4.7207336E0,2.0709671E1,0E0,0E0,0E0,0E0,0E0,0E0,0E0,0E0,0E0,0E0,0E0,0E0,0E0,0E0,0E0,0E0,0E0,0E0,0E0,0E0,0E0,0E0,0E0,0E0,0E0,0E0,0E0,0E0,0E0,0E0,0E0,0E0,0E0,0E0,0E0,0E0,0E0,0E0,0E0,0E0,0E0,0E0,0E0,0E0,0E0,0E0,0E0,0E0,0E0,0E0,0E0,0E0,0E0,0E0,0E0,0E0,0E0,0E0,0E0,0E0,0E0,0E0,0E0,0E0,0E0,0E0,0E0,0E0,0E0,0E0,0E0,0E0,0E0,0E0,0E0,0E0,0E0,0E0,0E0,0E0,0E0,0E0,0E0,0E0,0E0,0E0,0E0,0E0,0E0,0E0,0E0,0E0,0E0,0E0,0E0,0E0,0E0,0E0,0E0,0E0,0E0,0E0,0E0,0E0,0E0,0E0,0E0,0E0,0E0,0E0,0E0,0E0,0E0,0E0,0E0,0E0,0E0,0E0,0E0,0E0,0E0,0E0,0E0,0E0,0E0,0E0,0E0,0E0,0E0,0E0,0E0,0E0,0E0,0E0,0E0,0E0,0E0,0E0,0E0,0E0,0E0,0E0,0E0,0E0],"parents":[2147483647,0,0,1,1,2,2,3,3,4,4,5,5,6,6,7,7,8,8,9,9,10,10,11,11,12,12,13,13,14,14,15,15,16,16,17,17,18,18,19,19,20,20,21,21,22,22,23,23,24,24,25,25,26,26,27,27,28,28,29,29,30,30,33,33,34,34,35,35,36,36,37,37,38,38,39,39,40,40,41,41,42,42,43,43,44,44,45,45,46,46,47,47,48,48,49,49,50,50,51,51,52,52,53,53,54,54,55,55,56,56,57,57,58,58,59,59,60,60,61,61,62,62,64,64,65,65,66,66,69,69,70,70,71,71,72,72,73,73,74,74,76,76,77,77,79,79,80,80,81,81,82,82,83,83,84,84,86,86,87,87,88,88,89,89,90,90,93,93,94,94,96,96,97,97,98,98,100,100,101,101,102,102,105,105,106,106,107,107,108,108,109,109,110,110,111,111,112,112,113,113,114,114,115,115,116,116,117,117,118,118,119,119,120,120,121,121,122,122,123,123,124,124,126,126,127,127,128,128,129,129,130,130,131,131,132,132,133,133,134,134,135,135,136,136,137,137,138,138,139,139,140,140,143,143,144,144,147,147,148,148,149,149,150,150,152,152,153,153,154,154,155,155,156,156,157,157,158,158,160,160,163,163,164,164,165,165,166,166,170,170,175,175,177,177,178,178,179,179,180,180,181,181,182,182,184,184,187,187,188,188,190,190,191,191,192,192,193,193,195,195,196,196,197,197,199,199,200,200,201,201,202,202,203,203,204,204,205,205,207,207,208,208,209,209,210,210,211,211,212,212,213,213,214,214,215,215,216,216,217,217,218,218],"right_children":[2,4,6,8,10,12,14,16,18,20,22,24,26,28,30,32,34,36,38,40,42,44,46,48,50,52,54,56,58,60,62,-1,-1,64,66,68,70,72,74,76,78,80,82,84,86,88,90,92,94,96,98,100,102,104,106,108,110,112,114,116,118,120,122,-1,124,126,128,-1,-1,130,132,134,136,138,140,-1,142,144,-1,146,148,150,152,154,156,-1,158,160,162,164,166,-1,-1,168,170,-1,172,174,176,-1,178,180,182,-1,-1,184,186,188,190,192,194,196,198,200,202,204,206,208,210,212,214,216,218,220,222,-1,224,226,228,230,232,234,236,238,240,242,244,246,248,250,252,-1,-1,254,256,-1,-1,258,260,262,264,-1,266,268,270,272,274,276,278,-1,280,-1,-1,282,284,286,288,-1,-1,-1,290,-1,-1,-1,-1,292,-1,294,296,298,300,302,304,-1,306,-1,-1,308,310,-1,312,314,316,318,-1,320,322,324,-1,326,328,330,332,334,336,338,-1,340,342,344,346,348,350,352,354,356,358,360,362,-1,-1,-1,-1,-1,-1,-1,-1,-1,-1,-1,-1,-1,-1,-1,-1,-1,-1,-1,-1,-1,-1,-1,-1,-1,-1,-1,-1,-1,-1,-1,-1,-1,-1,-1,-1,-1,-1,-1,-1,-1,-1,-1,-1,-1,-1,-1,-1,-1,-1,-1,-1,-1,-1,-1,-1,-1,-1,-1,-1,-1,-1,-1,-1,-1,-1,-1,-1,-1,-1,-1,-1,-1,-1,-1,-1,-1,-1,-1,-1,-1,-1,-1,-1,-1,-1,-1,-1,-1,-1,-1,-1,-1,-1,-1,-1,-1,-1,-1,-1,-1,-1,-1,-1,-1,-1,-1,-1,-1,-1,-1,-1,-1,-1,-1,-1,-1,-1,-1,-1,-1,-1,-1,-1,-1,-1,-1,-1,-1,-1,-1,-1,-1,-1,-1,-1,-1,-1,-1,-1,-1,-1,-1,-1],"split_conditions":[-4.2666668E1,-5.3666668E1,-5.9E0,-6.7666664E1,-3.5E0,-8.1E0,1.15E1,3.3383334E2,-3.8E0,2.8867514E0,1.6953696E6,3.5633334E2,4.77E2,-3.2333332E1,2.33E2,1.09E1,-8.5125E1,-7.5291664E1,-5.85E1,-8.1491596E-1,4.0073235E-2,-4.8375E1,4.5533334E2,-2.3E0,3.69E2,7.9E0,4.97E2,-3E0,7.5E0,7.7E1,1.56E1,-6.41431E-3,1.6252293E-1,-9.896398E-1,-5.1E0,-4E0,3.44E2,4.5545834E2,2.75E0,-5.4064083E-1,2.0146491E6,1.64E0,2.0953125E6,4.4939683E3,-1.02E1,1.7370432E1,2.5881904E-1,7.5E0,8.916669E1,-8.399999E-1,3.5616666E2,3.0466666E2,9.6550715E-1,1.4791666E0,-2.2333334E1,3.3999997E-1,2.14245E6,-2.7E0,4.35E2,2.0242695E1,-7.7177274E-1,-2E1,1.56E1,1.2894581E-1,5.0552E4,3.3983334E2,9.912686E-1,2.3740236E-1,3.7168655E-1,3.2783334E2,1.8694E4,1.2653957E-1,4.9E0,8.3E0,8.660254E-1,2.9438967E-2,-3.2E0,-6.7E0,2.8516957E-1,-9E-1,-7.75E-1,5.6356586E2,4E0,4.8454166E2,-6.132298E-1,2.3014663E-1,-1.5E0,1.0797209E1,5.78E0,5.3037724E0,1.03E1,3.695054E-2,-4.8097577E-2,1.20000005E-1,-5E-1,1.5832661E-1,4.5092497E0,2.8310293E-1,1.3189035E4,1.6768895E-1,1.79E0,-1.9333334E1,-3.3323526E-2,5.217738E-1,2.4530469E-1,1.9616352E-1,5.4425E2,4.3059E4,-6.0384524E-1,-3.9625E1,9.272376E-1,8.4E0,1.5E1,2.5291855E6,-3.1E1,-8.605997E-1,9.9E0,1.9395215E6,-3.1E0,3.66E0,-7.036774E-1,1E0,4.125E4,2E-1,-8.1333336E1,3.0061117E-1,6.8992753E0,2.6564627E1,5.74E2,7E-1,-4.1E0,1.7784824E0,1.4077168E1,-8.536453E1,2.5525928E3,-6.7583336E1,3.2807518E1,1.12E0,-1.7011768E-1,3.1666667E0,8.709191E0,3.8050455E-1,1.5428174E-1,2.8032867E2,1.4267629E1,2.4517103E-1,3.9654788E-1,-3.625E0,1.5E0,5.7384667E0,7.692414E0,7.233324E-2,2.3030207E0,8.4E0,7.7E0,-5.5291668E1,-3.900001E-1,-5.9E0,4.58E0,-4.6570655E-2,8.869423E0,-5.009389E-2,5.3585388E-2,5.31E2,2.8442068E3,-3.9625E1,2.3727898E-1,-4.83873E-2,1.5605822E-1,-5.407423E-3,1.69E0,2.5949982E-1,4.4441915E-1,-7.014929E-3,1.6875887E-1,-3.9E0,6.930457E-2,3.526268E1,7.06E0,1.2297022E1,1.67E1,1.0783489E3,1.9300917E2,9.414249E-2,6.0897464E-1,-4.4636242E-2,1.4437407E-1,1.6886597E1,2.63707E5,-2.3991574E-2,4.01E2,6.72E2,-3E0,-9.789889E-1,2.8314838E-1,-2.1541666E1,8.009648E-1,-2.4666666E1,6.903378E-2,-1.8125E1,-1.2708333E1,5.7503624E0,3.117503E6,2.7060425E0,7.592196E1,4E0,7.764663E-2,-2.7333334E1,8.392362E2,3.25E0,1.5899997E0,1.8272E4,1.09E1,4.12E0,1.5E1,1.5E0,6.6E0,1.82E1,3.5855732E6,2.3492928E-1,2.013536E-1,2.3089652E-1,2.6737615E-1,2.0443295E-1,2.3228827E-1,1.6871168E-1,2.1552315E-1,-6.3449903E-3,1.8649335E-1,3.2106856E-1,1.19234614E-1,-4.7927607E-2,3.4178104E-2,2.9029745E-1,1.6815363E-1,1.9423218E-1,2.432081E-1,3.6474083E-2,-4.9407728E-2,1.9899048E-1,-2.1309787E-2,1.9165295E-1,-1.177885E-2,2.2998226E-1,3.7118647E-1,1.7075577E-1,5.9988755E-3,2.0566379E-1,5.4661598E-2,1.6757493E-1,2.8211805E-1,-0E0,1.6848707E-1,-5.9065893E-3,2.4465881E-1,5.4491073E-2,-5.03723E-2,2.3332043E-1,3.8263804E-1,2.2071648E-2,2.4381447E-1,3.3746502E-1,1.3291566E-1,1.3602029E-1,-4.7775935E-2,1.050254E-1,2.7092308E-1,4.108607E-2,-4.2523544E-2,5.5889785E-2,1.9873017E-1,2.840558E-1,9.201451E-2,2.5466007E-1,-2.2872954E-3,1.955474E-1,4.3327673E-3,-3.8201574E-2,6.818553E-2,4.0569717E-1,3.4923714E-2,-4.4795986E-2,1.2817948E-1,3.3436263E-1,2.0170186E-1,1.3767198E-1,-3.6128215E-2,3.663272E-2,2.6745078E-1,7.439258E-2,3.3187982E-1,2.929421E-1,2.1542399E-1,-5.9610862E-5,1.9266748E-1,-5.1314276E-2,-0E0,3.388874E-2,1.769679E-1,3.511847E-2,2.1077077E-1,4.4070464E-1,1.877173E-1,-4.4869505E-2,2.3715936E-1,4.0674907E-1,1.6510455E-1,3.0778134E-2,2.3366454E-1,5.4680026E-4,1.372961E-1,-1.1128036E-2,2.9572016E-1,-4.279004E-3,2.1911518E-1,3.8076283E-3,-3.7693437E-2,2.815586E-1,3.2539885E-2,-1.7822277E-2,-4.4673454E-2,-4.6935607E-2,2.3272352E-1,-4.4380248E-2,-5.1051088E-2,-2.1806419E-2,-4.451062E-2,7.487151E-2,-1.5525675E-2,4.5800347E-2,3.835325E-1,-2.724218E-3,1.0949164E-1,-4.9776744E-2,1.729921E-1,-5.168503E-2,-1.3404116E-2,-5.013174E-2,2.367802E-2,1.5669735E-1,-5.0121512E-2,4.6501733E-2,3.2277852E-1,-4.5574073E-2,2.9913923E-1,-1.9919865E-2,7.547925E-2,3.079973E-1,2.4477197E-2,2.7376407E-1,1.3952094E-1,6.6427596E-2,2.6379654E-1,-7.111759E-3,7.002421E-2,1.3718043E-1,-3.5042513E-2,2.6633534E-1,5.504954E-2,4.709795E-1,2.5543746E-1,1.2275662E-1,3.0622253E-1],"split_indices":[72,72,3,72,3,3,0,66,3,73,20,66,45,72,10,38,78,78,78,28,23,78,66,35,64,36,6,3,0,10,0,0,0,29,3,88,6,70,46,30,20,50,20,86,2,79,26,38,80,21,68,68,28,62,74,21,20,3,10,67,28,74,38,0,4,66,28,0,0,70,4,23,0,38,26,0,1,3,0,31,60,85,40,70,28,0,3,79,47,15,0,0,0,21,26,0,73,23,51,0,47,72,29,0,0,23,68,4,29,78,28,36,88,20,74,28,40,20,3,46,28,72,4,3,72,0,75,71,44,33,2,59,75,11,85,78,65,49,29,58,15,0,0,54,79,0,0,62,33,15,22,0,80,40,38,78,21,32,47,0,75,0,0,43,83,78,23,0,0,0,49,0,0,0,0,32,0,12,46,51,36,85,83,0,29,0,0,71,4,0,64,10,88,28,0,78,19,74,0,78,78,75,20,59,12,88,0,78,83,47,21,4,37,50,5,78,40,37,20,0,0,0,0,0,0,0,0,0,0,0,0,0,0,0,0,0,0,0,0,0,0,0,0,0,0,0,0,0,0,0,0,0,0,0,0,0,0,0,0,0,0,0,0,0,0,0,0,0,0,0,0,0,0,0,0,0,0,0,0,0,0,0,0,0,0,0,0,0,0,0,0,0,0,0,0,0,0,0,0,0,0,0,0,0,0,0,0,0,0,0,0,0,0,0,0,0,0,0,0,0,0,0,0,0,0,0,0,0,0,0,0,0,0,0,0,0,0,0,0,0,0,0,0,0,0,0,0,0,0,0,0,0,0,0,0,0,0,0,0,0,0,0,0],"split_type":[0,0,0,0,0,0,0,0,0,0,0,0,0,0,0,0,0,0,0,0,0,0,0,0,0,0,0,0,0,0,0,0,0,0,0,0,0,0,0,0,0,0,0,0,0,0,0,0,0,0,0,0,0,0,0,0,0,0,0,0,0,0,0,0,0,0,0,0,0,0,0,0,0,0,0,0,0,0,0,0,0,0,0,0,0,0,0,0,0,0,0,0,0,0,0,0,0,0,0,0,0,0,0,0,0,0,0,0,0,0,0,0,0,0,0,0,0,0,0,0,0,0,0,0,0,0,0,0,0,0,0,0,0,0,0,0,0,0,0,0,0,0,0,0,0,0,0,0,0,0,0,0,0,0,0,0,0,0,0,0,0,0,0,0,0,0,0,0,0,0,0,0,0,0,0,0,0,0,0,0,0,0,0,0,0,0,0,0,0,0,0,0,0,0,0,0,0,0,0,0,0,0,0,0,0,0,0,0,0,0,0,0,0,0,0,0,0,0,0,0,0,0,0,0,0,0,0,0,0,0,0,0,0,0,0,0,0,0,0,0,0,0,0,0,0,0,0,0,0,0,0,0,0,0,0,0,0,0,0,0,0,0,0,0,0,0,0,0,0,0,0,0,0,0,0,0,0,0,0,0,0,0,0,0,0,0,0,0,0,0,0,0,0,0,0,0,0,0,0,0,0,0,0,0,0,0,0,0,0,0,0,0,0,0,0,0,0,0,0,0,0,0,0,0,0,0,0,0,0,0,0,0,0,0,0,0,0,0,0,0,0,0,0,0,0,0,0,0,0,0,0,0,0,0,0,0,0,0,0,0,0,0,0],"sum_hessian":[5.826188E3,8.70967E2,4.9552207E3,6.4325464E2,2.2771236E2,1.4745413E2,4.8077666E3,4.2485352E2,2.1840114E2,7.1751755E1,1.559606E2,6.1132423E1,8.632172E1,4.598063E3,2.0970381E2,2.781259E0,4.2207224E2,7.774816E1,1.4065297E2,1.7878748E1,5.3873005E1,1.2251104E2,3.344957E1,1.111556E1,5.001686E1,7.641465E1,9.90706E0,2.8067972E2,4.3173833E3,1.0468982E2,1.05013985E2,1.0801804E0,1.7010785E0,1.5361766E2,2.684546E2,3.56711E0,7.418105E1,6.777042E1,7.288255E1,4.6531167E0,1.3225632E1,8.9133215E0,4.4959682E1,6.0997852E1,6.1513184E1,8.573009E0,2.4876562E1,2.4933157E0,8.622244E0,4.5353055E0,4.5481556E1,1.5701715E1,6.0712936E1,3.8031068E0,6.1039534E0,5.4954235E1,2.257255E2,3.67428E3,6.4310297E2,4.592474E1,5.876508E1,6.979492E1,3.521906E1,1.4984238E0,1.5211923E2,1.262233E2,1.422313E2,1.5717138E0,1.9953961E0,4.734493E0,6.944656E1,1.2861988E1,5.490843E1,3.089064E1,4.1991917E1,1.1035415E0,3.549575E0,1.1859876E1,1.3657554E0,3.8158944E0,5.0974274E0,2.971591E1,1.52437725E1,3.795355E1,2.3044304E1,1.2984414E0,6.0214745E1,3.859544E0,4.7134643E0,1.3833433E1,1.104313E1,1.0034596E0,1.4898561E0,2.7835464E0,5.8386974E0,1.0596901E0,3.4756155E0,2.1737425E0,4.3307816E1,1.2621379E0,1.4439578E1,5.398355E1,6.7293854E0,1.8969362E0,1.9061706E0,3.8638356E0,2.2401175E0,4.6446735E1,8.507501E0,2.1259363E2,1.3131856E1,2.883374E2,3.3859426E3,5.479181E2,9.518484E1,3.7398792E1,8.525949E0,1.1485393E1,4.7279686E1,2.6232965E1,4.356196E1,2.5845419E1,9.373642E0,6.1107235E1,9.1012E1,2.3968678E0,1.2382643E2,1.3911424E2,3.117042E0,2.524488E0,2.2100048E0,8.83256E0,6.0614002E1,3.3036678E0,9.55832E0,1.1721835E1,4.3186596E1,1.3308142E1,1.7582499E1,3.0746153E1,1.1245762E1,1.7406813E0,1.8088937E0,2.8502767E0,9.0096E0,1.0486585E0,2.767236E0,2.3563182E0,2.7411094E0,8.358025E0,2.1357885E1,1.0630381E0,1.4180734E1,1.4243891E1,2.370966E1,1.5040039E1,8.004264E0,2.1946926E1,3.826782E1,1.1837876E0,2.6757565E0,2.9784749E0,1.7349896E0,2.9831703E0,1.0850263E1,6.5480886E0,4.495041E0,1.6940016E0,1.089545E0,1.1425189E0,4.6961784E0,1.4782566E0,1.9973589E0,1.1631498E0,1.0105927E0,4.1835648E1,1.4721651E0,5.204301E0,9.235277E0,2.633731E1,2.7646242E1,3.974824E0,2.7545614E0,1.5316693E0,2.3321662E0,1.0933378E0,1.1467799E0,7.8296447E0,3.861709E1,1.9727968E0,6.534704E0,8.416605E1,1.2842758E2,1.1453243E1,1.6786131E0,2.8531E2,3.0274293E0,3.3844175E3,1.5251447E0,5.0217252E2,4.5745594E1,4.1764607E0,9.100838E1,5.369811E0,3.202898E1,6.6980295E0,1.827919E0,5.227573E0,6.2578197E0,3.2693338E0,4.4010353E1,9.288841E0,1.6944124E1,7.5261273E0,3.603583E1,1.6652744E1,9.192674E0,2.3132174E0,7.0604243E0,3.9614918E1,2.149232E1,7.2520485E1,1.8491518E1,2.371752E1,1.0010891E2,3.592454E1,1.03189705E2,1.9995933E0,1.1174487E0,1.4845269E0,1.0399611E0,1.2032365E0,1.0067683E0,7.187999E0,1.6445605E0,4.217359E1,1.8440413E1,1.014664E0,2.2890036E0,7.942101E0,1.6162192E0,9.340387E0,2.3814473E0,4.0837837E1,2.3487568E0,1.8891798E0,1.1418962E1,8.12344E0,9.459059E0,2.1998814E1,8.747339E0,6.237948E0,5.0078144E0,1.1214776E0,1.728799E0,5.9067936E0,3.1028056E0,1.0926687E0,1.2636495E0,1.1880993E0,1.5530101E0,4.735374E0,3.6226509E0,1.9638311E1,1.7195734E0,1.1226417E0,1.3058092E1,3.6342826E0,1.0609609E1,1.8263157E1,5.446502E0,8.604329E0,6.43571E0,1.0346905E0,6.9695735E0,1.9093155E0,2.0037611E1,3.5518192E1,2.7496257E0,1.0992675E0,1.576489E0,1.1645136E0,1.8186566E0,7.0780864E0,3.7721767E0,3.2756271E0,3.2724614E0,1.5144489E0,2.980592E0,1.0561244E0,3.640054E0,9.996966E0,3.1838682E1,3.883447E0,1.3208541E0,8.216677E0,1.0185996E0,5.5583763E0,2.0778934E1,2.4766098E1,2.8801441E0,2.4202228E0,1.5546013E0,1.1403317E0,1.6142297E0,1.30517E0,1.0269963E0,4.104602E0,3.7250428E0,3.191399E1,6.7030997E0,1.3515925E0,5.1831117E0,8.151254E1,2.653508E0,1.6801208E1,1.1162637E2,1.0933691E0,1.0359874E1,4.9826694E1,2.3548329E2,1.8977475E0,1.1296818E0,2.6532074E2,3.119097E3,1.0597491E2,3.9619763E2,1.0091957E1,3.5653637E1,2.4428685E0,1.7335923E0,8.1618996E1,9.389382E0,4.360228E0,1.0095828E0,2.7980371E1,4.04861E0,4.819338E0,1.8786919E0,1.095512E0,4.132061E0,2.9003062E0,3.3575134E0,1.380576E0,1.8887577E0,3.867944E1,5.3309135E0,1.0073268E0,8.281514E0,5.512045E0,1.1432079E1,5.7429485E0,1.7831792E0,2.640575E1,9.63008E0,1.3572825E1,3.079919E0,7.020386E0,2.1722877E0,1.1360734E0,1.1771442E0,4.4146914E0,2.645733E0],"tree_param":{"num_deleted":"0","num_feature":"89","num_nodes":"363","size_leaf_vector":"1"}},{"base_weights":[-2.196818E-2,3.028109E0,-7.104482E-1,3.5315528E0,1.7787747E0,-8.8399535E-1,1.2447684E0,3.7003214E0,3.035604E0,2.9815328E0,1.2011307E0,9.9614006E-1,-9.171094E-1,1.7107007E-1,2.1117594E0,3.7904098E0,3.4733198E0,3.6287923E0,2.6451998E0,2.508217E0,3.907626E0,7.8125536E-1,2.4908834E0,2.74114E0,2.387833E-1,-9.853113E-1,-4.913387E-1,4.1833147E-1,1.1455262E-1,1.7636232E0,3.4346974E0,2.8893971E0,3.808784E0,3.6320882E0,2.7850685E0,4.7071943E0,3.3910828E0,2.9733992E0,1.6609936E0,3.0307803E-1,2.3070598E0,2.2404273E0,4.1221375E0,1.5210787E0,7.521652E-2,1.5825357E0,3.2706215E0,1.8921643E0,4.7361455E0,1.1507176E-1,2.4073659E-1,-9.913135E-1,3.5181955E-1,-6.661548E-1,4.7238672E-1,9.3519604E-1,-3.281158E-1,3.2249544E0,1.4916055E0,2.108669E0,3.6985984E0,8.155121E-1,3.8562424E0,3.921356E0,3.725447E0,4.062032E0,3.36216E0,1.663183E0,3.272108E0,7.6163925E-2,5.0450387E0,7.1124816E-1,3.4795043E0,2.648415E0,3.828616E0,1.0834733E0,2.9871073E0,2.8179698E0,1.399972E0,7.6082915E-1,2.2173332E-1,7.0304565E-2,4.251809E0,1.3567277E0,4.4776783E0,3.4915023E0,-1.8422121E-2,4.2234302E-1,2.3951986E0,3.6710432E0,1.4403101E0,4.410503E0,9.944442E-1,5.821764E0,1.6222293E-2,2.7739935E0,-2.4151862E-2,-6.2604994E-1,-1.0037682E0,2.6968E0,-2.0325592E-1,2.8594008E-1,-7.606276E-1,1.6232535E0,1.02097414E-1,-2.720283E-1,1.8531159E0,1.0766779E0,-5.9473974E-1,3.642975E0,-4.931091E-2,9.742848E-1,2.4710553E0,9.724924E-1,4.321936E0,3.8760939E0,1.5135976E0,1.7094211E-1,-5.5760246E-2,1.10793665E-1,2.0756929E-1,3.9426248E0,2.6991892E0,1.9338511E-1,3.5227764E0,3.4519434E0,4.39962E0,2.4233603E0,3.531408E0,1.0942519E0,2.2180513E-1,1.4610885E0,3.7187078E0,1.3811775E-1,5.250259E0,1.1757801E-1,-4.7083337E-2,4.613887E0,3.2734678E0,1.7812303E0,3.0300665E0,5.7735056E-2,4.014776E0,2.0769854E0,-1.356611E-1,9.734667E-1,3.6397336E0,4.755439E0,2.5575824E0,2.6361928E0,7.935806E-1,1.2889378E-1,-4.9524657E-2,4.3711452E0,6.2312156E-2,2.0867033E0,4.4106707E-1,7.0335603E0,3.3665042E-2,3.092215E-2,3.0616415E-1,-4.916599E-1,4.655853E-1,-4.046089E-2,1.8726368E-1,3.160679E0,-3.9280367E-1,2.020434E0,4.2191453E0,-0E0,2.998286E0,1.4795943E-2,6.3865204E0,3.5432227E-2,2.88992E0,3.8673487E0,7.6601157E0,8.491487E-3,3.0931988E-1,-2.5654548E-1,1.6610554E0,-6.7618185E-1,4.5967412E-1,-1.0185118E0,-8.4600085E-1,-4.4849645E-2,2.4150041E-1,1.757512E0,-5.805448E-1,-3.5079617E-2,2.266034E0,-3.588372E-1,-8.234855E-1,5.178197E-1,3.0937533E0,-1.0381584E-1,2.7634501E0,1.7661258E0,-5.939572E-1,2.863842E0,8.1193763E-1,2.4032302E0,-1.9616595E-2,9.185313E-1,-6.7239636E-1,4.2544203E0,1.2564987E0,1.5660063E0,1.5334046E-1,4.116926E0,1.7246225E0,2.6973925E0,-6.5981597E-1,3.0398595E-1,1.1846446E-1,4.8407894E-2,3.984824E0,2.0140615E-1,-2.1823967E-2,1.9761525E-1,1.0822015E-1,4.381026E-2,1.8981381E-1,1.7013167E-1,2.0996432E-1,2.0517378E-1,1.10752456E-1,2.288272E-1,1.6049735E-1,2.1414876E-2,1.695029E-1,1.8547344E-1,1.2205737E-1,1.8968037E-1,2.5990123E-2,2.8308406E-2,1.8621722E-1,9.203284E-2,2.0124558E-1,2.7929008E-1,1.8334745E-1,6.698156E-2,2.51654E-1,1.894981E-1,1.3922235E-1,5.722324E-2,1.9311598E-1,1.626153E-1,5.2147474E-2,1.22037746E-1,2.172815E-1,2.3490235E-2,1.7800875E-1,-3.162715E-2,5.1191088E-2,-4.8139285E-2,1.4523421E-1,2.1413527E-1,6.5435775E-2,3.0958334E-1,2.2981536E-2,4.4701215E-2,1.4266126E-1,-7.2162137E-3,1.9105993E-1,1.3351119E-1,1.0461106E-2,2.4581929E-1,1.8396746E-1,3.6774483E-2,1.4546104E-1,-6.1028445E-4,1.2769331E-1,1.9288823E-1,4.767904E-1,-3.0771857E-2,6.29241E-2,7.471561E-2,6.758752E-4,-4.363544E-2,7.49233E-2,1.9735129E-1,4.4314817E-2,-4.999806E-2,3.35341E-2,1.393364E-1,-4.5657784E-2,3.417869E-1,1.8164639E-1,7.9748794E-2,-4.953987E-2,2.553578E-1,2.5539512E-2,4.265504E-1,1.2078811E-1,1.5537886E-1,-2.3626653E-2,2.756811E-1,3.278498E-2,3.3158556E-1,8.760963E-2,4.779708E-1,2.4825013E-1,-1.8739188E-2,1.5839607E-1,-4.762804E-2,1.511863E-1,-3.4876786E-2,4.1181277E-2,1.3176884E-1,-3.504016E-2,-5.111239E-2,-4.1615706E-2,-4.42719E-2,-1.3267972E-2,1.7441146E-1,-0E0,-4.1092593E-2,6.168263E-2,1.0143741E-1,-1.1271098E-2,1.8223509E-1,-6.3322424E-3,-2.4036795E-2,1.15033686E-1,-4.2736005E-2,-4.3761192E-4,1.3063373E-1,-5.850689E-3,7.436402E-2,2.812275E-1,2.0268989E-1,-1.0475679E-2,2.0210776E-2,3.7160358E-1,1.937386E-1,-4.6405878E-2,1.176426E-2,-4.295648E-2,2.8757924E-1,1.03230536E-1,1.9792263E-1,1.7171843E-2,3.0781853E-1,5.342381E-2,-5.0486173E-2,3.951075E-2,-2.0869175E-2,2.552924E-1,-3.8588922E-2,7.3413405E-4,2.381469E-1,8.8845834E-2,-1.6235977E-2,1.6336763E-1,1.5276994E-1,6.1939854E-2,4.342673E-2,-2.0717492E-2,1.2195714E-1,2.6347086E-1,5.729453E-3,1.1560279E-1,2.290437E-1,4.4132795E-2,-4.0801894E-4,-4.8996624E-2,2.7302167E-1,1.8702178E-1],"categories":[],"categories_nodes":[],"categories_segments":[],"categories_sizes":[],"default_left":[0,0,0,0,0,0,0,0,0,0,0,0,0,0,0,0,0,0,0,0,0,0,0,0,0,0,0,0,0,0,0,0,0,0,0,0,0,0,0,0,0,0,0,0,0,0,0,0,0,0,0,0,0,0,0,0,0,0,0,0,0,0,0,0,0,0,0,0,0,0,0,0,0,0,0,0,0,0,0,0,0,0,0,0,0,0,0,0,0,0,0,0,0,0,0,0,0,0,0,0,0,0,0,0,0,0,0,0,0,0,0,0,0,0,0,0,0,0,0,0,0,0,0,0,0,0,0,0,0,0,0,0,0,0,0,0,0,0,0,0,0,0,0,0,0,0,0,0,0,0,0,0,0,0,0,0,0,0,0,0,0,0,0,0,0,0,0,0,0,0,0,0,0,0,0,0,0,0,0,0,0,0,0,0,0,0,0,0,0,0,0,0,0,0,0,0,0,0,0,0,0,0,0,0,0,0,0,0,0,0,0,0,0,0,0,0,0,0,0,0,0,0,0,0,0,0,0,0,0,0,0,0,0,0,0,0,0,0,0,0,0,0,0,0,0,0,0,0,0,0,0,0,0,0,0,0,0,0,0,0,0,0,0,0,0,0,0,0,0,0,0,0,0,0,0,0,0,0,0,0,0,0,0,0,0,0,0,0,0,0,0,0,0,0,0,0,0,0,0,0,0,0,0,0,0,0,0,0,0,0,0,0,0,0,0,0,0,0,0,0,0,0,0,0,0,0,0,0,0,0,0,0,0,0,0,0,0,0,0,0,0,0,0,0,0,0,0,0,0,0,0,0,0,0,0,0,0,0,0,0,0,0,0,0,0,0,0,0,0],"id":4,"left_children":[1,3,5,7,9,11,13,15,17,19,21,23,25,27,29,31,33,35,37,39,41,43,45,47,49,51,53,-1,55,57,59,61,63,65,67,69,71,73,75,-1,77,79,81,83,85,87,89,91,93,95,-1,97,99,101,103,105,107,109,111,113,115,117,119,121,123,125,127,129,131,-1,133,135,137,139,141,143,145,147,149,151,-1,-1,153,155,157,159,161,163,165,167,169,171,173,175,-1,177,179,181,183,185,187,189,191,193,195,197,199,201,203,205,-1,207,209,211,213,215,217,-1,-1,-1,-1,219,221,-1,223,225,227,229,231,233,-1,235,237,-1,239,-1,-1,241,243,245,247,-1,249,251,253,255,257,259,261,263,265,-1,-1,267,-1,269,271,273,-1,-1,-1,275,277,279,-1,281,283,285,287,289,291,-1,293,295,297,299,301,-1,-1,303,305,307,309,311,313,-1,-1,315,317,319,321,323,325,327,329,331,333,335,337,339,341,343,345,347,349,351,353,355,357,359,361,363,365,-1,-1,-1,367,-1,-1,-1,-1,-1,-1,-1,-1,-1,-1,-1,-1,-1,-1,-1,-1,-1,-1,-1,-1,-1,-1,-1,-1,-1,-1,-1,-1,-1,-1,-1,-1,-1,-1,-1,-1,-1,-1,-1,-1,-1,-1,-1,-1,-1,-1,-1,-1,-1,-1,-1,-1,-1,-1,-1,-1,-1,-1,-1,-1,-1,-1,-1,-1,-1,-1,-1,-1,-1,-1,-1,-1,-1,-1,-1,-1,-1,-1,-1,-1,-1,-1,-1,-1,-1,-1,-1,-1,-1,-1,-1,-1,-1,-1,-1,-1,-1,-1,-1,-1,-1,-1,-1,-1,-1,-1,-1,-1,-1,-1,-1,-1,-1,-1,-1,-1,-1,-1,-1,-1,-1,-1,-1,-1,-1,-1,-1,-1,-1,-1,-1,-1,-1,-1,-1,-1,-1,-1,-1,-1,-1,-1,-1,-1,-1,-1,-1,-1,-1,-1,-1,-1],"loss_changes":[1.2178462E4,6.7058496E2,1.6056094E3,6.1907227E1,2.1252972E2,2.7065747E2,3.5881323E2,9.557129E0,4.332715E1,4.198706E1,1.1191788E2,9.9038925E1,1.2382251E2,7.8950226E1,9.7135864E1,4.929199E0,1.6122437E1,1.72323E1,3.6976135E1,4.5075256E1,1.03845215E1,8.175461E1,3.5040375E1,3.6913116E1,2.9228168E1,2.964038E1,9.946275E1,0E0,6.236298E1,6.629321E1,1.4135559E1,1.6483635E1,1.4907227E0,1.317981E1,1.5921783E1,1.3099548E1,1.4310486E1,2.275879E1,2.1992554E1,0E0,2.8302002E1,1.2387732E1,9.197571E0,3.5988968E1,2.608236E1,2.2018097E1,1.89169E1,3.549983E1,3.118512E1,1.9286524E1,0E0,1.6444824E1,2.171411E1,4.500656E1,3.840863E1,6.688569E1,4.172127E1,4.7105865E1,7.1802734E1,1.8276379E1,1.3121765E1,1.5175655E1,1.257721E0,2.5895996E0,4.5341797E0,8.031799E0,1.1521973E1,1.4203087E1,1.6309494E1,0E0,3.4336548E0,6.2749467E0,1.1987366E1,2.018692E1,1.090918E1,2.551082E1,1.0869659E1,1.8243896E1,1.6619976E1,8.638538E0,0E0,0E0,8.934143E0,4.822229E1,3.720047E1,1.5390564E1,1.7972368E1,1.5701121E1,3.0065804E1,1.8637634E1,1.1270142E1,3.3144257E1,2.1608234E1,1.5056335E1,0E0,2.2284113E1,1.9032497E1,6.658413E0,7.9692383E0,2.5280119E1,9.866762E0,2.8883177E1,1.1334045E1,3.5200275E1,3.7941204E1,1.7066902E1,3.543306E1,2.6039139E1,1.1049492E1,3.4026825E1,0E0,4.5329956E1,5.9205627E1,1.5053679E1,6.414234E0,9.828064E0,1.5080956E1,0E0,0E0,0E0,0E0,1.3383789E0,5.677664E0,0E0,5.640503E0,1.3324829E1,4.453491E0,2.43143E1,1.1848938E1,1.205437E1,0E0,8.3887E0,8.517517E0,0E0,2.861786E0,0E0,0E0,1.1146805E1,1.145874E1,2.5435669E1,1.8783264E1,0E0,9.8508E0,2.6974117E1,5.454713E0,9.263109E0,8.834343E0,2.7306717E1,1.685112E1,2.4941494E1,1.672643E1,0E0,0E0,7.460266E0,0E0,4.425763E1,3.1303715E1,1.3566238E1,0E0,0E0,0E0,8.628547E0,1.7836788E1,1.13568535E1,0E0,1.874128E1,2.072683E0,1.3434402E1,2.1860474E1,4.5650544E0,1.1924246E1,0E0,2.0720375E1,1.3113683E1,2.2547585E1,1.4457085E1,7.219208E0,0E0,0E0,1.727726E1,2.1440615E1,3.764248E0,1.3830351E1,1.9831543E0,6.8225403E0,0E0,0E0,6.8046513E0,5.0162754E0,1.5123894E1,2.1289616E1,1.9994087E1,9.909546E0,1.7174618E1,3.6553604E1,2.774847E1,5.3679344E1,2.0728327E1,5.051371E0,3.792694E1,2.4574837E1,3.9037296E1,7.935301E0,2.6154224E1,6.1715508E0,2.2537384E1,1.6562378E1,2.5694473E1,1.609341E1,2.7434479E1,3.1976685E1,7.878351E0,4.694512E-1,0E0,0E0,0E0,8.788025E0,0E0,0E0,0E0,0E0,0E0,0E0,0E0,0E0,0E0,0E0,0E0,0E0,0E0,0E0,0E0,0E0,0E0,0E0,0E0,0E0,0E0,0E0,0E0,0E0,0E0,0E0,0E0,0E0,0E0,0E0,0E0,0E0,0E0,0E0,0E0,0E0,0E0,0E0,0E0,0E0,0E0,0E0,0E0,0E0,0E0,0E0,0E0,0E0,0E0,0E0,0E0,0E0,0E0,0E0,0E0,0E0,0E0,0E0,0E0,0E0,0E0,0E0,0E0,0E0,0E0,0E0,0E0,0E0,0E0,0E0,0E0,0E0,0E0,0E0,0E0,0E0,0E0,0E0,0E0,0E0,0E0,0E0,0E0,0E0,0E0,0E0,0E0,0E0,0E0,0E0,0E0,0E0,0E0,0E0,0E0,0E0,0E0,0E0,0E0,0E0,0E0,0E0,0E0,0E0,0E0,0E0,0E0,0E0,0E0,0E0,0E0,0E0,0E0,0E0,0E0,0E0,0E0,0E0,0E0,0E0,0E0,0E0,0E0,0E0,0E0,0E0,0E0,0E0,0E0,0E0,0E0,0E0,0E0,0E0,0E0,0E0,0E0,0E0,0E0,0E0,0E0,0E0,0E0,0E0,0E0,0E0,0E0,0E0,0E0,0E0,0E0,0E0],"parents":[2147483647,0,0,1,1,2,2,3,3,4,4,5,5,6,6,7,7,8,8,9,9,10,10,11,11,12,12,13,13,14,14,15,15,16,16,17,17,18,18,19,19,20,20,21,21,22,22,23,23,24,24,25,25,26,26,28,28,29,29,30,30,31,31,32,32,33,33,34,34,35,35,36,36,37,37,38,38,40,40,41,41,42,42,43,43,44,44,45,45,46,46,47,47,48,48,49,49,51,51,52,52,53,53,54,54,55,55,56,56,57,57,58,58,59,59,60,60,61,61,62,62,63,63,64,64,65,65,66,66,67,67,68,68,70,70,71,71,72,72,73,73,74,74,75,75,76,76,77,77,78,78,79,79,82,82,83,83,84,84,85,85,86,86,87,87,88,88,89,89,90,90,91,91,92,92,93,93,95,95,96,96,97,97,98,98,99,99,100,100,101,101,102,102,103,103,104,104,105,105,106,106,107,107,108,108,109,109,111,111,112,112,113,113,114,114,115,115,116,116,121,121,122,122,124,124,125,125,126,126,127,127,128,128,129,129,131,131,132,132,134,134,137,137,138,138,139,139,140,140,142,142,143,143,144,144,145,145,146,146,147,147,148,148,149,149,150,150,153,153,155,155,156,156,157,157,161,161,162,162,163,163,165,165,166,166,167,167,168,168,169,169,170,170,172,172,173,173,174,174,175,175,176,176,179,179,180,180,181,181,182,182,183,183,184,184,187,187,188,188,189,189,190,190,191,191,192,192,193,193,194,194,195,195,196,196,197,197,198,198,199,199,200,200,201,201,202,202,203,203,204,204,205,205,206,206,207,207,208,208,209,209,210,210,211,211,212,212,216,216],"right_children":[2,4,6,8,10,12,14,16,18,20,22,24,26,28,30,32,34,36,38,40,42,44,46,48,50,52,54,-1,56,58,60,62,64,66,68,70,72,74,76,-1,78,80,82,84,86,88,90,92,94,96,-1,98,100,102,104,106,108,110,112,114,116,118,120,122,124,126,128,130,132,-1,134,136,138,140,142,144,146,148,150,152,-1,-1,154,156,158,160,162,164,166,168,170,172,174,176,-1,178,180,182,184,186,188,190,192,194,196,198,200,202,204,206,-1,208,210,212,214,216,218,-1,-1,-1,-1,220,222,-1,224,226,228,230,232,234,-1,236,238,-1,240,-1,-1,242,244,246,248,-1,250,252,254,256,258,260,262,264,266,-1,-1,268,-1,270,272,274,-1,-1,-1,276,278,280,-1,282,284,286,288,290,292,-1,294,296,298,300,302,-1,-1,304,306,308,310,312,314,-1,-1,316,318,320,322,324,326,328,330,332,334,336,338,340,342,344,346,348,350,352,354,356,358,360,362,364,366,-1,-1,-1,368,-1,-1,-1,-1,-1,-1,-1,-1,-1,-1,-1,-1,-1,-1,-1,-1,-1,-1,-1,-1,-1,-1,-1,-1,-1,-1,-1,-1,-1,-1,-1,-1,-1,-1,-1,-1,-1,-1,-1,-1,-1,-1,-1,-1,-1,-1,-1,-1,-1,-1,-1,-1,-1,-1,-1,-1,-1,-1,-1,-1,-1,-1,-1,-1,-1,-1,-1,-1,-1,-1,-1,-1,-1,-1,-1,-1,-1,-1,-1,-1,-1,-1,-1,-1,-1,-1,-1,-1,-1,-1,-1,-1,-1,-1,-1,-1,-1,-1,-1,-1,-1,-1,-1,-1,-1,-1,-1,-1,-1,-1,-1,-1,-1,-1,-1,-1,-1,-1,-1,-1,-1,-1,-1,-1,-1,-1,-1,-1,-1,-1,-1,-1,-1,-1,-1,-1,-1,-1,-1,-1,-1,-1,-1,-1,-1,-1,-1,-1,-1,-1,-1,-1],"split_conditions":[-4.1E1,-5.4E1,4E1,-6.4E1,-3.8E0,-5.3E0,9E0,-7.4E1,-3.5E0,1.15E1,1.6734375E6,1.067743E-1,3E1,2.88E2,5.7E1,3.48E2,1.2E0,-4.8E0,-3.875E1,1.8381186E1,5.4E0,-4.8375E1,4.18E2,2.81E0,5.9E0,9.5E0,8.061017E0,4.1833147E-1,-2.7708334E1,4.4404E4,1.2E1,4.041452E0,1.7218036E3,-5.85E1,-5E-1,-8.3E0,5.089353E0,4.3E1,5.3E1,3.0307803E-1,-2.7333334E1,1.1135529E1,4.1320983E-2,6.6E0,-9.2E0,4.71E0,-2.4916666E1,9.3E-1,5.1666665E0,-3.3416668E1,2.4073659E-1,-3.45E1,-1.4E0,-3.65E1,1.3439733E-1,3.4E0,6.3334E4,4E0,6.1E0,6.300721E-1,1.0816394E4,3.949E4,-4E0,5.341621E-17,-9.4666664E1,1.32E0,4.2131146E2,6.99E2,4.0365E4,7.6163925E-2,4.8E0,9.3E0,2.9978897E-2,4.65E2,5.2E0,4.8E2,3.49E2,8.674239E-1,1.77E0,-2.525E1,2.2173332E-1,7.0304565E-2,2.9396711E1,-4.20831E-1,1.2E1,4.31E2,5.1672044E0,8.96E0,8.660254E-1,7.7E0,7.283471E-1,7.1E-1,2.32E0,2.29E0,1.6222293E-2,1.795763E1,6.1E0,2.9323485E0,8.2E0,3.48E2,-8.605997E-1,1.9343388E0,-3.4E0,3.02E0,2.39E1,6.256431E0,7.6E0,3.785939E0,1.32E0,0E0,-4.931091E-2,-1.7E0,-1.8666666E1,-5.2675474E-1,9.9E0,2.309401E0,4.1848135E0,1.7094211E-1,-5.5760246E-2,1.10793665E-1,2.0756929E-1,7.10186E3,5.38E2,1.9338511E-1,7.06E0,1.5E0,5.9E0,8.4E0,1.1214723E1,9.355488E-1,2.2180513E-1,1.7E0,1.2139031E0,1.3811775E-1,9.90706E3,1.1757801E-1,-4.7083337E-2,5.4848275E0,-3.6541668E1,3.284306E1,-5.2083332E1,5.7735056E-2,1.97E0,3.4822506E1,5.46E2,4.45E2,4.8511016E3,9.5E0,6.6E0,1.52E0,3.5184E4,1.2889378E-1,-4.9524657E-2,5.2504753E1,6.2312156E-2,2.3E1,3.4417557E1,6.26E2,3.3665042E-2,3.092215E-2,3.0616415E-1,-3.85E1,1.76E0,8.447246E1,1.8726368E-1,5.0776055E3,1.5670374E3,4.333275E3,1.6854773E1,1.8082219E0,8.294806E0,1.4795943E-2,9.1E0,2.2863095E-1,4.5198284E-2,5.3048444E2,1.9156794E3,8.491487E-3,3.0931988E-1,1.5899997E0,1.0396314E1,5.288083E3,4.2791666E2,2.1957362E6,6.936E3,-4.4849645E-2,2.4150041E-1,-3E-1,7.2E-1,-5.5291668E1,4.0253535E3,6.56E0,1.3400002E0,-6.8979603E-1,1.13E1,-3.9E1,9.9375E4,2.669525E1,-9.358349E-1,-3.7E0,-4.8375E1,-3E0,3.86E2,4.7E1,4.3848003E3,7.7E0,4.5941666E2,7.9E0,6.2E0,2.96E0,6.936E3,3.86E0,4.82E2,3.0398595E-1,1.1846446E-1,4.8407894E-2,6.022181E0,2.0140615E-1,-2.1823967E-2,1.9761525E-1,1.0822015E-1,4.381026E-2,1.8981381E-1,1.7013167E-1,2.0996432E-1,2.0517378E-1,1.10752456E-1,2.288272E-1,1.6049735E-1,2.1414876E-2,1.695029E-1,1.8547344E-1,1.2205737E-1,1.8968037E-1,2.5990123E-2,2.8308406E-2,1.8621722E-1,9.203284E-2,2.0124558E-1,2.7929008E-1,1.8334745E-1,6.698156E-2,2.51654E-1,1.894981E-1,1.3922235E-1,5.722324E-2,1.9311598E-1,1.626153E-1,5.2147474E-2,1.22037746E-1,2.172815E-1,2.3490235E-2,1.7800875E-1,-3.162715E-2,5.1191088E-2,-4.8139285E-2,1.4523421E-1,2.1413527E-1,6.5435775E-2,3.0958334E-1,2.2981536E-2,4.4701215E-2,1.4266126E-1,-7.2162137E-3,1.9105993E-1,1.3351119E-1,1.0461106E-2,2.4581929E-1,1.8396746E-1,3.6774483E-2,1.4546104E-1,-6.1028445E-4,1.2769331E-1,1.9288823E-1,4.767904E-1,-3.0771857E-2,6.29241E-2,7.471561E-2,6.758752E-4,-4.363544E-2,7.49233E-2,1.9735129E-1,4.4314817E-2,-4.999806E-2,3.35341E-2,1.393364E-1,-4.5657784E-2,3.417869E-1,1.8164639E-1,7.9748794E-2,-4.953987E-2,2.553578E-1,2.5539512E-2,4.265504E-1,1.2078811E-1,1.5537886E-1,-2.3626653E-2,2.756811E-1,3.278498E-2,3.3158556E-1,8.760963E-2,4.779708E-1,2.4825013E-1,-1.8739188E-2,1.5839607E-1,-4.762804E-2,1.511863E-1,-3.4876786E-2,4.1181277E-2,1.3176884E-1,-3.504016E-2,-5.111239E-2,-4.1615706E-2,-4.42719E-2,-1.3267972E-2,1.7441146E-1,-0E0,-4.1092593E-2,6.168263E-2,1.0143741E-1,-1.1271098E-2,1.8223509E-1,-6.3322424E-3,-2.4036795E-2,1.15033686E-1,-4.2736005E-2,-4.3761192E-4,1.3063373E-1,-5.850689E-3,7.436402E-2,2.812275E-1,2.0268989E-1,-1.0475679E-2,2.0210776E-2,3.7160358E-1,1.937386E-1,-4.6405878E-2,1.176426E-2,-4.295648E-2,2.8757924E-1,1.03230536E-1,1.9792263E-1,1.7171843E-2,3.0781853E-1,5.342381E-2,-5.0486173E-2,3.951075E-2,-2.0869175E-2,2.552924E-1,-3.8588922E-2,7.3413405E-4,2.381469E-1,8.8845834E-2,-1.6235977E-2,1.6336763E-1,1.5276994E-1,6.1939854E-2,4.342673E-2,-2.0717492E-2,1.2195714E-1,2.6347086E-1,5.729453E-3,1.1560279E-1,2.290437E-1,4.4132795E-2,-4.0801894E-4,-4.8996624E-2,2.7302167E-1,1.8702178E-1],"split_indices":[9,9,8,9,3,3,0,9,3,36,20,23,8,45,8,43,3,33,78,12,39,78,45,48,62,2,15,0,78,4,0,73,85,78,26,31,69,8,8,0,78,73,53,33,2,7,78,48,76,78,0,76,3,76,23,5,4,9,7,28,52,4,33,18,72,46,86,42,4,0,40,37,23,45,36,43,45,61,49,76,0,0,79,28,39,45,75,49,26,36,23,49,49,50,0,71,48,59,0,44,28,59,3,48,5,22,40,73,46,3,0,3,76,28,36,73,19,0,0,0,0,84,43,0,7,5,31,0,15,54,0,34,61,0,54,0,0,77,78,79,76,0,48,71,44,42,83,40,0,48,4,0,0,12,0,8,69,45,0,0,0,74,50,24,0,84,81,83,69,59,22,0,39,54,23,52,86,0,0,21,69,85,68,20,25,0,0,34,21,78,82,49,21,28,39,9,4,69,28,60,78,33,45,8,25,2,68,37,40,48,25,46,42,0,0,0,75,0,0,0,0,0,0,0,0,0,0,0,0,0,0,0,0,0,0,0,0,0,0,0,0,0,0,0,0,0,0,0,0,0,0,0,0,0,0,0,0,0,0,0,0,0,0,0,0,0,0,0,0,0,0,0,0,0,0,0,0,0,0,0,0,0,0,0,0,0,0,0,0,0,0,0,0,0,0,0,0,0,0,0,0,0,0,0,0,0,0,0,0,0,0,0,0,0,0,0,0,0,0,0,0,0,0,0,0,0,0,0,0,0,0,0,0,0,0,0,0,0,0,0,0,0,0,0,0,0,0,0,0,0,0,0,0,0,0,0,0,0,0,0,0,0,0,0,0,0,0,0,0],"split_type":[0,0,0,0,0,0,0,0,0,0,0,0,0,0,0,0,0,0,0,0,0,0,0,0,0,0,0,0,0,0,0,0,0,0,0,0,0,0,0,0,0,0,0,0,0,0,0,0,0,0,0,0,0,0,0,0,0,0,0,0,0,0,0,0,0,0,0,0,0,0,0,0,0,0,0,0,0,0,0,0,0,0,0,0,0,0,0,0,0,0,0,0,0,0,0,0,0,0,0,0,0,0,0,0,0,0,0,0,0,0,0,0,0,0,0,0,0,0,0,0,0,0,0,0,0,0,0,0,0,0,0,0,0,0,0,0,0,0,0,0,0,0,0,0,0,0,0,0,0,0,0,0,0,0,0,0,0,0,0,0,0,0,0,0,0,0,0,0,0,0,0,0,0,0,0,0,0,0,0,0,0,0,0,0,0,0,0,0,0,0,0,0,0,0,0,0,0,0,0,0,0,0,0,0,0,0,0,0,0,0,0,0,0,0,0,0,0,0,0,0,0,0,0,0,0,0,0,0,0,0,0,0,0,0,0,0,0,0,0,0,0,0,0,0,0,0,0,0,0,0,0,0,0,0,0,0,0,0,0,0,0,0,0,0,0,0,0,0,0,0,0,0,0,0,0,0,0,0,0,0,0,0,0,0,0,0,0,0,0,0,0,0,0,0,0,0,0,0,0,0,0,0,0,0,0,0,0,0,0,0,0,0,0,0,0,0,0,0,0,0,0,0,0,0,0,0,0,0,0,0,0,0,0,0,0,0,0,0,0,0,0,0,0,0,0,0,0,0,0,0,0,0,0,0,0,0,0,0,0,0,0,0,0,0,0,0,0,0,0],"sum_hessian":[5.799404E3,1.0679092E3,4.7314946E3,7.6099054E2,3.0691867E2,4.3458574E3,3.856371E2,5.67146E2,1.9384453E2,9.938729E1,2.0753137E2,7.5114365E1,4.270743E3,1.7238603E2,2.1325105E2,4.0457513E2,1.6257085E2,7.650921E1,1.1733532E2,6.608885E1,3.3298447E1,1.5674242E2,5.0788948E1,2.2614681E1,5.2499683E1,3.6807732E3,5.8997003E2,1.0678291E0,1.713182E2,1.6906883E2,4.418222E1,8.510574E0,3.9606458E2,1.3163237E2,3.0938484E1,1.3403124E1,6.3106083E1,8.776498E1,2.9570341E1,3.3581617E0,6.2730686E1,3.979566E0,2.931888E1,7.641443E1,8.0327995E1,2.3658936E1,2.7130014E1,1.6035666E1,6.5790153E0,5.1238804E1,1.2608817E0,3.6644248E3,1.6348421E1,4.994977E2,9.0472336E1,6.0070602E1,1.112476E2,2.6304241E1,1.4276459E2,7.5456085E0,3.6636612E1,2.7975667E0,5.713008E0,1.6601088E2,2.300537E2,5.0083553E1,8.154881E1,9.561224E0,2.137726E1,1.3670094E0,1.2036115E1,2.0806985E0,6.1025387E1,6.3979317E1,2.3785658E1,2.0778467E1,8.791875E0,3.9923298E1,2.280739E1,2.484494E0,1.495072E0,1.4250916E0,2.7893787E1,7.256065E1,3.8537781E0,2.0746934E0,7.8253296E1,9.858927E0,1.3800009E1,2.213277E1,4.997244E0,4.081973E0,1.1953692E1,5.2359405E0,1.3430744E0,2.4909983E0,4.8747807E1,1.2126233E2,3.5431624E3,3.0897458E0,1.3258677E1,4.4975388E1,4.545223E2,2.1875233E1,6.859711E1,2.5929811E1,3.4140793E1,1.7637882E1,9.360972E1,2.3962818E1,2.3414226E0,9.361897E1,4.9145615E1,5.111005E0,2.4346037E0,3.3770176E1,2.866436E0,1.1805121E0,1.6170546E0,1.0525681E0,4.6604395E0,1.6287206E2,3.1388166E0,