tree
version=v4
num_class=1
num_tree_per_iteration=1
label_index=0
max_feature_idx=12
objective=binary sigmoid:1
feature_names=Year Day Hour IMF_Magnitude IMF_Bz IMF_By IMF_Bx Proton_Temp Proton_Density Flow_Speed Flow_Pressure Dst_index AE_index
feature_infos=[-1:1] [-1.022099494934082:0.99447512626647949] [-1:1] [-1.5483870506286621:18.322580337524414] [-7.9803924560546875:6.8431367874145508] [-8.8163261413574219:8.0612239837646484] [-19.266666412353516:13.866665840148926] [-0.72141629457473755:104.95501708984375] [-1.0454545021057129:30.113636016845703] [-1.3769230842590332:6.0153846740722656] [-1.1764706373214722:72.323532104492188] [-20.600000381469727:4.3499999046325684] [-0.48756217956542969:10.64676570892334]
tree_sizes=9694

Tree=0
num_leaves=92
num_cat=0
split_feature=12 3 3 11 11 10 12 11 10 12 12 12 12 10 10 11 10 11 3 12 10 7 11 3 10 7 11 7 7 12 3 4 11 10 10 10 10 10 11 7 1 11 12 3 1 12 7 1 1 2 12 5 7 7 1 3 12 11 10 2 7 7 2 7 12 10 11 11 2 3 12 1 5 6 12 10 3 11 7 2 7 10 1 12 10 10 2 1 5 11 10
split_gain=1.26189e+06 165374 73014.7 52722.7 45291.7 27342 23205.6 13734.9 17765.9 10421.4 9497.67 8004.65 7892.57 7533.82 7126.55 5685.06 4226.14 3969.6 3575.15 3326.24 3196.68 3156.24 3116.35 2997.13 2715.35 2650.16 2465 2400.98 2041.06 1956.51 2350.08 1758.93 2400.73 1685.9 1652.86 1426.71 1667.85 1601.35 1408.48 1418.55 1385.11 1384.47 1365.04 1333.4 1211.86 1165.39 1090.09 1703.46 1086.62 1008.27 975.418 975.146 796.459 796.345 787.313 784.239 1177.76 994.613 1469.82 753.166 744.598 714.96 684.885 675.29 628.185 950.212 636.66 627.606 626.141 595.901 554.455 543.236 493.289 469.435 431.15 428.262 409.132 383.954 373.276 303.672 269.418 237.217 233.033 219.92 219.083 171.78 159.651 209.252 140.263 102.832 38.3825
threshold=1.3557214140892031 1.9387097954750063 0.61827963590621959 -1.1249999999999998 -1.0249999761581419 0.4963234961032868 0.092039801180362715 -1.2749999761581419 1.422794044017792 2.669154286384583 2.4004975557327275 2.1517413854599003 0.48009949922561651 0.42279414832592016 0.26102942228317266 -3.4250000715255733 0.3345587700605393 -0.52500000596046437 3.1129033565521245 -0.17164178937673566 1.0919116735458376 1.590167820453644 -0.67499998211860646 0.97580650448799144 1.1801471114158633 1.8450853824615481 -1.8249999880790708 0.45417810976505285 1.590167820453644 2.7885571718215947 2.1774194240570073 -0.89215686917304982 -2.0749999284744258 -0.26102942228317255 0.42279414832592016 1.8713234066963198 61.680149078369148 4.3198528289794931 -3.2250000238418575 1.6378224492073061 0.64917129278182995 -0.72499999403953541 0.30099502205848699 2.5645163059234624 -0.61602210998535145 0.062189055606722839 1.2413362860679629 0.58839780092239391 0.61049723625183117 0.26086955517530447 0.2114427909255028 -0.22704081237316129 2.1271654367446904 2.8854168653488164 -0.53867405652999867 1.8870969414711001 2.2711442708969121 -1.6249999999999998 1.2022058367729189 -0.26086955517530436 -0.28847032785415644 1.1348955631256106 -0.086956521496176706 0.19657019525766375 3.1666666269302373 -0.1580882593989372 -1.6750000119209287 -1.5749999880790708 -0.69565218687057484 0.080645240843296065 -0.10696517676115035 0.16850828379392627 1.3979592323303225 1.8133333921432497 0.28109452128410345 61.680149078369148 1.3919357061386111 -2.7749999761581416 -0.52886316180229176 -0.86956521868705738 2.8854168653488164 0.27573528885841375 -0.69337016344070423 0.55472636222839367 -0.45220588147640223 0.22426470369100573 -0.95652174949645985 -0.40607735514640803 -0.88775506615638722 1.2250000238418581 -0.6360294222831725
decision_type=2 2 2 2 2 2 2 2 2 2 2 2 2 2 2 2 2 2 2 2 2 2 2 2 2 2 2 2 2 2 2 2 2 2 2 2 2 2 2 2 2 2 2 2 2 2 2 2 2 2 2 2 2 2 2 2 2 2 2 2 2 2 2 2 2 2 2 2 2 2 2 2 2 2 2 2 2 2 2 2 2 2 2 2 2 2 2 2 2 2 2
left_child=1 3 4 5 10 15 19 55 11 16 14 25 35 52 38 45 86 27 24 77 31 72 51 -19 26 34 83 -15 49 30 75 63 -33 80 -9 53 37 -37 -2 -40 70 -26 -23 54 -35 -1 47 -16 78 60 -43 -18 79 74 73 56 57 84 -59 -24 -11 -42 -54 -7 65 66 -12 -67 -55 -51 -22 -28 -17 -21 -5 -10 -27 -3 -45 -14 -13 85 -48 -8 -4 -30 87 -6 -88 -38 -47
right_child=2 6 7 12 9 20 18 8 29 28 64 33 13 17 46 21 22 23 -20 43 40 42 59 -25 41 76 71 -29 81 -31 -32 32 -34 44 -36 36 89 -39 39 -41 61 50 -44 48 -46 90 82 -49 -50 69 -52 -53 62 68 -56 -57 -58 58 -60 -61 -62 -63 -64 -65 -66 67 -68 -69 -70 -71 -72 -73 -74 -75 -76 -77 -78 -79 -80 -81 -82 -83 -84 -85 -86 -87 88 -89 -90 -91 -92
leaf_value=-3.5146962024891786 -1.1709528326029961 -2.2112131018784678 -1.978082179946022 -3.5682440246007974 -2.2466276620788932 -3.4814406386188477 -2.6459027564834319 -3.3435357982163345 -1.089539877260389 -1.7901761459904773 -1.6766942167008716 -3.5398006944821501 -3.1460796589076274 -3.2587598828320274 -1.398614014536931 -3.4463546377076542 -2.9413504400456452 -3.2812174755561414 -0.45718939157905414 -3.506305400879111 -2.7165276977840187 -3.5530679399600889 -3.572640532304709 -2.3988855934577682 -0.53773092216564633 -2.2322431430742733 -2.4752499883554657 -1.928488273278983 -3.4883985617141171 -0.26103490111033656 -0.41021281410843091 -1.3101633323897737 -2.9138592931527896 -2.3600018828404461 -2.2774681524586105 -3.1450777577555948 -3.5813422072841621 -1.9922424494398485 -2.9972708959212691 -1.6887469118586478 -1.7378802065921297 -3.51603020359223 -1.8225550722139741 -3.4806600132270917 -0.93095861083557319 -2.5316624758075505 -2.2684232477662221 -3.5423927259951489 -3.532018998663188 -3.4998149127050779 -1.3296908774300191 -1.6239955248636087 -2.1016927953710312 -2.0105998405388696 -3.5639129709418387 -0.18532819350689911 -0.29695311190042606 -2.5337083198440671 -0.85659034697379122 -2.8093374508429578 -3.5601017655808098 -3.5308480915389415 -3.5504454088878563 -0.89219161402527147 -0.35764505733781782 -0.52165254902202518 -3.5214463103594982 -1.316130586782998 -3.3312684258212539 -1.4190400256833562 -0.70906707315592765 -3.5551916791156928 -2.466948655599694 -1.5984990456563748 -3.423277153323947 -2.7772605703040454 -0.95409914239676663 -3.5777253657474151 -1.4719331044068933 -3.4922268723172705 -2.154428289606646 -0.71838121480197703 -0.74407089689611983 -0.86788370011126093 -0.54007597510731964 -2.0254910990212762 -3.0794270428896806 -3.5255814965116694 -3.5811643949244427 -3.2075587591478785 -0.83787504375313748
leaf_weight=1.9413571134209622 6.4615317955613127 1.1879946365952481 4.6071011647582045 2335.4815827459097 1.2459455952048304 0.98516629636287945 2.2021364122629157 23.991696834564209 108.45521768182516 2.3470137938857079 6.8671885207295418 3.6219349130988112 26.425637066364288 17.472213990986347 40.188989348709583 130.04195103049278 8.3449380099773389 127.92674093693495 169.79630607366562 1.6226268410682667 2.4629157260060301 5.621242985129359 17.298361144959927 54.705704599618912 54.155169986188412 7.881330311298373 15.241102024912836 69.686027146875858 1.1300436928868323 323.13453985750675 138.90844558179379 14.835445225238798 25.875102929770947 8.8085456490516645 38.044804073870182 67.396964713931084 83.739135190844536 14.08208282291889 39.928210362792015 10.083466693758963 7.1279678344726545 1.9993080720305432 19.442546434700489 0.86926437914371746 133.57695782184601 1.8544306606054295 3.5639839246869078 3.9116897061467162 2.9265234097838393 1.4197984859347332 49.577044524252415 31.148639939725399 7.0989923700690269 4.7230030819773665 9.2431778982281667 1386.7084651440382 692.68779693543911 10.431172490119936 15.501881204545496 45.491502329707146 7.5915755778551119 2.8395969718694687 5.0996843576431257 16.8347532376647 153.36720948666334 69.541149258613586 2.260087385773657 32.07585521787405 10.894780203700064 11.474289670586584 91.881243549287319 6.1138261333107939 4.3752973452210417 3.535008430480957 223.37196978181601 2.7236950397491446 12.691259756684302 32.771267093718052 23.15140771120787 329.04554283618927 1.1010681986808775 26.222808383405209 66.614625968039036 12.256627567112444 143.89222803711891 0.92721532285213459 4.9548069462180129 2.4918912202119818 77.886088371276855 6.9830904975533477 12.111750170588492
leaf_count=67 49 12 72 80254 14 34 47 770 1104 23 92 125 796 545 517 4314 230 4038 698 56 56 194 597 1250 245 156 352 1274 39 741 502 164 719 188 820 2036 2890 254 1146 145 101 69 323 30 1159 35 65 135 101 49 609 466 129 76 319 2270 1866 244 100 1222 262 98 176 117 479 312 78 382 347 135 590 211 93 35 7361 65 90 1131 306 11066 9 151 443 75 703 3 142 86 2688 212 70
internal_value=-1.92566 -3.13483 -0.594674 -3.3396 -1.54183 -2.15108 -1.16917 -0.386308 -0.755164 -2.65002 -0.933822 -1.51626 -3.45878 -3.14205 -1.54008 -3.02246 -2.99909 -2.74175 -0.788711 -2.75809 -1.22169 -3.20984 -2.56709 -3.01193 -1.20552 -2.32786 -2.03532 -2.18849 -1.39611 -0.454281 -0.716199 -1.87028 -2.28903 -1.07205 -2.67945 -3.53235 -3.25462 -2.92899 -2.48752 -2.70153 -0.877458 -0.941566 -2.20239 -2.16683 -1.01024 -1.27689 -1.08543 -1.58814 -1.75876 -2.19896 -1.41541 -1.87969 -3.43726 -3.55104 -2.99915 -0.256212 -0.37335 -0.693719 -1.46727 -3.01934 -3.03494 -2.21579 -2.67432 -1.03309 -0.551041 -0.845316 -2.10229 -0.747921 -2.86144 -1.64024 -0.75186 -2.77841 -3.40649 -2.12164 -3.55553 -1.12336 -1.35855 -3.49212 -1.5453 -3.46591 -3.059 -0.817247 -0.801961 -1.0607 -0.573671 -2.60146 -3.51291 -2.94989 -3.54553 -3.54882 -0.977658
internal_weight=7840.62 4109.01 3731.61 3722.36 674.839 338.231 386.649 3056.77 802.939 239.975 434.864 229.718 3384.13 637.461 170.752 175.389 188.862 269.791 311.342 75.3073 162.842 159.481 102.283 182.632 141.545 82.6091 35.8137 87.1582 51.1127 573.222 250.087 58.5305 40.7105 147.109 62.0365 2746.67 172.201 81.479 56.4732 50.0117 104.312 105.732 25.0638 41.348 142.386 15.9075 114.279 44.1007 26.9472 22.8327 51.5764 39.4936 367.67 2574.47 14.4008 2253.83 867.12 174.432 25.9331 62.7899 9.93859 9.96756 12.1987 17.8199 264.111 110.744 9.12728 101.617 15.6178 12.8941 94.3442 21.3549 134.417 5.15764 2558.85 111.179 20.5726 33.9593 24.0207 355.471 4.723 28.2801 70.1786 14.4588 148.499 2.05726 86.5787 3.73784 82.8409 90.7222 13.9662
internal_count=144909 123975 20934 119679 9950 6975 4296 10984 5729 6107 3843 3317 112704 19274 2500 5096 5445 7107 2306 1990 1879 4924 2515 5288 1608 1836 685 1819 662 2412 1671 1034 883 1481 1590 93430 5392 2290 1340 1291 845 923 517 847 1347 172 1160 652 437 469 678 696 12167 88038 410 5255 2985 1119 344 1819 285 199 305 151 1343 864 170 694 423 184 646 563 4407 91 87615 1169 246 1143 336 11862 134 193 508 122 775 42 2930 100 2830 3102 105
is_linear=0
shrinkage=1


end of trees

feature_importances:
Flow_Pressure=19
AE_index=16
Dst_index=15
Proton_Temp=13
IMF_Magnitude=9
Day=8
Hour=6
IMF_By=3
IMF_Bz=1
IMF_Bx=1

parameters:
[boosting: gbdt]
[objective: binary]
[metric: auc,binary_logloss]
[tree_learner: serial]
[device_type: cpu]
[data_sample_strategy: bagging]
[data: ]
[valid: ]
[num_iterations: 1000]
[learning_rate: 0.1]
[num_leaves: 127]
[num_threads: 12]
[seed: 42]
[deterministic: 0]
[force_col_wise: 0]
[force_row_wise: 0]
[histogram_pool_size: -1]
[max_depth: 7]
[min_data_in_leaf: 20]
[min_sum_hessian_in_leaf: 0.001]
[bagging_fraction: 0.8]
[pos_bagging_fraction: 1]
[neg_bagging_fraction: 1]
[bagging_freq: 5]
[bagging_seed: 400]
[bagging_by_query: 0]
[feature_fraction: 0.8]
[feature_fraction_bynode: 1]
[feature_fraction_seed: 30056]
[extra_trees: 0]
[extra_seed: 12879]
[early_stopping_round: 0]
[early_stopping_min_delta: 0]
[first_metric_only: 0]
[max_delta_step: 0]
[lambda_l1: 1]
[lambda_l2: 1]
[linear_lambda: 0]
[min_gain_to_split: 0]
[drop_rate: 0.1]
[max_drop: 50]
[skip_drop: 0.5]
[xgboost_dart_mode: 0]
[uniform_drop: 0]
[drop_seed: 17869]
[top_rate: 0.2]
[other_rate: 0.1]
[min_data_per_group: 100]
[max_cat_threshold: 32]
[cat_l2: 10]
[cat_smooth: 10]
[max_cat_to_onehot: 4]
[top_k: 20]
[monotone_constraints: ]
[monotone_constraints_method: basic]
[monotone_penalty: 0]
[feature_contri: ]
[forcedsplits_filename: ]
[refit_decay_rate: 0.9]
[cegb_tradeoff: 1]
[cegb_penalty_split: 0]
[cegb_penalty_feature_lazy: ]
[cegb_penalty_feature_coupled: ]
[path_smooth: 0]
[interaction_constraints: ]
[verbosity: -1]
[saved_feature_importance_type: 0]
[use_quantized_grad: 0]
[num_grad_quant_bins: 4]
[quant_train_renew_leaf: 0]
[stochastic_rounding: 1]
[linear_tree: 0]
[max_bin: 255]
[max_bin_by_feature: ]
[min_data_in_bin: 3]
[bin_construct_sample_cnt: 200000]
[data_random_seed: 175]
[is_enable_sparse: 1]
[enable_bundle: 1]
[use_missing: 1]
[zero_as_missing: 0]
[feature_pre_filter: 1]
[pre_partition: 0]
[two_round: 0]
[header: 0]
[label_column: ]
[weight_column: ]
[group_column: ]
[ignore_column: ]
[categorical_feature: ]
[forcedbins_filename: ]
[precise_float_parser: 0]
[parser_config_file: ]
[objective_seed: 16083]
[num_class: 1]
[is_unbalance: 0]
[scale_pos_weight: 30]
[sigmoid: 1]
[boost_from_average: 1]
[reg_sqrt: 0]
[alpha: 0.9]
[fair_c: 1]
[poisson_max_delta_step: 0.7]
[tweedie_variance_power: 1.5]
[lambdarank_truncation_level: 30]
[lambdarank_norm: 1]
[label_gain: ]
[lambdarank_position_bias_regularization: 0]
[eval_at: ]
[multi_error_top_k: 1]
[auc_mu_weights: ]
[num_machines: 1]
[local_listen_port: 12400]
[time_out: 120]
[machine_list_filename: ]
[machines: ]
[gpu_platform_id: -1]
[gpu_device_id: -1]
[gpu_use_dp: 0]
[num_gpu: 1]

end of parameters

pandas_categorical:[]
