tree
version=v4
num_class=1
num_tree_per_iteration=1
label_index=0
max_feature_idx=12
objective=binary sigmoid:1
feature_names=Year Day Hour IMF_Magnitude IMF_Bz IMF_By IMF_Bx Proton_Temp Proton_Density Flow_Speed Flow_Pressure Dst_index AE_index
feature_infos=[-1:1] [-1.022099494934082:0.99447512626647949] [-1:1] [-1.5483870506286621:18.322580337524414] [-7.9803924560546875:6.8431367874145508] [-8.8163261413574219:8.0612239837646484] [-19.266666412353516:13.866665840148926] [-0.72141629457473755:104.95501708984375] [-1.0454545021057129:30.113636016845703] [-1.3769230842590332:6.0153846740722656] [-1.1764706373214722:72.323532104492188] [-20.600000381469727:4.3499999046325684] [-0.48756217956542969:10.64676570892334]
tree_sizes=13233 13304 13320 13380 13345 13386 13412 13449 13494 13512 13444 13473 13533 13517 13543 13516 13534 13535 13474 13535 13525 13557 13549 13585 13553 13519 13570 13575 13540 13574 13560 13589 13593 13603 13575 13571

Tree=0
num_leaves=127
num_cat=0
split_feature=12 11 3 10 11 3 6 12 12 10 12 10 12 3 11 10 11 11 11 12 3 3 3 7 12 12 10 7 7 5 10 3 3 12 10 11 11 10 11 3 1 10 6 2 11 11 11 1 10 11 11 5 12 7 2 2 10 3 12 10 6 10 11 10 1 4 10 7 10 12 10 5 12 12 2 10 10 7 12 6 10 2 1 6 7 4 12 3 5 11 11 10 11 12 5 7 5 11 5 1 2 12 11 11 3 10 11 4 11 10 12 11 1 4 5 6 10 11 4 10 7 6 10 5 10 5
split_gain=33551.3 9195.31 5190.85 3792.86 2422.91 1925.68 1727.83 1540.58 1250.22 963.266 884.215 852.641 607.136 594.231 585.066 476.995 512.306 451.609 399.561 365.486 361.489 343.317 329.904 310.491 309.667 300.297 283.198 232.948 213.546 212.737 193.916 183.19 181.864 179.983 178.971 176.779 173.143 343.767 170.348 166.288 213.649 157.597 156.132 147.564 143.991 140.501 133.975 126.298 121.511 116.259 112.953 154.288 128.615 112.856 108.766 154.044 125.745 167.503 108.601 102.97 102.916 102.761 101.295 100.848 154.71 100.052 99.2123 98.3513 97.0033 96.834 143.172 91.1024 90.9801 90.4973 88.7972 87.1514 86.0742 85.652 92.8737 85.3585 84.3909 83.933 82.6947 90.8593 79.4106 77.6506 77.5534 76.5643 76.4398 75.8238 75.2563 99.8841 74.7669 92.0759 73.5964 81.2342 71.6786 70.6194 84.5975 69.8016 68.7018 68.1725 66.741 66.5228 65.543 64.8209 80.1591 63.3904 63.3061 92.5797 63.1478 62.4841 62.144 69.796 62.142 61.6285 61.2805 61.1485 64.4114 62.6312 60.8505 60.5281 60.239 59.3263 59.1811 59.0411
threshold=3.1666666269302373 -2.2250000238418575 2.5645163059234624 1.2757351994514468 -1.8749999999999998 2.2419356107711796 -3.2499999999999996 1.6442785859107973 1.7537313699722292 0.90808814764022838 2.1915422677993779 1.422794044017792 2.0472637414932255 4.1451616287231454 -5.4749999046325675 1.4522058367729189 -1.3249999880790708 -3.5249999761581416 -4.2249999046325675 0.36069652438163763 4.1451616287231454 3.2096775770187382 2.8161290884017949 1.0392003655433657 4.7039799690246591 4.3606965541839608 2.3198528289794926 2.1271654367446904 1.6857413649559023 -0.88775506615638722 4.6727938652038583 2.3387097120285039 0.88248854875564586 0.70398011803627025 0.45220588147640234 -1.3249999880790708 -1.0249999761581419 1.2022058367729189 -2.0249999761581416 1.0362904071807864 0.54419890046119701 0.56985300779342662 -3.8166666030883785 -0.26086955517530436 -5.0750000476837149 -0.97499999403953541 -2.9250000715255733 -0.68232044577598561 1.7830881476402285 -1.5249999761581419 -2.9250000715255733 -1.3979591727256773 2.2711442708969121 0.071069717407226576 -0.52173912525176991 0.52173912525177013 0.18749999254941943 1.3258066773414614 1.7835820913314822 0.58455887436866771 -0.81666666269302357 2.0183821916580205 -2.2749999761581416 0.062500027939677252 0.22375690191984179 -0.99019613862037648 5.878676414489747 1.590167820453644 3.0992646217346196 2.231343269348145 -0.12132349982857703 -0.82448977231979359 3.7437810897827153 4.7039799690246591 -0.26086955517530436 0.64338234066963207 5.1874997615814218 1.6857413649559023 2.7885571718215947 -1.283333361148834 1.9154409766197207 0.69565218687057506 0.4337016642093659 -0.91666668653488148 2.1271654367446904 -1.1666666865348814 2.4502488374710087 2.9516130685806279 -0.25170068442821497 -0.27500000596046442 -1.9750000238418577 4.6727938652038583 -3.4250000715255733 0.64427861571311962 0.086734686046838774 1.971468508243561 1.3979592323303225 -1.7749999761581419 -0.27551020681858057 0.42265193164348608 0.34782607853412634 0.28109452128410345 -4.0750000476837149 -3.0249999761581416 4.6290326118469247 0.84926468133926403 -1.0749999880790708 -1.3823529481887815 -1.4250000119209287 0.71691167354583751 2.3109452724456792 -0.77500000596046437 0.63259667158126842 1.0245097875595095 -0.27551020681858057 -1.9833333492279051 2.47426450252533 -2.8749999999999996 0.598039209842682 -0.18014705926179883 1.909870505332947 -1.083333373069763 0.76102948188781749 -0.30952382087707514 -0.47426468133926386 0.65714284777641307
decision_type=2 2 2 2 2 2 2 2 2 2 2 2 2 2 2 2 2 2 2 2 2 2 2 2 2 2 2 2 2 2 2 2 2 2 2 2 2 2 2 2 2 2 2 2 2 2 2 2 2 2 2 2 2 2 2 2 2 2 2 2 2 2 2 2 2 2 2 2 2 2 2 2 2 2 2 2 2 2 2 2 2 2 2 2 2 2 2 2 2 2 2 2 2 2 2 2 2 2 2 2 2 2 2 2 2 2 2 2 2 2 2 2 2 2 2 2 2 2 2 2 2 2 2 2 2 2
left_child=1 3 4 6 9 10 46 19 14 17 36 23 34 26 107 28 39 29 79 -7 48 38 50 97 27 72 42 32 105 -2 121 101 -13 -33 92 63 37 84 116 123 86 67 -9 -34 -36 87 69 -35 -21 -50 51 -10 -52 71 56 73 57 -19 -39 -15 -46 -45 80 -30 -65 -61 -47 85 -49 70 -1 -40 100 75 -31 -56 81 -18 -79 -14 -11 111 -66 -84 -3 -20 -41 120 -69 -32 -23 104 93 -8 95 -54 -55 98 -6 115 -25 -16 -76 -43 -92 -12 125 -5 109 -44 -68 -29 113 -103 -75 -63 -4 118 -87 -120 -28 -22 -77 -17 -95 -107
right_child=2 5 21 8 11 7 12 13 22 62 15 24 18 59 31 16 77 54 41 20 30 90 -24 25 -26 -27 45 76 35 74 89 33 43 47 44 -37 -38 58 53 40 -42 103 108 61 60 66 -48 68 49 -51 52 -53 94 96 55 -57 -58 -59 -60 65 -62 99 -64 64 82 -67 110 88 -70 -71 -72 -73 -74 114 102 122 -78 78 -80 -81 -82 -83 83 -85 -86 117 -88 -89 -90 -91 91 -93 -94 124 -96 -97 -98 -99 -100 -101 -102 112 -104 -105 -106 106 -108 -109 -110 -111 -112 -113 -114 -115 -116 -117 -118 -119 119 -121 -122 -123 -124 -125 -126 -127
leaf_value=-2.5483805056232556 -2.7209402086000694 -3.5513863067085487 -0.97429931261523928 -1.6855819907391856 -1.7012692364643494 -3.5131002485813512 -3.4952465681114155 -1.5705421887546482 -2.2241774273031782 -1.0281076793971407 -3.5196344709743954 -3.2183181760038275 -1.0272986793831871 -2.5483805056232547 -3.5186218544362862 -3.238619317530512 -3.3377738907332248 -3.4336868078521281 -2.2032610996696302 -3.4387885729836167 -1.9331676515320053 -0.19807366507828794 -0.40077218152839134 -3.143160758436955 -0.88897075918868129 -1.3034855055762349 -2.5333753140600539 -1.2036048893211841 -3.3920057201765692 -0.20156854513858002 -0.62557238673875482 -2.8168067102538545 -1.4472852580569131 -2.7993764372258947 -1.7431018917314529 -3.3166402015648355 -3.5767516203637495 -3.2873171478184471 -3.2550535749568756 -2.1046555551114494 -2.9366398373210871 -1.8846893403278142 -3.3920057201765696 -3.090711000693243 -2.6059004066155254 -2.7554521491954311 -2.2032610996696249 -1.9104325127998807 -2.1750880869387164 -3.123121189641648 -2.5010111753943245 -0.83125266373127227 -2.3656702318830987 -0.79623582924329384 -3.0264030368509514 -1.8713141901264401 -0.85911183437654559 -1.2369267629994667 -2.8354709849121136 -1.9047794512772998 -3.2406983500964976 -0.95425753526601031 -1.3197554204283346 -2.9899849067897257 -1.0845981976130381 -0.73650362436670225 -2.3936718064026623 -1.340462584785556 -0.51601067056299676 -0.27836976505501942 -0.4201441689092138 -1.5443967792127058 -2.3287590654709445 -2.7209402086000698 -0.78371335442639856 -1.3404625847855551 -2.7209402086000694 -3.1366928608499065 -2.3735797675428447 -2.167864237520539 -0.45556282715568175 -0.30510436692467024 -1.3404625847855569 -2.9366398373210867 -3.3376070541218628 -3.1841267797483601 -0.78708146834266568 -1.1186001095296496 -2.8441971392977932 -1.9682861849777931 -1.387524321961048 -0.23405037158127229 -3.5063211471781321 -3.3098344330447529 -0.77462727967553446 -0.91690695020610269 -1.9908799267750856 -3.2933251333470364 -3.2961392185227845 -2.9200475581887013 -2.5302163263625368 -2.7966242888530575 -1.8581416937159958 -2.6174043868139796 -0.27059242632930625 -3.2002727168689979 -3.4614893426286319 -0.45812900918712351 -3.2687487894788445 -2.1457411986773542 -1.073779407457752 -2.1046555551114459 -3.4111790205073262 -1.802477273400896 -1.3651139709250995 -2.1868268422432653 -0.28259657957986484 -3.3967282079427656 -3.1131213517291929 -1.7986383478619237 -1.4684907515102879 -2.9911094405334646 -2.7209402086000694 -2.3605307023826727 -2.5828924462186169 -2.4938879678411023
leaf_weight=0.57950958609580994 0.69541150331497181 247.2767403870821 3.5639839544892311 0.57950958609581027 0.63746054470539093 49.54806961119175 4.5201747715473122 0.69541150331497448 0.9561908170580854 4.5781257301568967 67.07823459059 2.4629157409071905 1.5646758824586871 0.57950958609580938 1.5357004031538979 1.1590191721916201 13.009990207850935 0.66643602401018076 0.86926437914371746 14.48773965239525 0.66643602401018176 13.734377190470697 5.592267505824565 5.4473901093006116 2.1152099892497054 1.6226268410682667 1.3328720480203635 1.680577799677849 1.5646758824586893 1.4487739652395251 0.60848506540060054 2.0862345099449158 1.8254551962017993 0.63746054470539126 0.86926437914371391 14.226960338652132 3449.212080962956 28.338018760085106 0.60848506540060043 0.60848506540060121 0.92721533775329579 1.8834061548113821 1.0431172549724599 1.8254551962018029 3.4770575165748587 5.0707088783383352 0.72438698261976142 0.95619081705808628 1.4197984859347332 14.545690611004828 1.4777494445443142 4.723003126680851 0.98516629636287711 1.5067249238491061 4.6650521680712718 3.7957877889275551 1.1010682135820387 0.72438698261976242 6.5484583228826514 1.072092734277249 9.6198591291904432 0.60848506540059832 3.6219349130988112 2.6947195753455162 0.84028889983892474 2.3180383443832393 0.84028889983892419 0.57950958609580994 1.0431172549724577 2.0572590306401253 0.69541150331497215 0.63746054470539293 3.5060329958796492 0.57950958609580994 1.5357004031538966 0.57950958609580971 0.57950958609580983 5.592267505824565 2.2311119064688683 1.1300436928868318 5.8820222988724709 0.57950958609580983 0.57950958609581005 0.92721533775329557 18.68918415158987 2.7526705339550981 1.6805777996778486 1.2169701308012006 0.8113134205341328 1.3618475273251529 1.9123816341161721 2.9554988890886307 24.542230971157554 1.8254551962018011 1.2459456101059911 0.63746054470539093 0.75336246192455281 14.806469924747946 0.69541150331497437 0.75336246192455281 2.7526705339550972 3.3032046407461166 0.9272153377532949 3.6219349130988112 0.72438698261976231 4.1724690198898342 10.634000904858111 1.5357004031538952 7.3018207848072052 1.3908230066299436 0.63746054470539093 1.4197984859347337 1.1590191721916197 0.89823985844850529 0.81131342053413369 1.2169701308012031 1.9993080720305441 5.8820222988724682 0.63746054470539093 0.84028889983892419 0.89823985844850529 2.8685724511742583 0.69541150331497192 2.2890628650784519 2.8975479304790497 1.6516023203730581
leaf_count=20 24 8534 123 20 22 1710 156 24 33 158 2315 85 54 20 53 40 449 23 30 500 23 474 193 188 73 56 46 58 54 50 21 72 63 22 30 491 119039 978 21 21 32 65 36 63 120 175 25 33 49 502 51 163 34 52 161 131 38 25 226 37 332 21 125 93 29 80 29 20 36 71 24 22 121 20 53 20 20 193 77 39 203 20 20 32 645 95 58 42 28 47 66 102 847 63 43 22 26 511 24 26 95 114 32 125 25 144 367 53 252 48 22 49 40 31 28 42 69 203 22 29 31 99 24 79 100 57
internal_value=-3.48052 -3.52584 -1.71751 -2.58701 -2.14444 -3.54977 -2.97584 -3.13699 -1.62818 -1.48517 -3.56146 -2.6227 -3.09489 -2.43607 -2.32413 -3.30695 -2.93641 -1.96513 -2.64074 -3.33697 -3.09429 -0.562183 -1.01615 -2.93558 -2.01079 -2.57839 -2.65363 -2.194 -3.40457 -1.1093 -2.34857 -2.6026 -2.49086 -2.1228 -3.29055 -3.11814 -3.57041 -3.49765 -1.06977 -2.17325 -1.65604 -2.81183 -3.01813 -2.20326 -2.98945 -2.27329 -0.970692 -1.5737 -3.2291 -3.03881 -1.35941 -1.06578 -1.7431 -1.6157 -2.25466 -2.3884 -1.65749 -2.28954 -3.2025 -1.31653 -3.07217 -2.51659 -0.863971 -2.69067 -2.47301 -1.10596 -2.54533 -3.00989 -1.18291 -0.702742 -1.38752 -2.37983 -2.75511 -2.65615 -0.822783 -2.82616 -1.58815 -3.18054 -2.91906 -1.5056 -0.70615 -1.40976 -1.87945 -2.32273 -3.53636 -3.11022 -1.13732 -1.75664 -2.21764 -1.55362 -0.32399 -0.633236 -3.41503 -3.17262 -1.35266 -1.79651 -1.19445 -3.23056 -2.53338 -2.1102 -2.9374 -2.9312 -1.1882 -2.36674 -1.08067 -3.476 -3.29816 -0.794417 -3.12153 -2.67985 -1.82431 -1.61624 -2.76291 -2.58408 -1.93004 -1.77597 -0.725719 -3.18819 -2.89823 -2.36567 -2.10466 -2.79166 -2.09345 -2.65569 -2.86386 -2.99995
internal_weight=4198.81 4093.57 105.239 101.733 76.843 3991.84 72.3807 109.904 29.3522 32.3077 3881.93 44.5353 68.3242 24.3974 13.7344 131.867 27.4977 18.2256 20.5726 85.5066 35.9586 28.396 15.6178 29.4681 15.0672 13.3287 20.4277 12.952 104.37 4.6071 5.50534 11.6192 8.69264 4.723 47.7516 20.8334 3750.06 300.852 9.06933 6.66436 3.21628 17.8779 10.4312 6.22973 13.9662 9.99654 4.05657 2.63677 30.4532 15.9655 10.0255 5.67919 4.34632 3.50603 13.6185 11.1266 2.49189 1.39082 34.8865 3.96964 13.0969 4.40427 14.0821 6.60641 5.04173 3.39013 6.54846 12.3725 1.99931 3.33218 1.27492 1.24595 11.7061 7.3308 3.91169 5.93997 4.2594 20.8334 7.82338 2.69472 10.4601 3.67989 2.34701 1.50672 265.966 10.9817 2.28906 3.44808 1.39082 1.97033 19.3266 5.59227 33.7854 9.24318 2.86857 1.62263 2.26009 16.1393 1.33287 2.57882 8.20006 6.89616 2.46292 5.50534 2.63677 83.5363 16.4581 2.11521 9.73576 2.43394 1.47775 3.10038 5.36046 4.20144 1.39082 1.82546 5.56329 10.1124 4.23042 1.47775 2.23111 3.53501 1.27492 3.44808 4.723 5.82407
internal_count=144909 141277 3632 3511 2652 137766 2498 3793 1013 1115 133973 1537 2358 842 474 4551 949 629 710 2951 1241 980 539 1017 520 460 705 447 3602 159 190 401 300 163 1648 719 129422 10383 313 230 111 617 360 215 482 345 140 91 1051 551 346 196 150 121 470 384 86 48 1204 137 452 152 486 228 174 117 226 427 69 115 44 43 404 253 135 205 147 719 270 93 361 127 81 52 9179 379 79 119 48 68 667 193 1166 319 99 56 78 557 46 89 283 238 85 190 91 2883 568 73 336 84 51 107 185 145 48 63 192 349 146 51 77 122 44 119 163 201
is_linear=0
shrinkage=1


Tree=1
num_leaves=127
num_cat=0
split_feature=12 11 11 10 10 12 11 10 12 7 6 10 10 11 8 7 6 7 6 10 2 12 10 11 1 6 7 12 8 10 8 4 12 5 8 10 4 12 10 8 10 8 5 12 6 11 5 11 2 8 5 5 11 10 8 10 6 7 8 10 8 7 10 8 1 10 10 8 6 10 1 7 11 11 7 11 2 8 11 1 2 2 5 8 12 4 6 10 5 10 11 8 10 11 12 12 6 2 2 6 7 7 12 11 10 4 5 6 10 11 12 11 6 6 5 11 1 4 7 10 2 5 4 2 8 6
split_gain=6016.77 602.577 454.931 411.995 235.681 239.397 126.098 101.574 95.9617 79.9082 76.1888 81.8246 71.2375 66.5943 62.1061 59.9538 55.4732 52.387 48.8611 59.233 47.1515 54.2549 50.8586 45.419 45.218 43.3157 41.7245 39.9916 38.9738 47.0315 38.5499 37.0459 36.1807 31.8188 30.347 60.3303 34.9372 29.7245 28.2007 28.1274 27.9977 28.1474 28.1573 26.9504 26.6776 26.6424 30.1745 26.5053 28.9946 26.3712 26.2784 25.9048 25.1388 24.7243 28.1702 24.5594 24.3091 36.8551 24.1611 38.5494 23.7527 23.4863 32.4259 27.464 23.4839 23.0775 56.9065 31.0482 37.1505 26.4663 22.8595 22.7393 22.6782 22.6612 22.5807 22.1433 21.7356 38.8567 22.388 20.9061 25.1492 43.2061 20.6099 20.5822 32.009 20.2732 20.0438 22.223 24.478 19.6409 22.1229 19.5616 23.9264 19.5253 18.6599 17.8961 17.8241 24.5192 17.7649 17.4878 28.6864 17.3688 17.3034 16.6916 17.4461 16.0321 15.4913 26.6743 15.4579 24.7714 32.2849 19.2135 28.9034 22.3989 44.2667 15.384 15.2683 25.0709 27.7186 20.7845 15.2231 15.1573 15.0178 14.9589 17.594 14.9566
threshold=1.6442785859107973 -2.1249999999999996 -1.3749999999999998 0.83455881476402294 1.7830881476402285 0.42039801180362707 -0.77500000596046437 0.24632355570793155 3.2562189102172856 1.3938882946968081 -1.6166666746139524 2.253676295280457 61.680149078369148 -0.87499999999999989 0.38731063902378088 2.0429557561874394 2.3166666030883794 2.1271654367446904 -1.2499999999999998 0.80514705181121837 -0.52173912525176991 2.5597015619277959 0.84926468133926403 -3.2250000238418575 0.87569060921669017 -1.6833332777023313 1.2413362860679629 1.097014904022217 0.38731063902378088 0.67279410362243663 2.1929105520248418 -0.41503271460533137 1.9776119589805605 1.8469386696815493 -0.57386356592178334 0.30514702200889593 -0.77941179275512684 0.8383084535598756 3.4154411554336552 0.25189399719238287 0.36397059261798864 0.72776684165000927 0.55102041363716137 0.99751242995262157 -0.5833333134651183 -1.4250000119209287 0.94897958636283886 -2.4750000238418575 0.95652174949646007 0.045177448540925987 2.4591835737228398 -0.14795918762683866 -0.97499999403953541 -0.069852963089942918 -0.12092075124382971 1.8272057771682741 -2.8500000238418575 1.3300862312316897 -0.35245594382286066 0.58455887436866771 0.97994649410247814 87.155647277832045 4.6727938652038583 0.54545462131500255 -0.91436463594436634 61.680149078369148 4.3198528289794931 0.93360075354576122 -1.083333373069763 2.3198528289794926 0.72099447250366222 -0.28331689536571497 -2.1750000715255733 -3.1249999999999996 0.17986252158880237 -1.6750000119209287 1.0000000180025095e-35 0.50087419152259838 -0.22500000149011609 0.48895028233528143 -0.52173912525176991 0.34782607853412634 -0.1326530650258064 0.20454552769660952 3.7437810897827153 -0.37336599826812739 -1.0500000119209287 7.0257351398468026 1.1122448444366457 -0.20955879241228101 -2.0749999284744258 0.59291455149650585 5.878676414489747 -6.5750000476837149 1.8781094551086428 0.85323384404182445 -0.95000001788139332 0.52173912525177013 -0.34782607853412623 -2.5833333730697627 0.55246850848197948 2.8854168653488164 3.1666666269302373 -0.47499999403953547 2.0772057771682744 1.5196078419685366 -0.27551020681858057 1.2033332586288454 0.54044109582901012 -2.5249999761581416 3.7437810897827153 -4.0750000476837149 -3.4166666269302364 -2.3166666030883785 0.2066326439380646 -1.8749999999999998 -0.48342540860176081 0.34313726425170904 2.429383516311646 2.3198528289794926 0.6086956560611726 -1.4591835737228391 -1.0130719542503355 0.69565218687057506 1.001336991786957 -2.3833332061767574
decision_type=2 2 2 2 2 2 2 2 2 2 2 2 2 2 2 2 2 2 2 2 2 2 2 2 2 2 2 2 2 2 2 2 2 2 2 2 2 2 2 2 2 2 2 2 2 2 2 2 2 2 2 2 2 2 2 2 2 2 2 2 2 2 2 2 2 2 2 2 2 2 2 2 2 2 2 2 2 2 2 2 2 2 2 2 2 2 2 2 2 2 2 2 2 2 2 2 2 2 2 2 2 2 2 2 2 2 2 2 2 2 2 2 2 2 2 2 2 2 2 2 2 2 2 2 2 2
left_child=1 7 9 8 15 52 12 25 17 20 14 13 26 49 55 50 65 -4 19 -17 89 22 23 -22 32 -1 38 30 108 -30 73 34 40 45 35 36 -19 -35 -7 96 72 42 79 -18 60 46 95 -34 53 101 99 -40 106 -49 70 83 -16 103 59 -10 -28 62 63 82 -24 66 67 68 -8 -70 102 -68 -11 121 -52 -66 -71 -78 -79 80 -42 -82 -13 84 -5 -84 -73 -88 -89 90 -2 -59 98 -27 -44 -20 97 -15 -93 100 -3 -12 -55 -58 -105 123 107 -6 109 111 -111 -23 -113 114 -114 -31 119 118 -118 -46 -112 -9 -120 -51 -125 -25
right_child=2 4 3 10 5 6 16 27 58 24 11 61 -14 39 56 18 43 31 33 -21 21 28 64 125 -26 93 44 -29 29 115 -32 -33 47 37 -36 -37 -38 -39 51 -41 41 -43 94 -45 116 -47 -48 48 -50 105 74 -53 -54 54 -56 -57 57 91 -60 -61 -62 -63 -64 -65 75 -67 71 -69 69 76 -72 86 -74 -75 -76 -77 77 78 -80 -81 81 -83 85 -85 -86 -87 87 88 -90 -91 -92 92 -94 -95 -96 -97 -98 -99 -100 -101 -102 -103 -104 104 -106 -107 -108 -109 -110 110 120 112 113 -115 -116 -117 117 -119 122 -121 -122 -123 -124 124 -126 -127
leaf_value=0.42407656954082062 0.21623827709700613 -0.0093191044512499349 -0.061914237059298709 1.0725879255796074 0.060323919537943249 0.12857139101402673 0.77591761161637662 0.38123300904613555 0.21386830381561184 0.55926549481475085 0.25996216001673272 0.12228631962433117 -0.10341324095573066 0.15836243901836089 0.31032487900176836 0.019362411005846326 0.21389954418139978 0.7939308306123416 -0.079250278081892195 0.96225681313246114 0.18575878133134033 0.2181585716165885 -0.097665672282957708 0.19816419688233211 -0.0015135602438875748 0.42878027234014254 1.110076556319975 0.32414468498621896 0.00020169970862874114 0.18550079480359949 0.38793057343790471 -0.012115722715004263 0.24756257987487637 0.072274643052516907 0.10239946302266 1.1347034341218287 -0.103356046619132 0.90159643097110109 0.71242462795982175 -0.060274313830168236 0.96219816715723905 0.30102813965171293 1.1355745135151283 0.67198586549485406 0.96443112133351228 -0.056008228127506922 0.61903540896828124 0.096809201204621873 0.67018888705509561 0.05722909191430136 0.03740012137529506 0.19899168668736977 -0.078950831894311249 0.29972716048392739 0.27910753514346764 0.33486075893600364 0.20643505076566418 0.049150935775997426 0.083014786897964973 0.76677413614253132 0.49053171912208254 -0.10611986433894671 0.31246279895846402 0.13859511699457713 0.24977710987088139 -0.094339289830703263 -0.064253852523098051 -0.028648254500316446 -0.031924837776140629 0.022381924707205961 0.73029871512753486 0.54739991902644136 -0.050223473018152054 0.043956684997164874 0.6359401504695702 0.0085941519438247106 1.1759165270521521 0.75371128772100815 -0.012326409366520059 0.1520650457616502 0.11411387912794778 0.84819104068884954 0.67114853365580696 0.30503761135324886 0.48235453206830181 0.23911677132360531 0.1186549741232561 0.7976509878891056 0.17670232557793275 0.28572950298750238 -0.10482753080396466 0.69883949692988023 0.16704527836774175 -0.03549730172560004 0.58573104625007155 0.23446751839792515 0.041059439086701989 0.75489567095624732 0.37438073513540693 -0.098241645437621802 0.7987209814784908 0.59532080878964277 0.44503705827862605 -0.063728423852539282 0.14244851492452118 0.51804525948330704 -0.019509485045409496 0.63632868924566655 0.30587779138335086 0.03346503786256657 0.20308642351443998 0.15353863449693628 0.95727012309449488 0.33796841037538389 0.30601051188888484 0.29022547717105562 0.93219624907533793 0.050841040840099577 0.0637892336659939 0.3699983551203318 0.52754533856576458 0.15543482785938631 0.56987220986970755 0.48265770796553159 -0.10462775947961123 -0.055142324946893445
leaf_weight=2.3717475123703506 16.099955549463633 2.1360178403556342 135.36944765225053 1.8573560640215858 2.3700618892908101 6.8376814126968437 0.90851163491606612 3.8609601575881269 8.5840877220034617 0.9036672376096252 9.9709673710167426 2.4026435725390911 3.4317984133958808 4.4831740539521006 27.310183651745319 1.6334833316504949 4.5377651862800112 0.66841649264097203 4.1209336891770345 1.1251794211566446 15.001099975779651 33.299259692430496 2.4380533806979647 2.5755663290619841 5.4333159253001204 0.9361326470971133 1.3161982074379923 27.463708639144897 13.134073846042154 106.2428717687726 6.6575319096446028 6.5362462848424894 118.40878026932478 1.1393634676933277 2.9139742739498615 1.1259033381938932 1.2369897700846197 0.69630821421742428 2.0357126183807854 27.83708174712956 1.3083285018801669 4.7284560464322558 1.3701048344373705 1.7912945598363874 1.1221721060574057 66.039570175111294 1.1072078943252561 5.2001795582473269 2.2743850424885741 14.378085279837256 2.8230680003762241 1.8997150249779222 171.46098209172487 16.26339574158191 59.622856236994274 4.2852622717618942 15.98195920884609 2.3862550426274565 11.524978656321762 1.4781366772949684 1.1679470650851724 2.1045249849557868 29.690771363675594 34.144787240773439 33.665281344205141 11.612959448248146 1.982054807245732 40.148477036505938 5.6352447494864446 1.5903341583907606 1.8934807628393162 2.5805093199014655 1.8817046172916878 17.162277888506651 0.81148625910282124 4.2920247241854659 0.62537547200918231 0.58361438289284739 1.1017528921365731 1.4153879024088381 1.7907392345368864 1.4518463965505359 2.5338038243353367 1.2095030695199964 1.8182944767177103 1.9010855555534352 5.7141561992466414 1.2178656570613386 1.3261052407324312 96.483265418559313 2.4761922620236865 2.1612494569271803 4.4914293996989718 27.972903918474913 1.1231826208531854 3.2543204687535763 17.775189774110913 0.81415594555437554 7.6984860729426128 3021.3922680802643 0.55311954021453846 1.8274109438061703 16.51795955747366 6.5686944965273169 10.938406404107807 0.95445949025452037 4.7579189725220186 1.2166990377008913 43.778243970125914 12.000731144100429 4.4201728105545035 5.8485227376222637 1.9678002446889884 10.389958813786503 2.222405806183815 16.16097104549408 1.0598088726401313 1.8549983985722063 1.1766710728406908 1.236184775829315 2.1491301544010639 12.925164083018897 1.1687826216220853 1.8429989200085395 0.70534140989184368 24.54735231213272
leaf_count=41 157 77 4846 38 64 174 28 39 149 25 216 30 110 101 214 57 79 21 126 36 152 157 21 51 61 23 34 367 174 541 68 202 608 38 92 30 40 21 32 840 26 34 34 30 30 2405 34 105 26 324 86 38 6407 247 437 42 283 34 254 19 21 53 247 566 283 431 55 1375 208 53 28 57 62 419 26 87 21 21 39 20 42 29 38 27 17 21 154 32 17 818 83 21 38 935 15 99 523 22 77 113780 17 31 146 176 143 20 144 39 323 299 71 32 32 145 21 160 26 45 27 22 20 160 25 42 19 789
internal_value=-0.0160899 -0.0803471 0.187823 0.10431 -0.0874564 -0.000501445 0.118957 0.162399 -0.0150834 0.237332 0.188575 0.146217 0.318812 0.0768041 0.263497 -0.0954462 0.0592446 -0.0438394 -0.00951049 0.403942 0.212389 0.193377 0.123013 0.0461346 0.283709 0.0132425 0.388222 0.230943 0.216453 0.180032 0.167907 0.152192 0.290271 -0.0244478 0.332832 0.554345 0.211412 0.386854 0.251316 0.00739639 0.435593 0.496437 0.60566 0.34355 0.534212 -0.0345792 0.132255 0.279729 0.317153 0.195861 -0.0976918 0.46458 -0.070702 0.309083 0.320789 0.50959 0.234391 0.193103 0.181867 0.29509 0.818791 0.223079 0.232882 0.175228 0.203181 0.0352613 0.058995 0.0113083 0.164896 0.106684 0.39246 0.247178 0.147515 0.124758 0.171036 0.222505 0.30691 0.502732 0.25294 0.487721 0.592115 0.442792 0.358163 0.662862 0.780607 0.485951 0.304129 0.228111 0.473967 0.267601 0.17344 0.314271 0.358354 -0.0204631 0.88788 0.0591773 0.0890414 0.250045 0.445502 -0.0980148 0.156884 0.311905 0.372946 0.132544 0.0650906 0.119291 0.0987896 0.255716 0.258982 0.230585 0.13102 0.264997 0.341346 0.416681 0.611854 0.199328 0.441421 0.346632 0.507763 0.652846 0.309232 0.20737 0.31598 0.0968063 0.320106 -0.0310886
internal_weight=4591.94 3491.65 1100.29 409.512 3392.3 285.469 105.664 99.3504 169.438 690.781 240.074 153.366 24.3077 80.5889 86.7071 3106.83 81.356 147.851 79.1164 2.75866 449.193 334.134 82.5194 42.124 241.588 31.2808 20.8759 68.0696 251.614 135.538 40.6059 12.4815 236.154 76.3577 5.94528 3.03131 1.90541 1.83567 10.7731 50.9096 15.9734 13.188 8.45959 6.32906 10.1028 74.522 8.48246 220.181 101.772 29.6793 3027.72 3.93543 179.806 99.4979 94.2977 9.17042 77.5367 50.2265 21.5872 10.0622 2.48415 72.7776 70.6731 40.9823 40.3954 75.027 63.414 50.5933 10.4448 9.53632 34.6748 12.8207 2.78537 33.9484 3.63455 37.9573 3.90108 2.31074 1.68537 5.9663 4.55091 3.24259 6.83753 4.88515 3.67565 4.43489 10.8386 8.25813 2.54397 115.059 18.5761 16.7374 14.3512 28.909 2.49329 7.37525 23.0725 5.29733 9.85974 3024.08 2.68914 11.7984 32.7814 33.4891 17.5071 17.8809 8.34468 3.58676 116.076 72.298 18.57 53.7279 20.4287 14.5802 4.19021 122.404 7.61862 5.26026 3.40526 2.35836 6.5693 16.7861 2.34545 16.9264 2.54834 27.1229
internal_count=144909 128692 16217 9856 126640 9838 3184 2052 5653 6361 4203 3093 584 2138 1110 116802 2600 5231 2816 93 4416 3358 1383 992 1945 999 474 1053 1975 875 686 385 1884 2723 183 91 61 59 244 1486 287 200 166 109 230 2664 259 1597 989 652 113986 70 6654 963 858 124 986 772 422 168 55 955 902 655 391 2491 2060 1745 370 342 421 315 87 618 112 370 134 81 60 117 97 71 89 82 55 59 260 203 49 1058 240 170 136 958 49 225 646 123 98 113874 94 247 393 602 319 405 247 103 1100 777 390 387 230 198 53 701 175 123 78 52 91 199 52 385 61 840
is_linear=0
shrinkage=0.1


Tree=2
num_leaves=127
num_cat=0
split_feature=12 3 3 12 12 12 10 3 12 8 10 3 8 10 3 8 2 8 7 7 3 7 3 10 8 6 10 6 7 12 3 7 7 7 2 10 8 1 10 6 7 12 1 8 2 10 1 6 10 8 1 7 10 1 12 8 12 6 7 2 3 5 3 6 10 1 8 1 7 6 6 2 2 12 12 10 8 1 3 1 1 3 4 4 1 8 7 6 2 7 1 2 10 12 3 10 4 5 7 4 4 8 2 12 10 8 3 2 1 8 6 10 12 12 1 1 8 10 3 7 1 4 10 1 10 2
split_gain=4714.6 619.087 425.957 193.882 123.326 97.0283 93.294 52.2318 89.8822 54.3134 51.1961 43.4191 43.2139 42.6051 40.4903 46.6927 38.8787 36.6191 36.3662 31.3269 28.8787 29.576 27.8709 27.7287 27.0008 26.8813 24.3894 23.7393 23.568 23.4512 30.6591 27.1591 23.248 21.5542 24.0158 21.2771 30.2752 20.8368 20.7055 20.4582 19.8126 23.6187 19.7982 21.3897 19.9231 20.5865 23.6562 19.8724 19.3282 19.7105 18.6386 18.3017 21.0211 18.1395 18.0933 20.5858 17.6291 17.4675 21.3235 17.7496 23.8747 17.4055 16.9799 16.928 16.7024 16.2075 17.7123 16.1575 26.2 24.4036 17.9127 15.9785 16.4715 19.4539 15.4271 15.0512 19.1362 18.4404 16.7945 14.972 19.712 15.4701 14.9523 14.9081 21.4645 14.8468 17.5334 14.8221 20.6513 15.0985 14.7716 14.6704 14.2654 14.2621 14.7486 14.2405 25.6513 34.0782 14.0562 24.4638 17.9144 13.6544 13.8031 18.8854 13.5002 13.4547 12.8561 19.2288 22.9974 27.458 13.37 12.7516 12.7421 19.4135 12.6285 12.491 12.3557 15.8781 16.9518 11.9187 11.887 15.0046 11.6638 15.4647 13.7752 11.4716
threshold=1.6442785859107973 1.9387097954750063 0.61827963590621959 0.17164178937673572 2.669154286384583 0.97761192917823803 1.047794044017792 1.5967743396759035 2.7885571718215947 0.045938165858387954 0.30514702200889593 3.1129033565521245 -0.16083909571170804 1.0036764740943911 0.9109063744544984 1.001336991786957 -0.78260868787765492 -0.36505676805973047 1.1092658638954165 1.590167820453644 1.0000000180025095e-35 0.29489229619503027 1.8225807547569277 1.1801471114158633 0.45454549789428716 -2.7499999999999996 0.3345587700605393 -0.17000000178813932 1.2413362860679629 0.40049751102924352 0.48387105762958532 1.6857413649559023 2.429383516311646 2.6926945447921757 -0.60869565606117237 1.2022058367729189 1.0000000180025095e-35 -0.70441991090774525 -0.091911762952804552 -0.53888890147209156 3.1155134439468388 2.9278606176376347 0.60497236251831066 1.2526738643646242 0.78260868787765514 2.9816175699234013 -0.66022098064422596 -1.8166667222976682 0.88602936267852794 0.045938165858387954 -0.68232044577598561 4.9014110565185556 3.2463234663009648 -0.67127072811126698 2.116915345191956 1.4166666865348818 0.9477612078189851 -0.88333332538604725 1.971468508243561 0.26086955517530447 0.388440951704979 1.0841836929321291 1.5645163059234621 -2.3166666030883785 3.0992646217346196 0.36740331351757055 -0.090909056365489946 0.69337016344070446 0.45417810976505285 0.11111110821366312 2.2500000000000004 -0.26086955517530436 0.52173912525177013 3.9029850959777836 0.8383084535598756 0.091911762952804579 -0.19128786027431485 0.389502763748169 2.274193644523621 0.63259667158126842 0.54419890046119701 1.1451613903045657 0.22549020498991015 -0.8137255311012267 0.61602210998535167 0.54545462131500255 2.429383516311646 0.18333333730697635 0.52173912525177013 0.17986252158880237 -0.27348066866397852 0.69565218687057506 2.0183821916580205 3.3656716346740727 0.32661293447017675 2.0772057771682744 -0.58333334326744068 -0.77959182858467091 0.73320841789245617 0.20098038762807849 -0.65966388583183277 -0.27561628818511957 -0.43478260934352869 3.5995024442672734 2.9816175699234013 2.0292207002639775 0.080645240843296065 -0.34782607853412623 0.72099447250366222 -0.45661149919033045 -0.84999996423721302 0.68749994039535534 -0.11194029822945593 -0.097014926373958574 0.3453038632869721 0.57734805345535289 0.045177448540925987 1.5477941036224367 2.0161291360855107 -0.6128772199153899 0.2569060772657395 1.2843137383461001 0.58455887436866771 0.42265193164348608 0.18014705926179889 -0.086956521496176706
decision_type=2 2 2 2 2 2 2 2 2 2 2 2 2 2 2 2 2 2 2 2 2 2 2 2 2 2 2 2 2 2 2 2 2 2 2 2 2 2 2 2 2 2 2 2 2 2 2 2 2 2 2 2 2 2 2 2 2 2 2 2 2 2 2 2 2 2 2 2 2 2 2 2 2 2 2 2 2 2 2 2 2 2 2 2 2 2 2 2 2 2 2 2 2 2 2 2 2 2 2 2 2 2 2 2 2 2 2 2 2 2 2 2 2 2 2 2 2 2 2 2 2 2 2 2 2 2
left_child=1 5 4 112 10 29 19 8 13 38 -2 28 20 17 -8 16 27 26 48 22 21 -12 -7 119 53 -26 63 -16 104 -1 -31 64 -28 34 -9 -30 -37 -22 114 120 41 115 43 75 45 46 -45 -48 -6 -50 -43 52 56 91 55 -35 -13 -39 83 -60 -61 -25 -33 -4 -32 93 122 68 69 -54 -71 -44 73 -73 -64 76 -36 116 -79 80 81 -18 -24 84 -59 95 -87 -66 89 -89 -55 -15 -14 -20 -95 96 -83 -98 -92 100 -100 102 -52 -104 -5 -53 -21 108 110 -110 -108 -105 -3 -114 -10 -40 -77 118 -118 -11 121 -38 123 -67 -125 -106
right_child=2 3 7 11 18 6 14 33 9 23 12 51 92 24 15 -17 79 -19 65 106 37 -23 82 61 25 -27 32 -29 35 30 31 62 -34 54 42 36 39 57 40 -41 -42 50 71 44 -46 -47 47 -49 49 -51 101 105 67 90 -56 -57 -58 58 59 60 -62 -63 74 -65 87 66 -68 -69 -70 70 -72 72 -74 -75 -76 77 -78 78 -80 -81 -82 85 -84 -85 -86 86 -88 88 -90 -91 98 -93 -94 94 -96 -97 97 -99 99 -101 -102 -103 103 111 125 -107 107 -109 109 -111 -112 -113 113 -115 -116 -117 117 -119 -120 -121 -122 -123 -124 124 -126 -127
leaf_value=-0.099886656350909667 -0.068093085940011511 -0.091959551203231293 0.44561925062874752 0.02366882641151169 0.019534916059467181 -0.083104643228174027 -0.0033402217231998164 0.237440292007705 0.12218515544611259 0.23183503348697451 0.47801666587824726 0.062126678033313378 -0.040091685267644013 -0.051001420503791944 0.83392580273300154 0.014096131517902587 0.016384431006266822 -0.0085996076225141518 0.075256754997385447 -0.070268876692559268 -0.068997707832167202 -0.045288075290430357 0.025292966345974624 0.20204403379789168 0.50757640472426468 0.086195551258270706 0.091302537695797339 0.24390096472531295 0.0032114068733709849 -0.091399269206981701 -0.067038114738967036 0.018869295545111617 0.54323593681539939 0.41714285543333524 0.20499642474135357 0.64478374606353295 0.66981619800784187 0.4061256610286953 0.64956884206237897 0.13346155239776414 0.17555488977411171 0.014304224072929812 0.21702536535438088 -0.064780794749235066 0.25266002615487543 0.17995483462261336 0.17351992511072289 0.0081172630553689191 0.36721118387428775 0.098676014901760631 0.24369224734616146 0.52962269375401982 0.79499933770111397 0.38616003580045266 0.22591065458647419 0.17008887415217866 0.21881832011664423 0.6608175347476325 0.18807162384020062 0.71140630900083579 0.13426469977114799 0.047443267756796428 0.13214779706398289 0.057165824644965557 -0.066395347392029805 0.3992750915439453 0.050765032372069391 0.10955194013552279 0.2395316779470632 0.10603770824425883 0.52072190435124666 0.0041243928188400775 0.18495034279459013 0.16724733034352918 0.56784362726663928 0.27482891890786043 0.054846640940140662 0.42208537664447071 0.25060206222377696 -0.026336344444952288 0.69845092666568531 -0.10462055240417877 0.64069992337951431 0.012149258408069201 -0.10454161911696253 -0.022823148200784037 0.51933526184753032 0.18446592365091055 -0.055263257258592671 0.74503409770625195 0.45399633746580198 0.34006416848224519 0.091109646669619571 0.11098343525816795 0.3020471589898639 0.67829196678043557 0.22043667667287373 1.0719930424875244 0.15618843130698523 -0.033554167427962661 0.44523920823090446 0.26089257232699858 0.63538082158350617 0.5115619190995323 0.24822665967601354 0.22204504012129239 0.38566266633383467 0.0034825519788815058 0.99108006631802137 0.068900405494933134 0.033437502267391998 0.26742120697325011 0.39448424315203501 -0.018189809753351729 0.33023412677545844 0.31650455889467238 0.03379480652453546 0.239224475538347 0.18672349878103534 0.0495566294188221 0.15190514258656992 0.25218891218514033 0.35854622500551986 -0.10997343837687208 0.2215894422072362 0.045336658468658225
leaf_weight=2271.8343597631902 77.722520207986236 36.373879654332995 1.2262076996266849 29.358059635385871 31.004796432331204 213.58874543197453 40.246744332835078 99.014807343482971 13.375407619401814 4.1447281688451794 1.1876314915716637 13.475774059072139 44.260875133797526 3.6262135971337583 1.6993760541081431 14.226760888472198 3.1484715305268764 49.194394242018461 16.512990538030863 9.1829124633222836 2.8714140001684454 11.918821491301058 0.7757862489670504 70.309946002438664 1.5667407754808653 44.898904152214527 1.9642803315073241 1.138930801302197 5.5868443809449699 327.50071287900209 97.789762945845723 21.761218231171373 2.7067136988043785 10.864577358588575 31.431738520041108 1.5694767590612198 1.7956690657883965 4.0154438149184015 3.1224760469049206 15.990526275709264 11.63540021702647 2.2070693969726554 16.409069342538714 7.8729034885764113 20.680487463250756 68.775507170706987 25.651740016415715 10.133301639929412 3.4016205258667496 13.913282312452791 5.3598505482077625 3.1988683380186549 1.7579569388181031 6.8841702621430221 110.64303944632411 4.8911403063684693 15.369516801089047 0.9145841468125615 6.3648066576570255 1.8125510029494765 1.185595294460654 8.1236197967082244 3.7147288154810658 13.179418846964836 2.7292522434145203 2.6210767924785667 3.6969957388937464 5.3402643725275984 17.285850940272212 1.7480460777878759 2.5777271315455437 20.850267566740513 16.221622366458178 11.258832186460493 1.0402538254857061 25.455690819770098 11.628120422363279 8.6654053684324044 16.75193115323782 2.5744558647274962 0.86823784559965211 1.1199628300964821 0.80393949337303638 7.7303837276995164 0.61138133145868778 2.3822569381445651 0.79576006345450867 0.98161306604743026 1.3160962145775554 0.94116558879613876 2.0427897591143802 1.304311469197273 10.196340786293147 8.0062042921781558 8.1556252352893335 1.2739110235124824 1.5232433788478366 0.67962452024221653 5.8688346128910798 4.025394804775714 3.3784320224076474 22.491289114579562 3.4305693227797702 3.4462695159018022 5.9232266154140234 2.5607017427682877 1.4286227785050867 14.029546808451411 0.7311414759606123 0.5782274007797239 4.3870257083326623 5.641394779086113 1.2058694511652017 20.856718083843589 3.7315259780734769 1.761075662449002 9.536385525017975 40.090597450733185 30.210194820538163 26.668566878885031 1.7866585943847892 1.6515383701771496 10.72988182865083 1.9427996948361395 3.5293803717941046 5.2628751918673498
leaf_count=93677 2771 1391 17 913 693 8592 1372 667 177 43 19 250 1343 85 37 472 97 1484 337 349 90 390 28 502 20 846 39 30 178 13328 3890 743 36 120 230 24 33 80 43 324 80 27 94 72 136 392 187 113 33 170 41 39 22 106 599 32 203 28 123 32 20 69 106 328 99 25 40 43 152 24 27 212 144 57 27 165 125 74 103 80 16 34 23 242 17 61 16 25 26 26 25 16 215 81 74 29 38 19 97 101 56 211 43 30 110 13 46 500 27 18 152 32 44 741 43 20 151 252 271 411 33 24 88 39 43 121
internal_value=-0.0159746 -0.0787032 0.153449 0.0960989 0.0440197 -0.0896427 -0.037292 0.185923 0.153819 0.199652 -0.00818089 0.163131 0.0418517 0.0939053 0.0630795 0.148129 0.258965 0.0370071 0.130147 -0.0665964 0.122774 0.00213079 -0.0800094 0.154454 0.146687 0.100404 0.154617 0.597166 0.108212 -0.0957259 -0.0750771 -0.0340443 0.353186 0.203524 0.193677 0.178104 0.22097 0.184768 0.26445 0.18963 0.292496 0.321166 0.182017 0.192619 0.162454 0.145862 0.0921557 0.126683 0.0667988 0.151431 0.297274 0.222916 0.205909 0.225955 0.240188 0.340448 0.145616 0.21696 0.176165 0.282569 0.48318 0.186032 0.0562755 0.090231 -0.0571263 0.185605 0.250877 0.266486 0.302347 0.480825 0.353148 0.131764 0.102817 0.0613223 0.227466 0.215725 0.164449 0.232617 0.309065 0.192145 0.239847 0.203395 0.33848 0.0685342 0.354175 0.279126 0.112931 0.105281 0.249946 0.458854 0.264491 0.0524503 -0.0155261 0.140618 0.207399 0.394028 0.285046 0.483157 0.209802 0.172218 0.261791 0.312744 0.377976 0.435471 0.0592878 0.392874 0.0285358 0.0714255 0.205209 0.583838 0.119962 0.360005 -0.0555922 0.00436562 0.167567 0.529461 0.214163 0.19482 0.150031 0.0740751 0.361238 0.469733 0.29018 0.199542 0.103874 0.15277
internal_weight=4436.13 3237.47 1198.66 190.676 274.307 3046.79 317.184 924.353 327.316 185.449 170.792 132.24 93.0698 141.867 71.6777 31.431 17.2042 68.271 103.515 245.506 38.6126 13.1065 215.168 109.247 73.5958 46.4656 19.0766 2.83831 68.9249 2729.61 457.775 130.274 4.67099 597.037 470.639 28.3807 22.7939 25.5062 76.2023 21.2244 59.0954 47.46 371.624 306.884 133.114 112.433 43.6579 35.785 48.3197 17.3149 42.5764 63.3147 57.5551 27.1301 126.399 15.7557 28.8453 22.6347 18.6193 9.36295 2.99815 78.4336 26.5162 14.4056 103.758 55.195 22.5201 28.7098 23.3696 6.08373 4.32577 64.7398 48.3307 32.1091 4.75498 173.77 43.0599 130.71 25.4173 14.3659 11.7915 10.9232 1.57973 9.25635 1.52597 7.77476 3.17802 5.96813 3.23887 1.92278 22.1996 4.93053 54.4572 32.6748 16.1618 4.59674 3.32283 2.20287 15.3155 13.2727 9.24727 40.3694 17.8781 12.5182 40.5442 5.75957 30.3375 21.1546 7.12502 1.30937 5.81565 9.08766 58.4365 22.0626 17.1069 4.88355 105.293 79.8372 39.7466 30.8133 5.23387 3.44721 18.8231 8.09326 5.47218 11.1861
internal_count=144909 128692 16217 4709 6993 123983 12036 9224 5028 1772 5370 2533 2599 3256 2301 929 457 1904 1623 9735 1041 409 8643 1025 1352 866 420 67 1760 111947 18270 4942 75 4196 3445 616 438 632 747 414 527 447 2778 2271 900 764 372 300 896 203 384 773 721 486 751 152 453 542 462 175 52 571 876 345 4066 727 235 268 225 73 51 507 413 269 133 1371 355 1016 177 390 310 294 51 287 45 197 77 176 77 51 385 101 1558 492 155 120 91 57 279 254 153 357 146 105 1144 52 1092 743 243 45 198 62 2176 785 220 63 839 674 422 454 90 57 195 107 82 231
is_linear=0
shrinkage=0.1


Tree=3
num_leaves=127
num_cat=0
split_feature=12 3 3 11 11 12 10 11 10 10 11 7 11 10 1 11 10 12 7 12 6 7 7 7 7 7 6 10 0 1 11 7 10 3 10 12 3 10 6 5 11 0 0 11 10 0 3 4 6 1 0 10 1 12 1 1 7 1 4 0 11 1 7 3 10 3 12 7 10 11 10 11 4 4 12 11 11 3 10 5 0 4 12 11 5 4 4 12 4 3 10 5 4 4 7 10 4 11 5 5 5 7 0 6 6 1 0 0 1 10 0 11 6 10 1 10 1 5 4 10 12 12 10 4 10 1
split_gain=3810.3 535.854 305.888 174.68 144.958 135.878 90.3409 73.9794 79.8603 55.6949 36.2302 35.1134 39.8396 34.254 33.985 32.5964 36.6037 27.0947 25.8957 24.9905 25.4822 24.1801 22.8495 22.7622 22.5409 22.1916 21.7456 21.3608 20.6803 20.9696 20.5219 20.1795 19.9443 19.5552 19.2891 18.9879 17.6236 17.2404 24.3638 23.1403 26.3967 17.2073 18.9095 20.7346 19.7859 17.1717 17.236 16.6824 25.3537 16.548 16.0118 17.2131 15.8108 15.7026 15.6251 19.6242 30.6777 23.6261 17.3806 15.2513 14.7291 14.167 13.7925 13.7508 13.7153 13.3725 16.2106 14.8287 13.1733 15.8725 13.019 12.9792 16.1304 27.6233 12.7907 16.9695 12.7788 16.5163 12.6825 12.6562 12.6191 19.1443 13.6558 12.585 12.109 12.026 18.7529 11.9078 11.5721 11.5517 11.4367 11.3413 11.1911 13.6552 11.1139 18.859 16.8696 13.6941 11.0634 16.5543 11.042 17.6138 10.8977 10.6714 10.5672 10.3772 10.2744 10.2403 18.6804 10.0927 10.0434 11.8012 15.7245 10.8291 11.7672 10.0986 12.4891 12.0906 9.96999 10.6234 9.95487 22.4689 12.0408 10.0413 9.94818 9.86028
threshold=1.6442785859107973 1.9387097954750063 0.61827963590621959 -1.5749999880790708 -1.0249999761581419 0.17164178937673572 1.0919116735458376 -1.2749999761581419 1.422794044017792 0.30514702200889593 -7.3749999999999991 1.3300862312316897 -0.82500001788139332 0.73161765933036815 0.6270718276500703 -1.1249999999999998 1.2463234663009646 2.5597015619277959 4.9014110565185556 0.79353234171867382 0.65000000596046459 87.155647277832045 1.1092658638954165 2.1271654367446904 1.6857413649559023 2.6926945447921757 -1.9500000476837156 61.680149078369148 0.55000001192092907 0.84806630015373241 -3.6249999999999996 0.12413151562213899 0.13602941483259204 3.0483872890472417 2.4007352590560918 0.22139304131269458 0.13709676265716556 7.0257351398468026 -0.91666668653488148 -1.1122448444366453 -0.22500000149011609 -0.35000000894069666 0.65000000596046459 -2.7250000238418575 2.1948528289794926 0.94999998807907116 1.6612904071807864 -0.44444446265697474 0.37500000000000006 -0.61602210998535145 -0.25000000745058054 1.0036764740943911 -0.52762430906295765 3.2562189102172856 -0.88121545314788807 -0.5939226746559142 2.0429557561874394 -0.32320442795753473 -0.44444446265697474 -0.35000000894069666 -1.1249999999999998 0.89779007434844982 0.97165614366531383 2.4903227090835576 0.98161765933036815 0.75806456804275524 0.74875620007514965 2.0429557561874394 5.1874997615814218 -0.57500001788139332 0.3345587700605393 -1.2250000238418577 -0.18137254565954206 -1.0359477400779722 1.9079601764678957 -1.0000000180025095e-35 -3.4250000715255733 0.79032260179519664 5.1874997615814218 2.3367346525192265 -0.25000000745058054 -0.75490200519561756 1.1169154047966006 -2.8749999999999996 -2.2755103111267085 0.41736692190170294 -0.16470587253570554 3.3656716346740727 0.14705882966518405 2.6935485601425175 2.7610292434692387 3.6428569555282597 -1.0000000180025095e-35 -1.0359477400779722 1.590167820453644 0.43750001490116125 -1.2450981140136717 -3.1249999999999996 1.2551020383834841 -0.77959182858467091 -0.39285713434219355 -0.3225357979536056 -0.15000000223517415 -0.516666680574417 -1.2166666388511655 0.11325966939330102 -0.35000000894069666 -0.25000000745058054 0.72099447250366222 2.47426450252533 -0.45000000298023218 -1.6249999999999998 -2.8500000238418575 1.694852948188782 0.66574585437774669 1.2022058367729189 0.05801104940474034 1.5612245202064516 -0.69607844948768605 -0.069852963089942918 3.1666666269302373 3.5995024442672734 1.2022058367729189 -0.46078434586524958 7.0257351398468026 0.389502763748169
decision_type=2 2 2 2 2 2 2 2 2 2 2 2 2 2 2 2 2 2 2 2 2 2 2 2 2 2 2 2 2 2 2 2 2 2 2 2 2 2 2 2 2 2 2 2 2 2 2 2 2 2 2 2 2 2 2 2 2 2 2 2 2 2 2 2 2 2 2 2 2 2 2 2 2 2 2 2 2 2 2 2 2 2 2 2 2 2 2 2 2 2 2 2 2 2 2 2 2 2 2 2 2 2 2 2 2 2 2 2 2 2 2 2 2 2 2 2 2 2 2 2 2 2 2 2 2 2
left_child=1 3 4 6 9 71 10 28 17 24 -1 34 13 -13 35 -7 -17 33 37 -12 32 25 64 87 30 26 62 36 29 59 -2 83 76 -9 -5 -8 -15 38 39 84 -41 -37 44 -44 103 46 -33 48 102 -19 98 -52 -26 -49 -38 56 -56 -57 80 110 -36 68 74 -47 70 -14 -67 -68 69 92 -11 72 73 -3 105 -76 77 -21 -20 -39 82 -82 -59 -30 -18 86 -69 -6 104 124 -77 -40 93 -28 96 -96 -34 -98 99 -51 -66 -102 -24 -43 -54 -10 -92 -61 -109 -42 111 -4 -113 114 -112 117 -117 -114 119 -106 122 123 -101 -122 -70 -22
right_child=2 5 7 11 23 15 14 8 21 22 19 12 65 27 -16 16 18 49 78 20 125 -23 47 -25 52 -27 61 -29 31 -31 -32 45 94 -35 60 41 54 79 91 40 109 42 43 -45 -46 63 -48 53 -50 50 51 -53 88 -55 55 57 -58 58 -60 107 -62 -63 -64 -65 100 66 67 85 89 -71 -72 -73 -74 -75 75 90 -78 -79 -80 -81 81 -83 -84 -85 -86 -87 -88 -89 -90 -91 106 -93 -94 -95 95 -97 97 -99 -100 120 101 -103 -104 -105 118 -107 -108 108 -110 -111 113 112 115 -115 -116 116 -118 -119 -120 -121 121 -123 -124 -125 -126 -127
leaf_value=0.66149684443798373 0.15361648467833361 0.017135390449396361 0.18836037979196624 -0.098672054305435269 -0.075814801341460777 0.18215107549766629 -0.0052459080560649379 -0.027563782972480924 0.57210878820375755 0.37640396388396569 -0.078080998241665575 -0.053834272486108364 -0.093500854064480027 -0.10273668786210058 -0.026110646801427481 -0.029824095727679495 0.23986786187669532 -0.061971175134567749 0.61548845686306208 -0.10544299561650215 0.47460276246882804 -0.092400847837043498 0.25073834320888655 0.059196636042990497 0.39225691586134354 0.21608744555237666 0.087069250745709509 -0.10325293380068333 0.13625455999236766 0.062235122326855678 -0.042497468565402131 0.091217833556265046 0.55073645860814502 0.21986152036991255 0.18868610836709399 0.15564771239122036 -0.10453665347428709 0.29374942407458576 0.02914835317266104 0.57562952442171555 0.41812245001555315 0.50696672877640148 0.4561969311975167 0.042884221533807651 0.67895991323959681 0.32223787381467517 0.19185029121352679 0.084484957926640555 0.55095130460908293 0.055467178150111832 -0.034146773349197426 0.17673279052764693 0.39390517773909228 0.2266615381515738 0.81072508619069061 -0.10520755850621069 0.21174606670080803 0.76589381902690357 0.086070079594716839 0.23304300910555864 -0.050328732218182008 -0.11484912683002556 0.2765201383833043 0.11452463986842715 -0.00092515828655030273 -0.07556189769832776 -0.068512433321560068 0.10417506329667728 0.10717928917594098 0.049651657297592328 0.013358451176621225 -0.074565773406538 -0.05401832414255784 0.58784035967101411 0.19126276699328038 -0.10190176455593292 -0.10265837696642731 0.42423733032705918 0.21996197374833062 0.026380646610918962 -0.10488255185493366 0.54792658327274557 0.31657932264783578 0.051099514359215996 -0.056496628000518925 -0.011980993739962635 0.50419527895358296 0.0608176690499466 -0.047053757696494357 0.13406945042313345 0.25008365456640796 0.36408758375763084 0.080608485765716067 0.28611885349638483 0.54864258053839732 0.098765619481654257 0.26301130521607463 -0.027759788338963632 0.0041974722135160701 0.094352168611090553 0.0076049272617078447 0.23417600418490581 0.10724948213871813 0.2139968529333745 0.025331999157412577 0.15295378505372687 0.017311732834355217 0.19544533000208894 -0.02084252374776871 0.098211193429009469 0.12014510573339771 0.33833609354696026 -0.063678340801012812 0.18429520808822497 -0.068662438262672099 0.28725626901269524 0.069138530654807295 0.28122947174848395 -0.021138821157483115 0.39878066472031559 0.6590576956204911 0.19271520803975717 0.50959004254090112 0.31396661157064454 0.39194936543217618 0.034234098693956126
leaf_weight=0.77177809178829093 6.1976397894322863 2.4409910347312693 209.30250943824649 2360.8350329156965 92.001851178705692 66.734964126721025 2.8818609472364249 47.377413807436824 1.2986229173839086 1.0362987723201538 44.44131444953382 28.530912443995476 157.18820983730257 2.3658011741936269 6.2686483785510054 19.957264481112361 2.1595572680234909 5.8912384137511244 1.4892518464475863 1.2302277386188518 1.7196734156459563 3.9836965538561335 17.983196925371892 16.914359448477626 1.9771691244095571 46.733124257996678 5.5944260135292998 3.9147351849824181 44.780942045152187 14.028011992573736 38.371135585010052 27.592417735606432 0.60695003531873304 3.4252198897302142 2.7139609567821017 8.2293216753751093 1.6417863164097131 7.5430929344147426 32.387278417125344 2.5554455667734146 1.3356479816138724 2.0787959881126934 1.9178803004324434 3.3061660770326853 2.4040016196668148 11.9677194301039 44.419845435768366 22.558155559003353 2.3624373171478501 5.8582366369664713 10.676667101681234 6.0720843095332375 1.5370376538485278 11.848143722862003 1.301986346021301 2.6763869151473108 2.4910198915749788 1.148443320766096 4.1825779769569396 85.024593461304903 51.565504131838679 2.8199672326445571 13.126723337918518 4.3439591042697421 4.3838377818465259 40.801935866475105 8.6663450822234172 5.749890148639679 1.7673537433147455 37.463904980570078 21.092478673905134 46.379672784358263 5.4721254743635637 1.2996748927980659 23.216982372105118 3.7021940555423516 14.737336734309793 1.1288724429905412 1.7792370691895483 2.3134383410215378 1.0877937003970144 0.76525795646011818 1.6457559484988449 28.337822327390313 3.8126369006931782 5.3619874995201826 1.4719530679285506 6.8537785299122325 4.1897920910269022 12.596727684140204 3.1777975298464298 1.043527204543351 12.458456348627804 8.9764233361929673 1.2253433167934407 3.8899647668004036 1.8762480355799205 11.84464595094323 3.4563131388276807 4.990335939452053 4.6148315537720981 13.377591902390117 7.5006215628236523 3.0934631582349432 1.3874681163579228 1.0834162365645168 4.7020730599761009 139.47770345397294 4.1108927056193343 3.7688957545906305 34.314122339710593 2.7040680125355747 6.4137780256569412 27.603530213236809 3.6522379498928776 3.8300954774022093 8.3442017119377834 1.2077221442013977 3.2324489541351782 1.6890071611851438 2.0692146010696892 5.3810029625892639 0.81195552460849274 1.4230644628405551 4.0104821659624577 0.72190793603658665
leaf_count=8 45 69 1208 106958 3485 747 84 1588 23 30 1780 1123 6930 95 139 634 24 109 19 29 47 66 189 344 36 351 68 136 231 147 1253 252 15 41 61 125 49 80 771 34 34 24 19 66 33 95 251 399 32 113 246 90 18 80 31 76 48 35 123 544 2131 48 92 20 53 1755 329 186 26 622 473 1910 161 36 179 50 599 22 28 13 32 21 36 336 78 159 34 117 67 62 24 12 165 115 34 83 28 421 60 132 41 132 96 56 26 18 35 882 32 59 279 21 137 126 54 40 60 14 60 17 27 63 17 27 38 23
internal_value=-0.0156206 -0.0769751 0.129831 -0.0883335 0.0378167 0.0801269 0.0326992 0.156075 0.113029 0.0979055 -0.0205112 -0.0934871 -0.0593548 0.0195627 0.181142 0.130525 0.0875381 0.03964 0.126453 -0.0268208 0.0316195 0.151325 0.140899 -0.0480003 0.0195557 0.156639 0.13621 0.109741 0.173512 0.1829 -0.0152263 0.142109 0.0107196 -0.0108819 -0.097317 0.235475 0.152929 0.110735 0.0855488 0.198223 0.313264 0.268463 0.340992 0.194622 0.441919 0.174277 0.153292 0.180016 0.237558 0.0946827 0.117336 0.0423054 0.130181 0.133445 0.188632 0.220093 0.417351 0.155067 0.233958 0.186118 -0.038378 0.105571 0.188398 0.266922 0.0861831 -0.0779836 -0.0386759 0.0321481 0.113072 0.09179 0.03036 -0.0530306 0.0553832 0.215424 0.157286 0.141941 -0.068068 0.148019 0.400179 0.230995 0.367058 0.164709 0.501252 0.103252 0.0506694 0.101472 0.185707 -0.0663419 0.0871289 0.187769 0.0430714 0.0396033 0.150196 0.209694 0.0799978 0.206531 0.034823 0.0120014 0.169719 0.197581 0.141389 0.176063 0.208505 0.331745 0.158783 0.381466 0.111184 0.205539 0.189253 0.181919 0.171188 0.180962 0.112145 0.136634 0.101982 0.0812472 0.137759 -0.00902338 0.101501 0.230358 0.25431 0.32091 0.152459 0.518437 0.304842 0.344398
internal_weight=4269.66 3002.95 1266.71 2800.48 281.109 202.473 114.374 985.601 284.145 165.339 84.1943 2686.11 270.993 51.7525 30.1801 146.88 80.1453 97.4327 60.188 83.4225 38.9812 186.712 106.758 115.77 58.5817 182.729 135.996 23.2215 701.456 540.013 44.5688 161.443 36.5396 50.8026 2415.11 23.9115 19.3068 56.9195 47.063 13.6322 7.65999 21.0296 12.8003 5.22405 7.57626 88.3239 72.0123 62.2526 27.8463 46.6301 40.7389 16.7488 14.0129 34.4063 16.941 15.2992 3.79301 11.5062 8.82983 525.985 54.2795 85.6877 50.3078 16.3117 44.505 219.24 62.0521 21.2502 82.8678 64.4932 22.1288 55.5925 9.21279 3.74067 37.1811 34.799 17.0964 2.3591 3.26849 9.85653 4.64725 1.85305 2.7942 73.1188 5.97219 12.5838 7.22184 98.8556 12.0358 18.3746 11.5821 33.4308 27.0293 14.5708 19.4432 5.11531 14.3278 13.7209 23.9901 20.5338 22.3763 17.9924 25.4838 5.17226 7.84596 2.38204 7.87987 228.613 143.589 5.10454 297.372 231.802 22.4999 65.5699 37.9664 19.7958 12.1743 7.6215 6.30892 3.07648 14.6756 8.87328 5.80229 3.49228 5.77784 2.44158
internal_count=144909 128692 16217 123983 6993 4709 3635 9224 4495 3047 3089 120348 11198 1805 546 2533 1786 2513 1152 3081 1301 1982 1525 3946 1522 1916 1565 682 4729 3544 1298 1185 1231 1629 109150 407 546 1105 1012 229 127 323 198 85 113 618 503 796 317 884 775 336 224 479 451 402 79 323 247 3397 2192 1144 421 115 729 9393 2463 708 1096 970 503 2176 266 105 329 288 650 51 47 93 124 53 71 567 102 379 220 3602 188 126 109 783 348 183 581 117 464 449 439 379 226 173 285 80 121 41 59 1458 914 93 1939 1480 272 459 333 251 100 151 103 43 266 117 149 54 64 70
is_linear=0
shrinkage=0.1


Tree=4
num_leaves=127
num_cat=0
split_feature=12 3 3 9 9 9 9 6 12 10 9 3 6 0 12 6 3 6 9 12 9 3 6 0 2 6 10 9 12 10 9 9 6 9 10 4 12 3 6 12 6 2 9 10 3 12 9 5 12 3 10 12 5 9 12 3 9 7 2 9 12 9 5 9 0 12 12 10 12 4 10 6 5 9 9 3 9 4 2 9 9 3 0 3 9 5 5 4 10 5 3 3 10 3 3 4 0 4 12 6 4 7 2 10 6 7 6 6 0 5 3 4 4 12 12 3 0 0 3 4 0 9 7 2 10 4
split_gain=3162.58 357.394 350.032 199.073 171.122 116.513 76.2252 109.137 61.0331 61.6511 58.2874 57.1836 51.0787 47.7304 43.1135 38.2678 37.4988 28.1036 27.3827 24.3916 22.7564 35.9452 23.36 21.9983 21.1812 20.7624 20.6518 19.8439 19.6987 19.5489 19.4913 19.386 18.9747 37.8855 18.4385 18.2842 17.5149 16.9777 16.8707 16.6013 16.3231 15.9461 18.6402 15.7003 15.4085 15.3112 15.2216 14.6697 14.2564 13.5413 14.2627 12.935 14.4163 12.9588 12.8862 13.55 15.6768 13.4623 12.8298 14.6118 12.7462 12.2254 11.8943 11.7145 11.487 10.8634 10.8319 10.5296 10.4517 12.4375 10.3575 10.3436 10.308 10.5817 11.4337 15.5567 17.0594 10.2922 10.2882 10.6796 10.2408 10.0734 9.93727 9.88133 9.85277 9.7434 23.4705 9.72534 9.71143 15.4132 11.737 9.6987 14.3134 9.49076 9.40584 10.6675 9.3932 9.91327 9.30479 9.15933 9.97195 11.018 9.02814 8.92768 8.97687 8.91068 8.87012 8.82147 8.99724 8.73607 11.6866 9.06888 13.9318 15.1724 8.71775 8.57989 8.90276 8.45905 17.2143 8.42574 8.38719 8.32956 8.33606 8.32006 12.887 12.3574
threshold=1.3557214140892031 0.61827963590621959 1.9387097954750063 -0.14038462191820142 1.3038461208343508 0.90384614467620861 1.1192307472229006 -1.9833333492279051 0.40049751102924352 1.047794044017792 0.61153846979141246 0.13709676265716556 -2.8500000238418575 -0.65000000596046437 0.2114427909255028 -0.84999996423721302 1.500000059604645 -1.6499999761581419 -0.37596154212951655 2.992537379264832 1.0500000119209292 0.26478499174118048 -1.2166666388511655 0.35000000894069677 -0.60869565606117237 -2.5833333730697627 2.0183821916580205 0.38076923787593847 2.0820895433425908 0.27573528885841375 2.688461542129517 1.488461494445801 -1.1166666746139524 1.7269231081008913 1.8272057771682741 -0.10588235408067702 0.042288556694984443 1.1451613903045657 -2.7499999999999996 3.1666666269302373 -0.516666680574417 -0.52173912525176991 0.71730768680572521 3.8124998807907109 0.88248854875564586 1.7537313699722292 1.1423076987266543 0.071428570896387114 2.7288557291030888 -0.11290311813354491 0.67279410362243663 0.27114428579807287 1.274489760398865 1.2807692289352419 2.992537379264832 1.9193549752235415 0.62692308425903331 0.44223801791667944 -0.43478260934352869 -0.44230769574642176 1.0771144628524782 0.56538462638854992 0.68367350101470958 -0.20692303031682965 -1.0000000180025095e-35 3.9029850959777836 3.4751243591308598 -0.1360293701291084 2.992537379264832 -1.0359477400779722 2.253676295280457 -2.1833333969116206 -1.7244898676872251 0.080769233405590071 0.40897439420223242 2.274193644523621 0.33461539447307592 0.041176471859216697 -0.26086955517530436 2.3730769157409672 -0.11923076957464217 2.0161291360855107 -0.35000000894069666 0.79032260179519664 1.2115384340286257 1.0714285969734194 -0.27551020681858057 0.41736692190170294 1.9669117331504824 0.31632652878761297 1.2096774578094485 0.388440951704979 0.88602936267852794 3.0483872890472417 3.0483872890472417 -1.421568691730499 1.0000000180025095e-35 0.7549019753932954 0.5398010015487672 -0.81666666269302357 1.2058823108673098 0.15563348680734637 -0.52173912525176991 7.0257351398468026 -1.3500000238418577 -0.45153003931045527 -0.95000001788139332 -1.6833332777023313 -1.0000000180025095e-35 -1.8469387888908384 1.8548387885093691 -0.51960787177085865 1.2058823108673098 3.3656716346740727 2.0472637414932255 1.8870969414711001 -0.35000000894069666 -0.94999998807907093 -0.048387050628662102 1.1450979709625246 -0.35000000894069666 0.057692307978868491 2.8854168653488164 0.52173912525177013 0.71691167354583751 -2.1862745285034175
decision_type=2 2 2 2 2 2 2 2 2 2 2 2 2 2 2 2 2 2 2 2 2 2 2 2 2 2 2 2 2 2 2 2 2 2 2 2 2 2 2 2 2 2 2 2 2 2 2 2 2 2 2 2 2 2 2 2 2 2 2 2 2 2 2 2 2 2 2 2 2 2 2 2 2 2 2 2 2 2 2 2 2 2 2 2 2 2 2 2 2 2 2 2 2 2 2 2 2 2 2 2 2 2 2 2 2 2 2 2 2 2 2 2 2 2 2 2 2 2 2 2 2 2 2 2 2 2
left_child=2 4 8 12 26 14 7 24 -1 20 121 13 18 29 -4 23 19 -12 64 34 -10 117 -23 47 54 80 39 38 -15 -6 48 -24 45 44 61 49 -7 -19 -26 102 82 99 123 72 -34 70 -39 91 -17 -31 -51 52 53 -38 55 56 57 105 59 -14 85 -9 65 -28 66 96 -3 -20 69 -29 -8 115 -27 -74 75 -75 98 -25 -49 -80 -16 -53 -33 -84 -46 86 -45 -65 90 -90 -48 -13 -93 -60 95 -47 97 -30 -77 100 101 -18 107 104 -83 -5 -35 108 -2 -44 -111 -112 113 -113 -101 116 -61 118 -22 -92 -103 -11 -123 125 -125 -43
right_child=1 3 5 6 11 36 32 16 9 10 17 15 58 28 25 30 41 37 67 -21 21 22 31 77 27 43 63 68 62 35 -32 40 33 106 -36 -37 51 46 -40 -41 -42 42 109 60 84 94 88 78 -50 50 -52 81 -54 -55 -56 -57 -58 -59 93 71 -62 -63 -64 87 -66 -67 -68 -69 -70 -71 -72 -73 73 74 -76 76 -78 -79 79 -81 -82 103 83 -85 -86 -87 -88 -89 89 -91 119 92 -94 -95 -96 -97 -98 -99 -100 114 -102 120 -104 -105 -106 -107 -108 -109 -110 110 111 112 -114 -115 -116 -117 -118 -119 -120 -121 -122 122 -124 124 -126 -127
leaf_value=-0.098884670938322081 0.31494973208532723 -0.007799397107842946 -0.070269650131977682 0.41365876575898453 -0.010480978571112798 -0.012841886173905283 0.50703238749198565 -0.04828625346107579 -0.091996732353932742 -0.092633443130203844 0.54751681048981526 0.28665383815328471 -0.085750193008317571 -0.074884604708520111 0.058463591409006491 0.025468260531397498 0.44287557011276779 0.022411765571224967 0.037156474471760972 0.10650190719088348 -0.10214614403596621 0.4045234449255275 -0.054314699447373362 0.2052959299752026 0.15798028527615293 -0.06221483481116661 -0.10458960853874338 0.10270705770184943 0.034600019484384154 0.77003938153371965 0.20214196828972297 0.68363630516639295 0.019136980343900559 0.094476405668799168 0.099593110549705946 0.12693161451329554 -0.032038176214192964 0.026765538948307507 0.078603404852698067 0.019125203102165006 0.062086190116330091 0.31247977272757788 0.073936548744455224 0.13398494387937962 0.20847986259040902 0.095234241360987459 0.40122757580973234 0.30402780033079735 0.13255143591492807 0.080247300454985071 0.57084056748293233 0.41892095447457467 0.68890169392973233 0.37821186675545859 0.18764796564352473 0.23401002961826689 0.17536793633518027 0.29457791067731909 -0.070590275607772451 0.45241366431655161 -0.031677735207624423 0.034167335167683048 0.33430876778153823 0.053579912676568087 -0.069138136241290185 0.18479059854441995 0.18914278320918865 0.17564771363841825 0.17009913156740553 0.2865608617520376 0.22817615546761405 0.025692805846591855 -0.029156050896046955 -0.03287284371313616 0.0096016115098724597 0.38706708259492767 0.51471068615030047 -0.031000197698677446 0.060943480883946022 0.30486020646095469 0.32473218683224525 0.29910265288594634 0.060583436669064211 0.55581681500201741 0.11191632366489486 0.061212724882685511 0.52525684743420176 0.26097451948348283 0.15956766284066268 0.47213307365837975 -0.046920115886028207 0.683831171557155 0.29649594519139078 0.056975932577389615 0.1691473040339421 0.223596088795604 -0.056786890057415031 0.32008697858202467 0.065313345273078416 0.042776801007930403 0.095337215803996317 0.10584226298736543 -0.086660126796215917 0.25083369434180386 0.12542173438824039 0.80039447912287154 0.2024396485977763 -0.041746191388079279 -0.10331865703885988 0.07008725675931024 0.15902861816018746 0.58214221125029753 0.16395661165229186 0.23764453403459918 0.17441450200590689 0.033098941470159647 0.13584299856952828 -0.079328899884649529 0.58740995077790059 0.22914298772866501 0.27422305509706135 -0.029957268327206361 0.31845801946215813 -0.01191062598119208 0.14760766465863301 0.03965654190680195
leaf_weight=1884.4028698019683 1.4225129783153536 6.6379295885562914 49.272537894546986 0.93377292715013016 2.1616206783801299 4.3339827824383965 2.722845632582902 38.389870913699269 340.03480454906821 39.904722359031439 1.2213490922003973 5.0150889717042499 7.4006289187818792 27.179435247555375 2.3018190301954746 31.622258596122265 2.574063383042815 37.077982658520341 6.8531848136335602 40.951572002843022 0.96350353956222534 1.7523472849279667 14.516831025481226 3.4370299633592358 67.152341971173882 15.95116372220218 3.6282833069562939 4.6452646348625448 12.583715204149494 1.1344372592866423 13.564520014449952 0.63440654985606704 15.478578595444558 8.1403142157942039 19.649054614827037 2.3832107186317444 1.0684263110160821 7.8670482952147749 44.532844800502062 22.737851541489363 13.233884148299691 1.7120620347559441 9.4230547677725536 6.7717473264783621 12.848654221743343 6.882091909646987 1.1489131227135638 7.153499253094199 20.487955238670111 1.0751882046461108 1.3202722165733574 1.6930963788181532 1.006856335327029 2.7562422547489405 37.979108046740294 15.260783107951282 1.9557601846754549 1.6488619688898323 51.928825108334422 1.7051081489771607 4.9051588848233214 33.827516317367554 1.3254687525331963 10.589449301362036 10.667626304551957 3.8723551519215098 4.8209923096001148 27.598765064030886 72.417761795222759 17.69781251065433 2.6075214371085167 10.699242347851392 14.428032355383037 2.782778939232232 9.8696818109601718 1.2181740347295997 1.7671196572482584 3.9752618242055178 5.5438700132071919 2.6545351147651672 3.8778001870959988 3.3263922948390237 1.220328718423844 0.60148053616285313 59.490477627143264 6.5374074820429078 1.981727203354241 2.8748941570520392 3.8078545294702053 2.6936795804649591 3.2710147071629763 1.989666795358062 1.8329502400010822 6.570049511268734 67.941603526473045 109.26209474168718 12.670380208641289 1.3464557044208039 3.4281348213553429 8.5780124571174401 5.3243437856435767 4.4959284570068112 111.81214180774987 10.326602943241594 28.244773251935843 1.6459222454577713 116.78547794744372 33.563622731715441 0.80548521503806014 6.5067109018564251 10.152577914297582 2.515360012650488 4.3731446079909801 2.5998268686234951 12.166153114289044 2.1128522418439388 1.8545598424971146 82.672321360558271 0.57994929887354263 1.6700503956526516 8.6492541674524528 26.619555873796347 0.7048826701939096 6.4601070191711214 23.441156271845102 54.818596547469497
leaf_count=93677 38 65 2066 14 83 137 41 1178 16382 1738 23 63 183 1061 37 784 28 1204 45 408 47 41 632 45 358 405 105 33 271 25 156 20 239 61 313 41 26 178 460 307 494 11 66 79 108 40 19 72 210 28 22 32 27 48 183 91 12 21 1118 21 45 755 25 180 98 26 29 170 377 152 16 205 393 84 216 31 33 51 69 19 34 29 48 12 583 76 26 55 58 40 79 30 21 49 287 662 328 19 69 117 48 39 4481 56 347 35 881 1304 31 93 77 28 38 14 91 19 31 3925 27 31 66 985 19 105 212 610
internal_value=-0.0152172 0.103181 -0.080372 0.13116 0.0154071 0.0551186 0.147275 0.123506 -0.0901413 -0.0618413 8.20543e-05 0.0898966 0.0192083 0.0188448 0.00255544 0.138872 0.0818018 0.0728383 0.0923468 0.0423167 -0.0789421 -0.0407323 0.0495624 0.22929 0.170031 0.0498812 -0.0499 0.154888 -0.0123735 0.246864 0.0953644 0.0289706 0.180519 0.160023 0.0137047 0.340939 0.179754 0.0627621 0.12633 -0.0604147 0.106028 0.11382 0.0955593 0.0342931 0.109691 0.20354 0.135891 0.275475 0.0675697 0.485427 0.350641 0.196992 0.352236 0.263608 0.22264 0.284612 0.409479 0.517758 -0.0310895 0.0308578 0.108586 -0.00966397 0.0410574 0.0548877 0.00553834 0.028302 0.075058 0.148099 0.188546 0.248337 0.370621 0.0835689 0.00394775 0.0354571 0.0843528 0.164578 0.250252 0.0785687 0.216389 0.13992 0.225551 0.179785 0.342783 0.224088 0.129068 0.153582 0.222566 0.0978626 0.204071 0.289068 0.11333 0.378113 0.498103 -0.0562632 0.198702 0.21599 0.00552125 0.0621945 0.149671 0.167134 0.213618 0.253681 -0.0726676 0.170121 0.143721 0.660408 0.195405 -0.0289552 0.163734 0.156489 0.18624 0.224719 0.295008 0.407049 0.11998 0.192732 0.287483 -0.0749985 0.156953 0.0463876 0.216633 -0.0635065 -0.0209693 0.0704838 0.113144 0.0479191
internal_weight=4099.7 1455.25 2644.45 1103.49 351.763 177.85 964.638 562.479 2466.6 582.197 125.987 164.329 138.85 67.0525 125.093 97.2766 296.608 58.7579 56.5785 132.818 456.21 116.175 31.9593 31.6019 265.87 75.8207 187.434 206.446 58.9778 8.07473 65.6747 30.2069 402.16 212.744 91.8664 5.91311 52.7564 57.5365 111.685 170.342 15.6901 163.79 122.003 69.6411 87.8177 189.416 20.4586 24.1896 52.1102 3.5299 2.39546 48.4224 4.83152 3.82467 59.4242 21.4451 6.18432 4.22856 82.2713 23.7724 20.196 72.2174 31.7984 17.0926 22.1265 30.4729 11.4589 34.4519 94.7608 22.3431 5.33037 16.3718 49.4451 33.4939 19.0659 9.19621 6.41343 7.41229 15.3519 8.19841 6.17962 43.5909 2.45622 1.82181 72.3391 15.2909 8.75347 13.4643 12.5915 6.50153 6.08998 8.83771 3.82262 58.4989 184.086 116.144 26.6006 13.9302 4.64631 41.7878 21.0436 15.7192 147.604 41.8978 31.5712 2.5797 124.926 35.7916 2.228 35.5707 26.1476 19.6409 9.48833 5.11519 20.7442 5.67252 3.55967 84.2158 1.54345 4.94107 13.1452 67.2292 27.3244 86.4319 29.9013 56.5307
internal_count=144909 20934 123975 10984 9950 4296 8951 6033 119679 26002 4374 3449 2033 1929 3594 1520 4297 1632 407 2654 21628 5246 1247 370 1736 1528 6501 1380 1730 199 1150 1206 2918 1872 2246 116 702 1609 818 6161 574 1643 1254 1457 930 1046 405 274 994 75 50 565 101 74 356 173 82 70 1626 459 226 1933 669 340 192 644 94 215 562 185 57 276 1231 826 433 217 133 96 160 88 71 464 80 60 691 181 105 235 227 98 129 114 51 1167 989 702 618 290 100 389 181 133 5854 432 376 49 942 1373 69 316 250 157 80 42 208 71 52 3999 74 110 105 2742 1004 938 317 621
is_linear=0
shrinkage=0.1


Tree=5
num_leaves=127
num_cat=0
split_feature=12 3 3 9 11 11 9 9 12 11 3 11 12 9 12 9 9 9 7 11 12 11 8 3 9 9 1 7 9 7 9 1 9 3 1 9 3 1 1 8 12 8 9 9 8 0 8 4 11 9 1 8 12 5 3 11 5 3 8 12 9 11 1 8 3 5 11 4 5 4 1 3 0 1 11 9 0 9 0 5 8 7 5 4 11 8 9 7 11 4 3 3 12 12 8 5 12 3 5 0 8 0 0 4 7 0 1 5 5 11 4 9 12 1 1 9 4 4 7 3 8 5 7 11 8 9
split_gain=2658.99 288.339 287.752 156.153 151.884 120.989 86.5817 67.5654 64.6156 60.521 44.3128 44.2142 43.3888 36.6313 30.6011 41.8163 26.4736 26.1451 24.789 23.9716 23.5055 23.3946 23.2975 23.1561 43.3571 22.565 29.8442 30.0566 20.0527 19.8284 19.1339 18.0391 17.9008 17.4734 17.0978 18.1814 16.9863 16.1799 16.1195 23.5357 17.6961 15.9819 20.3536 15.7551 30.0847 18.1367 19.8825 15.7447 15.558 15.1951 15.0291 14.6562 18.2166 14.2494 14.1933 14.0278 14.1855 13.8184 17.0424 13.6948 13.6722 13.3864 12.9481 12.8195 12.4278 12.4255 14.755 16.1673 13.494 12.3997 12.0358 12.858 14.159 26.6566 11.7778 11.5746 11.9567 16.3814 19.4207 24.1168 11.4743 11.3751 12.0881 11.2075 11.1634 11.1301 16.7443 10.9429 12.9659 17.7764 10.9132 11.2879 11.0643 10.7281 10.4181 10.3992 18.4402 12.2761 10.3307 11.8084 10.2417 10.6739 10.0419 12.4498 14.2759 10.0081 9.79337 9.90405 12.3631 12.9214 9.60573 10.4858 9.44686 15.2576 9.31433 11.8687 12.9386 12.2184 14.261 10.7948 9.14874 9.09766 8.86731 8.7499 8.68978 11.4986
threshold=1.3557214140892031 0.75806456804275524 1.9387097954750063 -0.28269231319427485 -0.82500001788139332 -1.5749999880790708 1.3961538076400759 1.6499999761581423 -0.11194029822945593 -1.6750000119209287 1.4677420258522036 -3.8749999999999996 2.4004975557327275 2.0192308425903325 0.40049751102924352 2.8499999046325688 2.0961538553237919 -0.28269231319427485 -0.17237816005945203 -1.5749999880790708 2.1517413854599003 -2.0249999761581416 1.4795454740524294 0.388440951704979 1.7884615659713747 0.24307697266340259 0.69337016344070446 0.14791127294301989 2.303846120834351 0.71622061729431163 -0.49736844003200525 0.60497236251831066 0.35000000894069677 -0.048387050628662102 0.58839780092239391 0.57820516824722301 0.11290327832102777 0.61602210998535167 0.35635359585285192 0.13494328409433368 2.0820895433425908 1.0931817889213564 0.24307697266340259 0.23461538553237918 1.3188921213150027 -0.94999998807907093 5.6931815147399911 1.2058823108673098 -0.82500001788139332 1.0500000119209292 0.87569060921669017 0.13494328409433368 0.65920397639274608 0.071428570896387114 2.0161291360855107 -4.8250000476837149 0.23076923191547397 2.3064516782760625 1.961363732814789 2.992537379264832 1.9423077106475832 -3.6249999999999996 0.50000000000000011 2.079545378684998 1.8870969414711001 -1.8918368220329282 -0.72499999403953541 -1.2843137383460996 2.4591835737228398 1.7549020648002627 -0.70441991090774525 3.274193644523621 -0.74999999999999989 0.16850828379392627 -5.0750000476837149 0.56538462638854992 1.0000000180025095e-35 0.97788459062576305 0.65000000596046459 -0.06802720949053763 -0.41571964323520655 -0.19968868046998975 1.3163264989852907 1.5196078419685366 -2.1750000715255733 -0.63068175315856922 2.3730769157409672 2.8854168653488164 -0.72499999403953541 0.023529414087533954 3.5967742204666142 2.8440862894058232 0.34079602360725408 1.669154226779938 1.819749176502228 0.62244898080825817 1.6990050077438357 0.388440951704979 1.7040814757347109 -0.15000000223517415 1.0931817889213564 0.65000000596046459 -1.0000000180025095e-35 -0.11960783600807189 -0.42501763999462122 -0.45000000298023218 0.76519337296485912 -0.72448974847793568 0.90408161282539379 0.17500000447034839 -0.9379085600376128 1.4423077106475832 0.36069652438163763 0.55524861812591564 -0.17403315007686612 0.061923099681735046 -0.28322441875934595 1.0245097875595095 0.70013663172721874 1.1774194240570071 -0.66477265954017628 -1.2755101323127744 1.0843920111656191 -1.1750000119209287 -0.31980516016483301 1.4423077106475832
decision_type=2 2 2 2 2 2 2 2 2 2 2 2 2 2 2 2 2 2 2 2 2 2 2 2 2 2 2 2 2 2 2 2 2 2 2 2 2 2 2 2 2 2 2 2 2 2 2 2 2 2 2 2 2 2 2 2 2 2 2 2 2 2 2 2 2 2 2 2 2 2 2 2 2 2 2 2 2 2 2 2 2 2 2 2 2 2 2 2 2 2 2 2 2 2 2 2 2 2 2 2 2 2 2 2 2 2 2 2 2 2 2 2 2 2 2 2 2 2 2 2 2 2 2 2 2 2
left_child=2 4 5 30 6 11 19 9 -4 31 12 53 83 17 -13 29 20 -10 -15 33 80 84 37 -7 43 70 27 57 -6 41 -3 32 64 -2 35 63 85 65 39 61 62 -16 -43 -25 48 -46 87 -29 75 -42 -24 -26 -53 60 100 -20 -57 58 59 -27 -1 -37 122 -35 120 -19 67 -67 -68 90 -12 72 73 -72 -55 -45 -77 78 79 -78 -8 82 102 -11 -22 -18 -87 88 89 -47 91 92 -69 -66 -28 96 -38 -97 99 -94 101 -33 103 104 -32 -82 107 123 109 114 -23 -112 -80 -114 119 -116 -117 118 -118 -109 -5 -49 -40 -14 -31 -126
right_child=1 3 8 7 28 23 16 -9 13 10 25 14 106 18 15 -17 36 22 55 -21 21 110 50 24 51 26 94 47 -30 124 81 54 -34 34 -36 38 95 -39 40 -41 49 42 -44 44 45 46 -48 121 -50 -51 -52 52 -54 74 -56 56 -58 -59 -60 -61 -62 -63 -64 -65 93 66 68 69 -70 -71 71 -73 -74 -75 -76 76 77 -79 112 -81 105 -83 -84 -85 -86 86 -88 -89 -90 -91 -92 -93 98 -95 -96 97 -98 -99 -100 -101 -102 -103 -104 -105 -106 -107 -108 108 -110 -111 111 -113 113 -115 115 116 117 -119 -120 -121 -122 -123 -124 -125 125 -127
leaf_value=-0.0030671941823186243 -0.11095109167322324 -0.080591834413251157 -0.089655845144427343 -0.11773395819833579 -0.077330351731969976 -0.098900141105051464 -0.092705154475809737 0.17923049268836633 -0.074333242642109734 -0.046816615576718353 -0.062785109585745499 -0.084046366496155017 0.12894506079581508 -0.04748402256403076 -0.076653343190499962 0.6848445745088293 -0.078576554650037558 -0.036345791058973918 0.15108738259141405 -0.036383073913452406 0.16330514170868882 0.25217882673321407 0.12896022940064217 -0.093274800810182676 0.04263809080271673 0.11136424494440163 -0.059598541198950451 0.1468984373248878 0.049274176142460241 0.010254682901591098 0.13294552224320103 -0.027160267220175168 0.1650001712062118 -0.023503437241516476 -0.054451576654036771 0.29213923671114006 0.48899129065464231 -0.071844958427152203 0.091971644076863812 0.22645282365020072 0.025675382424990813 -0.0011267175819240592 0.50042837778706994 -0.093815488073780956 0.69677711159979183 0.58079175381535986 0.69226302393057604 -0.0070484542507610985 -0.083338954672081689 0.30731133356862661 -0.08460535920115736 -0.0077721009400946095 0.54933741969123573 0.2204633827196803 0.12521411103684418 0.51546849455001842 0.21772359508800876 0.20638049553484583 0.66251212961466255 0.47340490831914733 0.40060473287812592 -0.02063242697098526 0.76398547411609652 0.1714538989893605 0.30434042282408069 0.0050901838978139741 -0.0084554051623565753 0.013801197047865183 0.24035057453908767 0.0081722453798255615 0.018064355037331357 0.15339045726247061 0.016663337713078447 0.4157491180563801 0.53641252449478138 -0.020988116685368617 0.21976936091040047 -0.0035614923648322793 -0.10218375366510356 1.1702249913500196 0.1866879274338929 -0.044275160088466603 -0.092874452261580254 0.38371831785881061 0.37026408255008536 -0.0075086598273029562 0.26701642219647698 0.50592105379376051 -0.034300664028806771 -0.10678568434859113 0.07026509540079727 0.52330301065539064 0.52402050008069878 0.13454804354781333 0.10056130136723447 -0.062224293447442805 0.19946658915410354 0.17130559475651425 0.085600958321366966 0.17663166167028124 0.13794166180524289 0.21123266860099199 0.022639592278228621 0.060454271633907535 0.45972643891481169 0.00026092762656102479 -0.064022548941015153 0.13071302191629827 0.021431967689243988 0.42223479113668988 0.28033059727632875 0.028609083555865812 0.492290804053863 -0.10730877657349383 -0.059577145898468555 0.12869615635611589 0.59224156194654587 0.10529349988691289 0.25434283621602854 -0.07224574580736777 0.08944845371814461 0.11879922652161011 0.5513919288767235 -0.038266592564494689 0.076827091659596849 0.24475583537962187
leaf_weight=3.2314033620059472 6.3919963613152495 29.574940213933587 31.088993582874537 2.2297791820019475 125.329649977386 1659.1470365356654 9.0558223910629767 212.64138397760689 14.373371846973894 47.320101276040077 7.2440160922706118 27.283180935308337 4.9475657362490884 2.6351390406489381 18.23932066932321 1.0066301785409439 3.8682074993848792 12.290044670924535 4.1390604302287093 66.974518632516265 21.290968758985404 2.3781169075518838 52.899033918976784 322.30871992185712 15.549914957955481 2.1925642322748926 9.9811527989804762 84.0368936881423 13.897776326164601 9.6378922723233718 3.5555390138179064 17.480606984347112 231.79293691553175 17.605032753199342 10.521283941343425 1.5237508900463534 2.3413021545857182 12.941007200628517 0.94116017594933354 7.7012515570968381 4.049579631537199 2.7494322825223203 1.1464918833225963 11.70196473225951 0.50017580017447372 0.87522303685545633 0.50252990238368589 11.932094855234029 126.65922901779413 3.6355039086192846 3.5140033941715947 1.0337321758270257 1.3579393103718755 2.8657967988401651 53.158381758257747 3.6939958259463284 2.822963485494256 13.052847214043139 1.6599471140652893 1.9959391988813875 1.1333005074411628 13.421115148812538 0.9127085469663142 4.1721302140504113 3.8694154862314454 6.4949307274073389 19.287708990275878 1.6816623080521731 2.4575601592659941 2.8859299737960091 4.3380335215479127 14.959758535027502 32.530860057100654 2.7565045580267906 2.0055437721312046 18.129662666469816 0.61623448133468628 4.7705850284546614 1.05801222845912 0.47102411091327512 3.9429992195218793 17.233179040253162 4.6297440547496072 0.61245621368288894 2.969888972118496 4.6170441545546037 4.2826632391661406 0.49135774001479227 7.3223222084343407 0.65922802872955799 2.9007994700223199 1.7249025870114563 2.5126304514706117 97.17058689147234 6.8479356579482547 3.0795741844922295 36.413393976166844 8.3663652669638378 1.5468049384653566 1.6025901474058644 7.1984838247299185 2.104266205802559 13.972058482468126 7.6305091027170473 2.1424140408635139 10.677316216751931 4.0162167511880389 8.8582176193594879 9.4688124079257232 1.670579520985483 1.7579994834959531 28.206043230369687 1.1614021677523849 0.66875852271914471 1.8128024134785032 8.7905221842229366 2.1013906393200168 2.096786005422473 3.0794262960553169 3.7215447016060343 48.28528288193047 11.076992765069006 0.75886073708534241 8.5161594878882152 13.873877679929139 5.7746435441076747
leaf_count=59 184 516 1458 32 5207 90461 341 1297 408 1454 103 1269 60 22 743 18 89 252 25 2340 142 28 820 17280 562 55 132 770 291 358 39 186 1323 348 201 10 48 308 25 60 44 56 17 583 20 26 17 120 6410 39 68 34 20 20 284 36 31 90 18 24 24 269 16 28 36 100 536 44 36 43 52 93 507 30 40 739 21 144 53 19 54 300 72 16 30 103 53 14 331 15 33 24 40 478 41 39 299 73 34 18 46 20 183 102 28 232 66 114 133 25 28 428 42 20 35 105 28 21 30 52 403 108 16 173 314 94
internal_value=-0.0146255 0.0908235 -0.07871 0.118492 0.0207595 -0.0884718 0.0629699 0.129298 0.0417316 0.115596 0.0815204 0.0258429 0.0293776 0.0685334 0.00184375 0.0465402 0.117489 0.0533794 0.227143 0.00662591 0.0794157 0.114412 0.0680954 -0.0931468 -0.0746417 0.108792 0.130646 0.147358 -0.0646926 0.0340447 -0.0170343 0.138516 0.147527 0.0468371 0.0622961 0.0847433 0.166029 0.0288266 0.131608 0.0844386 0.23534 -0.0373823 0.146471 -0.0801452 -0.0560445 0.109339 0.0795111 0.126831 -0.0664045 0.158906 0.115657 0.078084 0.308543 0.232967 0.0953052 0.295056 0.386494 0.263614 0.391351 0.283887 0.101747 0.0112572 0.460165 0.013847 0.120803 0.0523489 0.0776429 0.136695 0.0196636 0.194234 0.0583271 0.0744 0.0445788 0.17258 0.35054 -0.0108046 0.0253392 0.121371 0.271293 0.631527 -0.00425006 0.0211997 0.0565373 -0.0413155 0.18864 0.0630426 0.124597 0.0465712 0.0210873 0.285396 0.239095 0.2931 0.239029 0.14105 0.00557221 0.192223 0.216958 0.108473 0.305923 0.388737 0.0359433 -0.00154651 0.0818752 0.143971 0.255814 0.050539 0.086732 0.0977276 0.121855 0.151449 0.0587308 0.0433777 0.135682 0.273191 0.136598 0.18298 0.210345 0.308967 0.391398 0.0706705 0.0803032 0.0535369 0.297049 0.0231793 0.0880306 0.126181
internal_weight=3934.8 1487.37 2447.43 1066.29 421.084 2263.93 281.857 987.549 183.493 774.908 311.618 88.9475 107.013 152.404 79.7115 52.4283 143.248 139.113 13.2912 138.609 80.2792 56.603 124.74 2174.99 515.838 204.606 142.776 125.947 139.227 51.4217 78.7384 463.29 383.348 71.6344 65.2424 54.7211 62.9686 68.3266 32.9439 22.6461 10.2978 22.1352 3.89592 497.896 175.588 10.3508 9.85066 107.046 165.237 7.68508 56.413 17.9416 2.39167 9.23604 79.9417 10.656 6.51696 18.9013 5.84845 4.1885 4.3647 14.9449 2.61273 21.7772 151.555 55.3856 43.0955 21.3503 21.7453 14.8553 61.8292 54.5852 39.6254 7.09454 4.87134 38.5776 26.8757 8.74602 3.97543 1.08726 23.6761 49.1634 31.9303 47.9326 24.2609 12.7679 8.89971 9.34813 8.85677 1.53445 11.9694 9.06859 7.34369 101.04 16.8291 50.2006 38.7547 11.4459 5.66203 4.11522 26.7834 19.5849 27.3005 13.3285 5.69795 14.6203 59.08 55.0638 41.6001 32.1313 32.3422 29.964 2.88817 1.83016 30.4607 17.8809 16.0681 7.2776 5.18082 12.5798 50.5151 23.0091 1.70002 13.4637 29.2864 19.6485
internal_count=145024 20865 124159 9800 11065 119823 5567 8560 4336 7263 4455 3012 2312 2878 2869 1600 1987 2764 114 3580 1283 656 2356 116811 26350 2143 1358 1185 5498 1582 1240 2808 2272 1240 1056 855 704 1468 479 339 140 816 73 25734 8454 423 403 998 8031 83 888 616 54 143 536 92 67 187 97 79 83 279 57 376 949 1160 908 336 572 236 785 682 589 82 60 1621 1038 299 155 40 627 724 424 1470 172 245 156 386 372 41 193 160 136 514 173 459 347 112 92 58 252 206 352 169 67 286 842 776 543 410 484 456 115 62 385 219 184 79 58 166 435 228 41 233 766 408
is_linear=0
shrinkage=0.1


Tree=6
num_leaves=127
num_cat=0
split_feature=12 3 3 11 9 11 9 12 9 6 11 11 9 12 9 6 9 9 3 9 6 8 9 12 9 6 1 12 6 8 9 7 3 9 6 9 1 1 8 9 6 3 4 9 8 3 12 8 12 9 8 7 4 6 11 9 6 11 1 1 9 7 1 6 12 7 11 6 11 7 7 11 8 8 6 9 8 7 7 1 3 11 9 11 8 0 1 12 1 12 3 9 12 7 9 11 11 8 11 1 8 9 11 3 12 8 7 12 12 0 7 1 1 12 3 12 7 3 4 3 3 1 4 9 3 11
split_gain=2241.44 263.26 226.897 133.783 110.668 101.042 67.6242 63.6566 54.6554 65.7799 29.6899 29.0485 27.8241 24.7547 23.8998 23.3293 24.98 21.9425 29.471 21.5313 24.9935 21.6367 19.9138 22.3469 19.1786 18.7342 18.7052 17.7126 17.0948 16.8603 16.7477 16.2167 15.6878 15.4955 15.3744 26.3853 17.9819 19.3972 14.2333 22.606 13.2925 12.9403 12.587 15.2158 12.558 12.5339 14.1426 16.0661 15.0497 13.8104 16.3246 14.6037 29.2669 12.888 13.2017 12.2122 16.3527 12.2094 12.0106 12.5205 11.8911 11.8168 11.7356 12.6862 11.6338 16.5524 11.4653 14.5548 13.7961 11.3881 11.2918 11.1048 11.0293 12.1145 10.9565 10.9413 10.5193 10.535 10.4774 10.457 10.3973 10.3933 10.3887 35.4286 10.1188 10.0848 9.92268 9.73052 9.55432 11.2257 13.574 9.52013 9.40158 11.9651 9.37908 11.5103 10.9988 9.26344 9.24123 9.1922 9.01804 8.85317 8.83049 12.5678 9.21585 8.74722 9.5085 10.4261 12.8619 8.53123 8.48162 8.33239 8.21955 14.0908 8.19896 17.7617 8.18766 11.3687 8.64606 13.4122 9.82939 8.14218 8.11433 11.5401 14.012 11.5448
threshold=1.3557214140892031 1.7580646872520449 0.88248854875564586 -0.82500001788139332 -0.29038462042808527 -1.5749999880790708 1.3961538076400759 0.032338307239115245 1.0346153974533083 -2.1833333969116206 -3.8749999999999996 -1.7250000238418577 -0.28269231319427485 0.40049751102924352 2.303846120834351 -1.7166665792465208 0.45769231021404272 1.7884615659713747 0.32661293447017675 1.6961538791656496 -2.5833333730697627 1.3420456051826479 2.303846120834351 2.669154286384583 2.8499999046325688 -1.2499999999999998 0.73204421997070324 2.6144279241561894 -0.44999998807907099 -0.52072185277938832 0.31923078000545507 0.71622061729431163 1.5645163059234621 -0.49736844003200525 -1.6166666746139524 1.7269231081008913 -0.87016576528549183 0.69337016344070446 1.0931817889213564 0.53153851628303539 -2.8500000238418575 1.8870969414711001 -0.85294121503829945 1.9423077106475832 1.5006684660911562 0.53225821256637584 0.19154229015111926 4.6212117671966562 0.35074627399444586 0.28692311048507696 0.97994649410247814 0.29489229619503027 0.10784314200282098 -2.2499999999999996 -1.1249999999999998 0.21923077106475833 -0.81666666269302357 -2.1750000715255733 0.72651934623718273 -0.8149171471595763 0.70384615659713756 -0.24285589903593061 0.52209943532943737 -0.97222223877906788 0.18159203976392749 1.7342470288276675 -0.57500001788139332 1.8133333921432497 1.2250000238418581 0.85588639974594127 2.3159551620483403 -2.0249999761581416 0.75103312730789196 0.88725489377975475 -0.81666666269302357 0.93461537361145031 -0.25176613032817835 0.91107830405235302 2.2173742055892949 0.61602210998535167 0.048387207090854652 -1.8749999999999998 2.688461542129517 -0.97499999403953541 -0.52072185277938832 0.94999998807907116 -0.41712707281112665 2.6144279241561894 0.759668529033661 2.992537379264832 2.274193644523621 0.45769231021404272 1.4452736377716067 0.021158120594918731 1.5576922893524172 -2.2749999761581416 -1.4750000238418577 -0.57386356592178334 -3.4250000715255733 -0.052486186847090714 3.7840907573699956 1.1653846502304079 -1.6750000119209287 0.26478499174118048 3.3656716346740727 3.0568182468414311 -0.1192793659865856 0.86815920472145092 0.59950247406959545 -0.84999999403953541 0.71622061729431163 -0.70441991090774525 -0.94751381874084462 -0.10696517676115035 1.9838710427284243 2.3557213544845585 -0.14908995479345319 4.8548390865325937 -0.73529416322708119 2.9161292314529423 2.274193644523621 0.40055248141288763 -0.027149324305355545 0.38076923787593847 1.2943549752235415 -1.1249999999999998
decision_type=2 2 2 2 2 2 2 2 2 2 2 2 2 2 2 2 2 2 2 2 2 2 2 2 2 2 2 2 2 2 2 2 2 2 2 2 2 2 2 2 2 2 2 2 2 2 2 2 2 2 2 2 2 2 2 2 2 2 2 2 2 2 2 2 2 2 2 2 2 2 2 2 2 2 2 2 2 2 2 2 2 2 2 2 2 2 2 2 2 2 2 2 2 2 2 2 2 2 2 2 2 2 2 2 2 2 2 2 2 2 2 2 2 2 2 2 2 2 2 2 2 2 2 2 2 2
left_child=1 5 3 6 33 10 15 112 9 30 80 26 -9 -12 -5 16 -2 45 -19 20 110 -22 23 28 31 -16 41 32 29 -8 40 38 -13 -4 114 36 101 44 -15 -40 84 60 43 -25 116 -7 -47 49 -49 -48 53 52 -52 -51 85 56 -23 62 59 -31 -11 -21 63 121 65 -57 67 99 -68 -59 -65 87 122 -74 -24 -62 -71 -78 88 92 -1 -43 97 -84 -6 109 -35 -42 89 90 91 -32 93 -34 95 -61 -97 -20 -88 -66 -81 -36 -44 -104 -105 -58 -107 108 -108 -55 -14 -76 113 -3 115 -10 -38 118 119 -118 -120 -17 123 -29 -125 -126
right_child=2 7 4 14 8 17 22 12 34 11 13 27 19 24 25 57 -18 18 82 61 21 55 74 42 -26 -27 -28 72 -30 58 78 -33 79 86 35 -37 37 -39 39 -41 71 81 102 -45 -46 46 47 48 -50 50 51 -53 -54 54 -56 64 105 69 -60 94 75 -63 -64 70 66 -67 68 -69 -70 76 -72 -73 73 -75 111 -77 77 -79 -80 100 -82 -83 83 -85 -86 -87 98 -89 -90 -91 -92 -93 -94 -95 -96 96 -98 -99 -100 -101 -102 -103 103 104 -106 106 107 -109 -110 -111 -112 -113 -114 -115 -116 -117 117 -119 120 -121 -122 -123 -124 124 125 -127
leaf_value=-0.10749592349567716 0.012335230844199871 -0.041652173098114816 -0.073975692765063827 -0.070208955913762888 0.022218800638950716 -0.098391405338747684 -0.038002961599526458 -0.073776711160001215 0.418113424710917 0.048293562498054804 -0.085714163537234003 -0.047280899793564236 0.35479072876305257 -0.085280686298672415 0.32660476352294715 0.10227108135970703 0.19659362844835598 -0.083917618622623369 -0.10332663886343535 -0.034650837875560843 0.0039584299389787614 0.1644994563905175 0.22406433187040822 0.13647756469943501 0.37555250112598298 0.015344281517475656 -0.034494786075711485 -0.082607707992793378 -0.016847913337794521 -0.10665176410570761 0.54201595556922699 0.073430761313344264 0.46864305640027021 -0.067124619655984569 0.11458580941892103 0.16300449722275734 0.2500688759299694 -0.0085090674929778638 -0.016439443911014952 0.50581050271898931 0.22789814717913434 0.1269866927264984 0.13808533360355052 0.41334040033018016 0.20676716556083125 -0.09485182470475996 -0.087091749244870453 0.64776241727140937 0.069673175839552001 0.44310568325645128 0.73681463986924456 0.038455232397118989 -0.10280531640924923 0.39401702670363103 -0.069806002376913964 0.14218556453970974 -0.09346342098685699 -0.052994794648434734 -0.077353582716519181 0.049051449898163624 0.18216899201650158 0.19043591713292771 -0.063635482461337128 -0.02006364386652551 0.1717458809362159 0.75392890378397437 -0.0004866712781697812 0.082741552636828794 0.19687802041891236 -0.064913266362832442 0.25492887010478993 0.02199162377601787 0.26925174561278625 0.085444687932380789 -0.064932788351670698 0.011774216011435322 0.28536835510174002 0.03425093217991363 0.079409288988070162 -0.098904184107609261 0.2210328809242304 0.29593752834273673 0.67471345132735094 -0.046562015940116594 0.14202845561947602 0.40387741693168877 0.13902901760615477 0.083097900483352916 0.079039911063228066 0.16568098595822231 0.19635746158958989 0.28068060942543338 0.043568087207451291 0.10167095974349205 0.14911533484868039 0.66733432543906612 0.27281768829789665 0.073506330400966033 0.018894007335839742 0.39548809010575514 0.15953811627846209 -0.096277223812948717 -0.049297211707980237 0.014890641579585365 0.18624909507128953 -0.085539432742642155 0.090438056717815199 -0.044345978868029379 0.47632885005908021 0.001986790206397783 0.12981474149187841 0.13584160738751291 -0.079355933146452451 0.50770651704143199 0.15539265631262494 0.18877326847827319 0.02153008577643457 0.28762494284386436 0.1377768379694167 0.24667886482492785 0.029097435642469534 0.29991699927292975 -0.040979752624671018 -0.021464508127744288 0.36962591257898392 0.068229113518409462
leaf_weight=1.0859531834721554 16.824557382613424 1.644081097096205 26.207228776067495 130.38806541822851 7.6250972039997569 1555.2695637289435 7.2746166363358524 14.473149975761769 3.6931118890643111 48.314302420243621 24.327613420784473 34.4332066886127 3.3928280491381875 16.244287274777893 2.2376692406833198 13.055208045989273 13.075964655727146 38.8919528555125 3.7669692393392369 2.65460863336921 61.843154329806566 6.9527825284749296 15.464288515970109 5.6554387882351858 1.617705363780259 14.234331868588923 10.134450394660233 3.3174619283527162 30.135171921923757 1.5245084594935239 2.2133692167699364 29.329636601731181 1.1779238171875466 9.738598680123685 2.8289778996258956 124.95139577798545 3.9107569511979809 12.536651501432059 3.1943416744470587 1.1192409396171568 5.937128625810149 67.037635087966919 29.907595990225669 3.0585629232227802 15.319470427930353 201.81339626200497 81.130317913368344 0.53350844234228079 2.8887140098959208 0.53850066289305587 0.95003873482346424 6.2627185005694628 0.73738252744078636 0.59403234906494518 48.455066012218595 1.2019263952970494 8.0459110792726296 56.260557632893324 2.2607595939189187 1.1060109026730058 15.133289685472848 19.214555146172643 8.4228029288351518 14.757608905434614 3.9023134298622599 0.69984864257276047 12.218922384083273 8.0863563492894155 4.9873944129794827 11.061989448964594 1.6613117083907116 24.603663636371493 3.9126638974994412 42.91652955673635 2.1918044332414857 5.0179419331252566 1.7861233167350317 25.836808647960424 13.115902625024317 8.0115044116973859 8.5308821555227023 3.8502066805958739 1.1348657719790938 1.7028420455753792 93.350060002878308 0.77337929233908731 8.325545888394112 21.255710665136576 9.4073201827704889 66.658290881663561 13.462072189897297 3.7652497757226229 39.611800584942102 3.6158604510128498 12.172616781666873 1.1600439138710497 1.8081295043230086 13.870156122371554 27.730002662166957 3.468128427863121 1.6238168254494656 6.7229189909994602 7.5824507605284515 5.4763614386320096 7.35191984847188 3.4220728874206543 2.4902029726654278 2.3264140617102385 1.3224060200154779 8.470132846385237 3.3111236393451691 36.318383572623134 47.543122598901391 0.65208574198186298 90.105471175163984 39.445676449686289 23.074637651443478 3.17565644532442 44.304865388199694 2.9885024279355994 10.246817745268343 2.4803169481456271 11.943344024941323 3.3767579700797778 2.9612014815211287 2.2264567166566858
leaf_count=23 320 81 460 5611 46 93254 220 464 36 443 1233 1105 36 718 15 142 111 2195 146 21 1427 113 94 45 17 302 76 64 639 38 18 744 18 159 28 762 37 120 61 9 50 367 181 25 81 11908 4586 29 116 8 31 209 30 14 2353 35 228 2148 41 9 104 163 118 215 28 24 184 53 57 348 11 309 36 330 39 36 48 499 69 126 109 29 19 66 486 16 43 115 56 331 72 38 595 56 176 20 36 465 436 30 13 73 129 61 47 58 53 28 14 323 25 333 2333 22 416 199 201 16 387 21 60 25 181 54 26 35
internal_value=-0.0142044 -0.0770469 0.0802808 0.0237349 0.106892 -0.0880445 0.0585632 0.0285422 0.115921 0.0962863 0.0184104 0.0650224 0.0586174 -0.00258072 -0.0558706 0.0129748 0.0929143 -0.0926672 -0.0327958 0.0714311 0.0557266 0.0453107 0.102754 0.079486 0.0366859 0.057628 0.096676 0.0352865 0.0350818 0.0923904 0.133198 0.0256975 0.00547189 -0.0126522 0.14512 0.130501 0.0980382 0.108938 -0.0424029 0.119068 0.111855 0.106215 0.122694 0.233655 0.12323 -0.0945297 -0.0775226 -0.0544129 0.159795 -0.059369 -0.0256895 0.108807 0.369911 -0.0438646 -0.0483632 0.0885642 0.0346481 -0.00468845 0.139743 0.16736 0.0752082 0.163114 0.0413722 0.0690509 0.126874 0.367306 0.112875 0.175385 0.0567211 -0.0242766 0.00776086 0.0706696 0.0726206 0.100802 0.152965 0.139738 0.0174892 0.0504884 0.163217 0.0390843 0.183935 0.136163 0.06431 0.241893 0.132981 0.0572539 0.0224422 0.114713 0.174726 0.185181 0.252043 0.377431 0.059575 0.191843 0.193072 0.324403 0.427006 0.035738 0.0466342 0.277027 -0.0553495 -0.0338261 0.103478 0.0527684 0.113097 -0.0166285 0.0480301 0.122486 0.224285 0.027679 0.243674 0.124415 -0.0704312 0.11436 0.172556 0.208407 0.108638 0.102037 0.0947262 0.0473465 0.117363 0.133826 0.0172289 0.0757387 0.137075 0.240271
internal_weight=3774.94 2267.09 1507.85 482.532 1025.32 2053.23 335.672 213.853 953.315 570.01 85.4497 308.616 164.014 75.8328 146.86 165.223 29.9005 1967.78 59.3668 149.541 127.672 120.968 170.449 116.474 51.5052 16.472 149.488 159.129 57.4419 27.3067 261.394 49.8875 88.4741 72.0014 383.305 250.061 125.109 115.557 20.5579 4.31358 152.772 139.353 59.0323 8.714 103.021 1908.42 353.147 151.334 3.42222 147.912 66.7813 7.95014 1.68742 58.8311 58.2926 59.1247 24.5598 135.323 20.0321 17.7713 68.4655 21.8692 40.3772 31.9544 34.5649 1.90178 32.6631 15.4568 17.2063 94.9455 16.4189 51.7965 70.6544 46.8292 53.9745 20.1512 38.6849 27.6229 108.622 54.0409 9.61684 70.8878 20.4748 2.83771 100.975 9.83754 45.7941 27.1928 95.5063 86.099 19.4407 5.97862 44.4056 4.79378 16.2468 4.07418 2.96817 17.6371 36.0555 7.37044 9.63532 9.5519 50.3183 20.4107 12.8283 17.607 9.5611 6.13902 3.81261 9.06417 6.70395 38.5102 49.8393 2.29617 133.244 43.1388 87.7012 83.7905 80.6148 26.0631 54.5517 15.5355 23.8252 11.8819 8.56442 5.18766
internal_count=145024 124159 20865 12046 8819 118682 6118 5477 7721 5284 2914 3694 3041 2782 5928 3985 431 115768 2891 2577 2393 2332 2133 1667 1549 317 1055 2639 1179 540 1590 1532 1913 1098 2437 1786 1024 923 788 70 1006 979 488 70 803 112877 19623 7715 145 7570 2984 270 61 2714 2706 905 494 3554 320 279 583 184 511 393 411 59 352 111 241 3043 226 474 726 366 466 140 895 547 584 808 132 396 696 85 532 353 638 165 515 459 128 56 669 74 241 65 56 611 479 58 139 101 418 237 108 381 153 95 67 337 61 372 2436 103 651 235 722 685 669 222 447 167 360 179 115 61
is_linear=0
shrinkage=0.1


Tree=7
num_leaves=127
num_cat=0
split_feature=12 3 11 3 12 11 7 11 2 12 3 11 1 7 3 2 12 12 11 3 3 12 1 1 7 3 3 3 5 1 12 3 3 1 2 0 2 7 1 7 3 4 3 1 2 6 2 4 2 12 2 12 5 0 3 2 6 6 2 4 4 11 1 1 4 7 11 4 5 3 3 7 4 1 2 2 1 1 3 6 12 11 3 12 5 7 4 11 12 1 1 1 5 4 5 2 3 1 1 7 3 3 7 0 3 5 11 7 0 5 2 6 4 11 7 11 7 4 1 5 11 0 7 4 3 1
split_gain=1902.57 244.9 180.504 122.446 88.0503 53.387 42.7505 40.4346 35.6094 35.1709 25.9035 24.9459 27.3377 23.8687 21.301 20.9585 20.9038 20.8064 20.6423 17.7441 17.3582 17.2129 16.4957 18.7843 16.3955 15.3179 14.1521 13.7736 13.1014 13.0987 13.0639 12.8159 12.3637 12.2405 11.797 12.5139 11.3604 15.7517 15.0148 12.1755 11.1688 13.9153 11.1429 11.6173 10.7841 11.5088 10.2887 11.8185 11.5385 12.5258 10.2225 18.2296 10.1962 10.0191 11.3748 9.99958 12.7279 9.9953 10.4872 20.0339 9.86053 9.79075 9.06245 10.0233 8.8211 8.71378 8.58007 9.05865 9.82139 12.6733 12.9021 8.89561 8.54659 14.7581 10.7997 10.2367 9.66677 12.6929 9.04235 10.6657 9.82558 8.49601 9.08465 17.0089 8.77797 8.46163 18.6245 15.7626 8.27492 8.2679 10.84 8.15449 8.13508 7.97356 7.91397 7.90143 7.75063 7.69708 7.69633 9.70598 7.48755 7.45416 7.37595 9.9808 8.07227 7.8832 7.80454 12.1498 7.87191 7.36137 7.299 8.85999 7.38516 7.27584 8.25418 8.04068 10.6749 7.6903 7.4769 7.24913 7.21764 7.18965 13.1096 13.0126 11.5053 10.1433
threshold=1.3557214140892031 1.1451613903045657 -1.4750000238418577 1.0161290764808657 0.032338307239115245 -1.5749999880790708 1.270385801792145 -1.1249999999999998 -0.52173912525176991 3.7437810897827153 2.532258272171021 -3.4250000715255733 0.6270718276500703 1.1348955631256106 0.13709676265716556 1.0000000180025095e-35 3.0771144628524785 2.6144279241561894 -0.57500001788139332 4.6612906455993661 1.7258066534996035 0.40049751102924352 0.5828729271888734 0.59944751858711254 -0.47862385213375086 1.9193549752235415 -0.11290311813354491 1.0000000180025095e-35 0.75510206818580639 0.1022099442780018 0.4104477614164353 0.388440951704979 2.7177420854568486 0.89226520061492931 0.52173912525177013 -0.55000001192092884 -0.69565218687057484 -0.081619709730148302 0.33425414562225347 1.2149031758308413 1.3919357061386111 1.2058823108673098 0.53225821256637584 0.46685083210468298 -0.52173912525176991 -2.2499999999999996 -0.78260868787765492 1.2058823108673098 0.78260868787765514 3.9029850959777836 0.95652174949646007 0.6144278645515443 -1.2755101323127744 -0.35000000894069666 -0.048387050628662102 -0.86956521868705738 -1.3166667222976682 0.83666664361953746 1.0000000180025095e-35 -0.79411765933036793 -1.421568691730499 -1.5749999880790708 -0.90331491827964772 0.53314918279647838 -1.0490196347236631 0.014054319821298124 -2.5749999284744258 -0.11960783600807189 0.50000000000000011 0.23387102037668231 0.46774196624755865 -0.30801634490489954 0.14705882966518405 -0.45027624070644373 0.86956521868705761 -0.52173912525176991 -0.62707182765007008 -0.58287292718887318 0.11290327832102777 -0.2388888821005821 2.5049751996994023 -0.72499999403953541 0.84178197383880626 2.1517413854599003 1.0000000180025095e-35 2.429383516311646 -0.48583880066871638 -0.87499999999999989 -0.11194029822945593 -0.27348066866397852 0.3453038632869721 -0.68232044577598561 -2.2755103111267085 -0.97058826684951771 -0.58163261413574208 0.26086955517530447 0.32661293447017675 0.33425414562225347 0.91988950967788707 -0.28331689536571497 1.6935484409332278 1.9838710427284243 1.5494583845138552 1.0000000180025095e-35 0.80645170807838451 -1.8918368220329282 -3.7749999761581416 0.38677127659320837 0.84999999403953563 1.0841836929321291 0.17391303926706317 -0.60833331942558277 -0.55788984894752491 -1.4250000119209287 -0.26850675046443934 -4.4249999523162833 1.6378224492073061 0.36274510622024542 0.17955801635980609 1.214285731315613 -2.0249999761581416 -0.25000000745058054 1.2149031758308413 0.31652662158012396 1.2365592718124392 0.23480663448572162
decision_type=2 2 2 2 2 2 2 2 2 2 2 2 2 2 2 2 2 2 2 2 2 2 2 2 2 2 2 2 2 2 2 2 2 2 2 2 2 2 2 2 2 2 2 2 2 2 2 2 2 2 2 2 2 2 2 2 2 2 2 2 2 2 2 2 2 2 2 2 2 2 2 2 2 2 2 2 2 2 2 2 2 2 2 2 2 2 2 2 2 2 2 2 2 2 2 2 2 2 2 2 2 2 2 2 2 2 2 2 2 2 2 2 2 2 2 2 2 2 2 2 2 2 2 2 2 2
left_child=1 5 8 6 88 21 16 24 14 11 55 93 13 25 -2 20 81 19 27 40 29 -1 61 -24 -6 66 -23 -8 91 -15 -7 -32 -30 92 -18 -36 37 -28 39 -39 121 60 -20 110 45 -26 47 89 49 52 -46 -52 -48 -38 -55 56 101 58 -56 -60 -42 -17 -27 -64 -29 -50 -13 68 69 -68 -71 -72 74 75 76 -74 -66 -78 79 -79 -80 82 -4 -84 -85 -33 87 -87 -3 -19 -91 120 -12 -10 97 -77 -76 -93 -14 -100 119 -9 103 104 -11 -105 -107 108 -108 -22 -44 112 -112 114 -47 -116 -117 -118 -115 -54 -16 122 -5 124 125 -124
right_child=2 4 3 17 7 30 18 10 9 102 33 12 98 15 28 22 34 46 42 -21 109 26 23 -25 44 62 36 64 32 -31 31 85 -34 -35 35 -37 53 38 -40 -41 41 -43 43 -45 50 113 48 -49 65 -51 51 -53 100 54 57 -57 -58 -59 59 -61 -62 -63 63 -65 72 -67 67 -69 -70 70 71 -73 73 -75 96 95 77 78 80 -81 -82 -83 83 84 -86 86 -88 -89 -90 90 -92 94 -94 -95 -96 -97 -98 -99 99 -101 -102 -103 -104 105 -106 106 107 -109 -110 -111 111 -113 -114 118 115 116 117 -119 -120 -121 -122 -123 123 -125 -126 -127
